<?xml version="1.0" encoding="US-ASCII"?>
<!--
Bayesian network in XMLBIF v0.3 (BayesNet Interchange Format)
Produced by BNJ 3.0 (http://bndev.sourceforge.net/
-->
		<!-- DTD for the XMLBIF 0.3 format -->
<!DOCTYPE BIF [
<!ELEMENT BIF ( NETWORK )*>
<!ATTLIST BIF VERSION CDATA #REQUIRED>
<!ELEMENT NETWORK ( NAME, ( PROPERTY | VARIABLE | DEFINITION )* )>
<!ELEMENT NAME (#PCDATA)>
<!ELEMENT VARIABLE ( NAME, ( OUTCOME |  PROPERTY )* ) >
	<!ATTLIST VARIABLE TYPE (nature|decision|utility) "nature">
<!ELEMENT OUTCOME (#PCDATA)>
<!ELEMENT DEFINITION ( FOR | GIVEN | TABLE | PROPERTY )* >
<!ELEMENT FOR (#PCDATA)>
<!ELEMENT GIVEN (#PCDATA)>
<!ELEMENT TABLE (#PCDATA)>
<!ELEMENT PROPERTY (#PCDATA)>
]>
<BIF VERSION="0.3">
<NETWORK>
<NAME>bn</NAME>
	<VARIABLE TYPE="nature">
		<NAME>observation(0)</NAME>
		<OUTCOME>O0</OUTCOME>
		<OUTCOME>O1</OUTCOME>
		<OUTCOME>O2</OUTCOME>
		<OUTCOME>O3</OUTCOME>
		<OUTCOME>O4</OUTCOME>
		<PROPERTY>position = (0,60)</PROPERTY>
	</VARIABLE>
	<VARIABLE TYPE="nature">
		<NAME>chord(0)</NAME>
		<OUTCOME>Cmaj</OUTCOME>
		<OUTCOME>Dbmaj</OUTCOME>
		<OUTCOME>Dmaj</OUTCOME>
		<OUTCOME>Ebmaj</OUTCOME>
		<OUTCOME>Emaj</OUTCOME>
		<OUTCOME>Fmaj</OUTCOME>
		<OUTCOME>Gbmaj</OUTCOME>
		<OUTCOME>Gmaj</OUTCOME>
		<OUTCOME>Abmaj</OUTCOME>
		<OUTCOME>Amaj</OUTCOME>
		<OUTCOME>Bbmaj</OUTCOME>
		<OUTCOME>Bmaj</OUTCOME>
		<OUTCOME>Cmin</OUTCOME>
		<OUTCOME>Dbmin</OUTCOME>
		<OUTCOME>Dmin</OUTCOME>
		<OUTCOME>Ebmin</OUTCOME>
		<OUTCOME>Emin</OUTCOME>
		<OUTCOME>Fmin</OUTCOME>
		<OUTCOME>Gbmin</OUTCOME>
		<OUTCOME>Gmin</OUTCOME>
		<OUTCOME>Abmin</OUTCOME>
		<OUTCOME>Amin</OUTCOME>
		<OUTCOME>Bbmin</OUTCOME>
		<OUTCOME>Bmin</OUTCOME>
		<PROPERTY>position = (0,30)</PROPERTY>
	</VARIABLE>
	<VARIABLE TYPE="nature">
		<NAME>key(0)</NAME>
		<OUTCOME>Cmajor</OUTCOME>
		<OUTCOME>Dbmajor</OUTCOME>
		<OUTCOME>Dmajor</OUTCOME>
		<OUTCOME>Ebmajor</OUTCOME>
		<OUTCOME>Emajor</OUTCOME>
		<OUTCOME>Fmajor</OUTCOME>
		<OUTCOME>Gbmajor</OUTCOME>
		<OUTCOME>Gmajor</OUTCOME>
		<OUTCOME>Abmajor</OUTCOME>
		<OUTCOME>Amajor</OUTCOME>
		<OUTCOME>Bbmajor</OUTCOME>
		<OUTCOME>Bmajor</OUTCOME>
		<OUTCOME>Cminor</OUTCOME>
		<OUTCOME>Dbminor</OUTCOME>
		<OUTCOME>Dminor</OUTCOME>
		<OUTCOME>Ebminor</OUTCOME>
		<OUTCOME>Eminor</OUTCOME>
		<OUTCOME>Fminor</OUTCOME>
		<OUTCOME>Gbminor</OUTCOME>
		<OUTCOME>Gminor</OUTCOME>
		<OUTCOME>Abminor</OUTCOME>
		<OUTCOME>Aminor</OUTCOME>
		<OUTCOME>Bbminor</OUTCOME>
		<OUTCOME>Bminor</OUTCOME>
		<PROPERTY>position = (0,0)</PROPERTY>
	</VARIABLE>
	<VARIABLE TYPE="nature">
		<NAME>observation(1)</NAME>
		<OUTCOME>O0</OUTCOME>
		<OUTCOME>O1</OUTCOME>
		<OUTCOME>O2</OUTCOME>
		<OUTCOME>O3</OUTCOME>
		<OUTCOME>O4</OUTCOME>
		<PROPERTY>position = (60,60)</PROPERTY>
	</VARIABLE>
	<VARIABLE TYPE="nature">
		<NAME>chord(1)</NAME>
		<OUTCOME>Cmaj</OUTCOME>
		<OUTCOME>Dbmaj</OUTCOME>
		<OUTCOME>Dmaj</OUTCOME>
		<OUTCOME>Ebmaj</OUTCOME>
		<OUTCOME>Emaj</OUTCOME>
		<OUTCOME>Fmaj</OUTCOME>
		<OUTCOME>Gbmaj</OUTCOME>
		<OUTCOME>Gmaj</OUTCOME>
		<OUTCOME>Abmaj</OUTCOME>
		<OUTCOME>Amaj</OUTCOME>
		<OUTCOME>Bbmaj</OUTCOME>
		<OUTCOME>Bmaj</OUTCOME>
		<OUTCOME>Cmin</OUTCOME>
		<OUTCOME>Dbmin</OUTCOME>
		<OUTCOME>Dmin</OUTCOME>
		<OUTCOME>Ebmin</OUTCOME>
		<OUTCOME>Emin</OUTCOME>
		<OUTCOME>Fmin</OUTCOME>
		<OUTCOME>Gbmin</OUTCOME>
		<OUTCOME>Gmin</OUTCOME>
		<OUTCOME>Abmin</OUTCOME>
		<OUTCOME>Amin</OUTCOME>
		<OUTCOME>Bbmin</OUTCOME>
		<OUTCOME>Bmin</OUTCOME>
		<PROPERTY>position = (60,30)</PROPERTY>
	</VARIABLE>
	<VARIABLE TYPE="nature">
		<NAME>key(1)</NAME>
		<OUTCOME>Cmajor</OUTCOME>
		<OUTCOME>Dbmajor</OUTCOME>
		<OUTCOME>Dmajor</OUTCOME>
		<OUTCOME>Ebmajor</OUTCOME>
		<OUTCOME>Emajor</OUTCOME>
		<OUTCOME>Fmajor</OUTCOME>
		<OUTCOME>Gbmajor</OUTCOME>
		<OUTCOME>Gmajor</OUTCOME>
		<OUTCOME>Abmajor</OUTCOME>
		<OUTCOME>Amajor</OUTCOME>
		<OUTCOME>Bbmajor</OUTCOME>
		<OUTCOME>Bmajor</OUTCOME>
		<OUTCOME>Cminor</OUTCOME>
		<OUTCOME>Dbminor</OUTCOME>
		<OUTCOME>Dminor</OUTCOME>
		<OUTCOME>Ebminor</OUTCOME>
		<OUTCOME>Eminor</OUTCOME>
		<OUTCOME>Fminor</OUTCOME>
		<OUTCOME>Gbminor</OUTCOME>
		<OUTCOME>Gminor</OUTCOME>
		<OUTCOME>Abminor</OUTCOME>
		<OUTCOME>Aminor</OUTCOME>
		<OUTCOME>Bbminor</OUTCOME>
		<OUTCOME>Bminor</OUTCOME>
		<PROPERTY>position = (60,0)</PROPERTY>
	</VARIABLE>
	<VARIABLE TYPE="nature">
		<NAME>observation(2)</NAME>
		<OUTCOME>O0</OUTCOME>
		<OUTCOME>O1</OUTCOME>
		<OUTCOME>O2</OUTCOME>
		<OUTCOME>O3</OUTCOME>
		<OUTCOME>O4</OUTCOME>
		<PROPERTY>position = (120,60)</PROPERTY>
	</VARIABLE>
	<VARIABLE TYPE="nature">
		<NAME>chord(2)</NAME>
		<OUTCOME>Cmaj</OUTCOME>
		<OUTCOME>Dbmaj</OUTCOME>
		<OUTCOME>Dmaj</OUTCOME>
		<OUTCOME>Ebmaj</OUTCOME>
		<OUTCOME>Emaj</OUTCOME>
		<OUTCOME>Fmaj</OUTCOME>
		<OUTCOME>Gbmaj</OUTCOME>
		<OUTCOME>Gmaj</OUTCOME>
		<OUTCOME>Abmaj</OUTCOME>
		<OUTCOME>Amaj</OUTCOME>
		<OUTCOME>Bbmaj</OUTCOME>
		<OUTCOME>Bmaj</OUTCOME>
		<OUTCOME>Cmin</OUTCOME>
		<OUTCOME>Dbmin</OUTCOME>
		<OUTCOME>Dmin</OUTCOME>
		<OUTCOME>Ebmin</OUTCOME>
		<OUTCOME>Emin</OUTCOME>
		<OUTCOME>Fmin</OUTCOME>
		<OUTCOME>Gbmin</OUTCOME>
		<OUTCOME>Gmin</OUTCOME>
		<OUTCOME>Abmin</OUTCOME>
		<OUTCOME>Amin</OUTCOME>
		<OUTCOME>Bbmin</OUTCOME>
		<OUTCOME>Bmin</OUTCOME>
		<PROPERTY>position = (120,30)</PROPERTY>
	</VARIABLE>
	<VARIABLE TYPE="nature">
		<NAME>key(2)</NAME>
		<OUTCOME>Cmajor</OUTCOME>
		<OUTCOME>Dbmajor</OUTCOME>
		<OUTCOME>Dmajor</OUTCOME>
		<OUTCOME>Ebmajor</OUTCOME>
		<OUTCOME>Emajor</OUTCOME>
		<OUTCOME>Fmajor</OUTCOME>
		<OUTCOME>Gbmajor</OUTCOME>
		<OUTCOME>Gmajor</OUTCOME>
		<OUTCOME>Abmajor</OUTCOME>
		<OUTCOME>Amajor</OUTCOME>
		<OUTCOME>Bbmajor</OUTCOME>
		<OUTCOME>Bmajor</OUTCOME>
		<OUTCOME>Cminor</OUTCOME>
		<OUTCOME>Dbminor</OUTCOME>
		<OUTCOME>Dminor</OUTCOME>
		<OUTCOME>Ebminor</OUTCOME>
		<OUTCOME>Eminor</OUTCOME>
		<OUTCOME>Fminor</OUTCOME>
		<OUTCOME>Gbminor</OUTCOME>
		<OUTCOME>Gminor</OUTCOME>
		<OUTCOME>Abminor</OUTCOME>
		<OUTCOME>Aminor</OUTCOME>
		<OUTCOME>Bbminor</OUTCOME>
		<OUTCOME>Bminor</OUTCOME>
		<PROPERTY>position = (120,0)</PROPERTY>
	</VARIABLE>
	<VARIABLE TYPE="nature">
		<NAME>observation(3)</NAME>
		<OUTCOME>O0</OUTCOME>
		<OUTCOME>O1</OUTCOME>
		<OUTCOME>O2</OUTCOME>
		<OUTCOME>O3</OUTCOME>
		<OUTCOME>O4</OUTCOME>
		<PROPERTY>position = (180,60)</PROPERTY>
	</VARIABLE>
	<VARIABLE TYPE="nature">
		<NAME>chord(3)</NAME>
		<OUTCOME>Cmaj</OUTCOME>
		<OUTCOME>Dbmaj</OUTCOME>
		<OUTCOME>Dmaj</OUTCOME>
		<OUTCOME>Ebmaj</OUTCOME>
		<OUTCOME>Emaj</OUTCOME>
		<OUTCOME>Fmaj</OUTCOME>
		<OUTCOME>Gbmaj</OUTCOME>
		<OUTCOME>Gmaj</OUTCOME>
		<OUTCOME>Abmaj</OUTCOME>
		<OUTCOME>Amaj</OUTCOME>
		<OUTCOME>Bbmaj</OUTCOME>
		<OUTCOME>Bmaj</OUTCOME>
		<OUTCOME>Cmin</OUTCOME>
		<OUTCOME>Dbmin</OUTCOME>
		<OUTCOME>Dmin</OUTCOME>
		<OUTCOME>Ebmin</OUTCOME>
		<OUTCOME>Emin</OUTCOME>
		<OUTCOME>Fmin</OUTCOME>
		<OUTCOME>Gbmin</OUTCOME>
		<OUTCOME>Gmin</OUTCOME>
		<OUTCOME>Abmin</OUTCOME>
		<OUTCOME>Amin</OUTCOME>
		<OUTCOME>Bbmin</OUTCOME>
		<OUTCOME>Bmin</OUTCOME>
		<PROPERTY>position = (180,30)</PROPERTY>
	</VARIABLE>
	<VARIABLE TYPE="nature">
		<NAME>key(3)</NAME>
		<OUTCOME>Cmajor</OUTCOME>
		<OUTCOME>Dbmajor</OUTCOME>
		<OUTCOME>Dmajor</OUTCOME>
		<OUTCOME>Ebmajor</OUTCOME>
		<OUTCOME>Emajor</OUTCOME>
		<OUTCOME>Fmajor</OUTCOME>
		<OUTCOME>Gbmajor</OUTCOME>
		<OUTCOME>Gmajor</OUTCOME>
		<OUTCOME>Abmajor</OUTCOME>
		<OUTCOME>Amajor</OUTCOME>
		<OUTCOME>Bbmajor</OUTCOME>
		<OUTCOME>Bmajor</OUTCOME>
		<OUTCOME>Cminor</OUTCOME>
		<OUTCOME>Dbminor</OUTCOME>
		<OUTCOME>Dminor</OUTCOME>
		<OUTCOME>Ebminor</OUTCOME>
		<OUTCOME>Eminor</OUTCOME>
		<OUTCOME>Fminor</OUTCOME>
		<OUTCOME>Gbminor</OUTCOME>
		<OUTCOME>Gminor</OUTCOME>
		<OUTCOME>Abminor</OUTCOME>
		<OUTCOME>Aminor</OUTCOME>
		<OUTCOME>Bbminor</OUTCOME>
		<OUTCOME>Bminor</OUTCOME>
		<PROPERTY>position = (180,0)</PROPERTY>
	</VARIABLE>
	<VARIABLE TYPE="nature">
		<NAME>observation(4)</NAME>
		<OUTCOME>O0</OUTCOME>
		<OUTCOME>O1</OUTCOME>
		<OUTCOME>O2</OUTCOME>
		<OUTCOME>O3</OUTCOME>
		<OUTCOME>O4</OUTCOME>
		<PROPERTY>position = (240,60)</PROPERTY>
	</VARIABLE>
	<VARIABLE TYPE="nature">
		<NAME>chord(4)</NAME>
		<OUTCOME>Cmaj</OUTCOME>
		<OUTCOME>Dbmaj</OUTCOME>
		<OUTCOME>Dmaj</OUTCOME>
		<OUTCOME>Ebmaj</OUTCOME>
		<OUTCOME>Emaj</OUTCOME>
		<OUTCOME>Fmaj</OUTCOME>
		<OUTCOME>Gbmaj</OUTCOME>
		<OUTCOME>Gmaj</OUTCOME>
		<OUTCOME>Abmaj</OUTCOME>
		<OUTCOME>Amaj</OUTCOME>
		<OUTCOME>Bbmaj</OUTCOME>
		<OUTCOME>Bmaj</OUTCOME>
		<OUTCOME>Cmin</OUTCOME>
		<OUTCOME>Dbmin</OUTCOME>
		<OUTCOME>Dmin</OUTCOME>
		<OUTCOME>Ebmin</OUTCOME>
		<OUTCOME>Emin</OUTCOME>
		<OUTCOME>Fmin</OUTCOME>
		<OUTCOME>Gbmin</OUTCOME>
		<OUTCOME>Gmin</OUTCOME>
		<OUTCOME>Abmin</OUTCOME>
		<OUTCOME>Amin</OUTCOME>
		<OUTCOME>Bbmin</OUTCOME>
		<OUTCOME>Bmin</OUTCOME>
		<PROPERTY>position = (240,30)</PROPERTY>
	</VARIABLE>
	<VARIABLE TYPE="nature">
		<NAME>key(4)</NAME>
		<OUTCOME>Cmajor</OUTCOME>
		<OUTCOME>Dbmajor</OUTCOME>
		<OUTCOME>Dmajor</OUTCOME>
		<OUTCOME>Ebmajor</OUTCOME>
		<OUTCOME>Emajor</OUTCOME>
		<OUTCOME>Fmajor</OUTCOME>
		<OUTCOME>Gbmajor</OUTCOME>
		<OUTCOME>Gmajor</OUTCOME>
		<OUTCOME>Abmajor</OUTCOME>
		<OUTCOME>Amajor</OUTCOME>
		<OUTCOME>Bbmajor</OUTCOME>
		<OUTCOME>Bmajor</OUTCOME>
		<OUTCOME>Cminor</OUTCOME>
		<OUTCOME>Dbminor</OUTCOME>
		<OUTCOME>Dminor</OUTCOME>
		<OUTCOME>Ebminor</OUTCOME>
		<OUTCOME>Eminor</OUTCOME>
		<OUTCOME>Fminor</OUTCOME>
		<OUTCOME>Gbminor</OUTCOME>
		<OUTCOME>Gminor</OUTCOME>
		<OUTCOME>Abminor</OUTCOME>
		<OUTCOME>Aminor</OUTCOME>
		<OUTCOME>Bbminor</OUTCOME>
		<OUTCOME>Bminor</OUTCOME>
		<PROPERTY>position = (240,0)</PROPERTY>
	</VARIABLE>
	<DEFINITION>
		<FOR>observation(0)</FOR>
		<GIVEN>chord(0)</GIVEN>
		<TABLE>0.04166666667 0.04166666667 0.04166666667 0.04166666667 0.04166666667 0.04166666667 0.04166666667 0.04166666667 0.04166666667 0.04166666667 0.04166666667 0.04166666667 0.04166666667 0.04166666667 0.04166666667 0.04166666667 0.04166666667 0.04166666667 0.04166666667 0.04166666667 0.04166666667 0.04166666667 0.04166666667 0.04166666667 0.04166666667 0.04166666667 0.04166666667 0.04166666667 0.04166666667 0.04166666667 0.04166666667 0.04166666667 0.04166666667 0.04166666667 0.04166666667 0.04166666667 0.04166666667 0.04166666667 0.04166666667 0.04166666667 0.04166666667 0.04166666667 0.04166666667 0.04166666667 0.04166666667 0.04166666667 0.04166666667 0.04166666667 0.04166666667 0.04166666667 0.04166666667 0.04166666667 0.04166666667 0.04166666667 0.04166666667 0.04166666667 0.04166666667 0.04166666667 0.04166666667 0.04166666667 0.04166666667 0.04166666667 0.04166666667 0.04166666667 0.04166666667 0.04166666667 0.04166666667 0.04166666667 0.04166666667 0.04166666667 0.04166666667 0.04166666667 0.04166666667 0.04166666667 0.04166666667 0.04166666667 0.04166666667 0.04166666667 0.04166666667 0.04166666667 0.04166666667 0.04166666667 0.04166666667 0.04166666667 0.04166666667 0.04166666667 0.04166666667 0.04166666667 0.04166666667 0.04166666667 0.04166666667 0.04166666667 0.04166666667 0.04166666667 0.04166666667 0.04166666667 0.04166666667 0.04166666667 0.04166666667 0.04166666667 0.04166666667 0.04166666667 0.04166666667 0.04166666667 0.04166666667 0.04166666667 0.04166666667 0.04166666667 0.04166666667 0.04166666667 0.04166666667 0.04166666667 0.04166666667 0.04166666667 0.04166666667 0.04166666667 0.04166666667 0.04166666667 0.04166666667 0.04166666667 		</TABLE>	</DEFINITION>	<DEFINITION>
		<FOR>chord(0)</FOR>
		<GIVEN>key(0)</GIVEN>
		<TABLE>0.07145923 0.0501073 0.05075107 0.04978541 0.05375536 0.05718884 0.04678112 0.05997854 0.04978541 0.04624464 0.04935622 0.05053648 0.04023605 0.02961373 0.02746781 0.0388412 0.02800429 0.02875536 0.02285408 0.03422747 0.02961373 0.02339056 0.03347639 0.0277897 0.05053648 0.07145923 0.0501073 0.05075107 0.04978541 0.05375536 0.05718884 0.04678112 0.05997854 0.04978541 0.04624464 0.04935622 0.0277897 0.04023605 0.02961373 0.02746781 0.0388412 0.02800429 0.02875536 0.02285408 0.03422747 0.02961373 0.02339056 0.03347639 0.04935622 0.05053648 0.07145923 0.0501073 0.05075107 0.04978541 0.05375536 0.05718884 0.04678112 0.05997854 0.04978541 0.04624464 0.03347639 0.0277897 0.04023605 0.02961373 0.02746781 0.0388412 0.02800429 0.02875536 0.02285408 0.03422747 0.02961373 0.02339056 0.04624464 0.04935622 0.05053648 0.07145923 0.0501073 0.05075107 0.04978541 0.05375536 0.05718884 0.04678112 0.05997854 0.04978541 0.02339056 0.03347639 0.0277897 0.04023605 0.02961373 0.02746781 0.0388412 0.02800429 0.02875536 0.02285408 0.03422747 0.02961373 0.04978541 0.04624464 0.04935622 0.05053648 0.07145923 0.0501073 0.05075107 0.04978541 0.05375536 0.05718884 0.04678112 0.05997854 0.02961373 0.02339056 0.03347639 0.0277897 0.04023605 0.02961373 0.02746781 0.0388412 0.02800429 0.02875536 0.02285408 0.03422747 0.05997854 0.04978541 0.04624464 0.04935622 0.05053648 0.07145923 0.0501073 0.05075107 0.04978541 0.05375536 0.05718884 0.04678112 0.03422747 0.02961373 0.02339056 0.03347639 0.0277897 0.04023605 0.02961373 0.02746781 0.0388412 0.02800429 0.02875536 0.02285408 0.04678112 0.05997854 0.04978541 0.04624464 0.04935622 0.05053648 0.07145923 0.0501073 0.05075107 0.04978541 0.05375536 0.05718884 0.02285408 0.03422747 0.02961373 0.02339056 0.03347639 0.0277897 0.04023605 0.02961373 0.02746781 0.0388412 0.02800429 0.02875536 0.05718884 0.04678112 0.05997854 0.04978541 0.04624464 0.04935622 0.05053648 0.07145923 0.0501073 0.05075107 0.04978541 0.05375536 0.02875536 0.02285408 0.03422747 0.02961373 0.02339056 0.03347639 0.0277897 0.04023605 0.02961373 0.02746781 0.0388412 0.02800429 0.05375536 0.05718884 0.04678112 0.05997854 0.04978541 0.04624464 0.04935622 0.05053648 0.07145923 0.0501073 0.05075107 0.04978541 0.02800429 0.02875536 0.02285408 0.03422747 0.02961373 0.02339056 0.03347639 0.0277897 0.04023605 0.02961373 0.02746781 0.0388412 0.04978541 0.05375536 0.05718884 0.04678112 0.05997854 0.04978541 0.04624464 0.04935622 0.05053648 0.07145923 0.0501073 0.05075107 0.0388412 0.02800429 0.02875536 0.02285408 0.03422747 0.02961373 0.02339056 0.03347639 0.0277897 0.04023605 0.02961373 0.02746781 0.05075107 0.04978541 0.05375536 0.05718884 0.04678112 0.05997854 0.04978541 0.04624464 0.04935622 0.05053648 0.07145923 0.0501073 0.02746781 0.0388412 0.02800429 0.02875536 0.02285408 0.03422747 0.02961373 0.02339056 0.03347639 0.0277897 0.04023605 0.02961373 0.0501073 0.05075107 0.04978541 0.05375536 0.05718884 0.04678112 0.05997854 0.04978541 0.04624464 0.04935622 0.05053648 0.07145923 0.02961373 0.02746781 0.0388412 0.02800429 0.02875536 0.02285408 0.03422747 0.02961373 0.02339056 0.03347639 0.0277897 0.04023605 0.05638898 0.0409618 0.04489839 0.0392595 0.04734546 0.0466007 0.04170656 0.04691989 0.04245132 0.04404724 0.04074902 0.04372806 0.06277264 0.03340781 0.03330142 0.04021704 0.03755719 0.03702522 0.0317055 0.04894138 0.0354293 0.037238 0.03457815 0.03276944 0.04372806 0.05638898 0.0409618 0.04489839 0.0392595 0.04734546 0.0466007 0.04170656 0.04691989 0.04245132 0.04404724 0.04074902 0.03276944 0.06277264 0.03340781 0.03330142 0.04021704 0.03755719 0.03702522 0.0317055 0.04894138 0.0354293 0.037238 0.03457815 0.04074902 0.04372806 0.05638898 0.0409618 0.04489839 0.0392595 0.04734546 0.0466007 0.04170656 0.04691989 0.04245132 0.04404724 0.03457815 0.03276944 0.06277264 0.03340781 0.03330142 0.04021704 0.03755719 0.03702522 0.0317055 0.04894138 0.0354293 0.037238 0.04404724 0.04074902 0.04372806 0.05638898 0.0409618 0.04489839 0.0392595 0.04734546 0.0466007 0.04170656 0.04691989 0.04245132 0.037238 0.03457815 0.03276944 0.06277264 0.03340781 0.03330142 0.04021704 0.03755719 0.03702522 0.0317055 0.04894138 0.0354293 0.04245132 0.04404724 0.04074902 0.04372806 0.05638898 0.0409618 0.04489839 0.0392595 0.04734546 0.0466007 0.04170656 0.04691989 0.0354293 0.037238 0.03457815 0.03276944 0.06277264 0.03340781 0.03330142 0.04021704 0.03755719 0.03702522 0.0317055 0.04894138 0.04691989 0.04245132 0.04404724 0.04074902 0.04372806 0.05638898 0.0409618 0.04489839 0.0392595 0.04734546 0.0466007 0.04170656 0.04894138 0.0354293 0.037238 0.03457815 0.03276944 0.06277264 0.03340781 0.03330142 0.04021704 0.03755719 0.03702522 0.0317055 0.04170656 0.04691989 0.04245132 0.04404724 0.04074902 0.04372806 0.05638898 0.0409618 0.04489839 0.0392595 0.04734546 0.0466007 0.0317055 0.04894138 0.0354293 0.037238 0.03457815 0.03276944 0.06277264 0.03340781 0.03330142 0.04021704 0.03755719 0.03702522 0.0466007 0.04170656 0.04691989 0.04245132 0.04404724 0.04074902 0.04372806 0.05638898 0.0409618 0.04489839 0.0392595 0.04734546 0.03702522 0.0317055 0.04894138 0.0354293 0.037238 0.03457815 0.03276944 0.06277264 0.03340781 0.03330142 0.04021704 0.03755719 0.04734546 0.0466007 0.04170656 0.04691989 0.04245132 0.04404724 0.04074902 0.04372806 0.05638898 0.0409618 0.04489839 0.0392595 0.03755719 0.03702522 0.0317055 0.04894138 0.0354293 0.037238 0.03457815 0.03276944 0.06277264 0.03340781 0.03330142 0.04021704 0.0392595 0.04734546 0.0466007 0.04170656 0.04691989 0.04245132 0.04404724 0.04074902 0.04372806 0.05638898 0.0409618 0.04489839 0.04021704 0.03755719 0.03702522 0.0317055 0.04894138 0.0354293 0.037238 0.03457815 0.03276944 0.06277264 0.03340781 0.03330142 0.04489839 0.0392595 0.04734546 0.0466007 0.04170656 0.04691989 0.04245132 0.04404724 0.04074902 0.04372806 0.05638898 0.0409618 0.03330142 0.04021704 0.03755719 0.03702522 0.0317055 0.04894138 0.0354293 0.037238 0.03457815 0.03276944 0.06277264 0.03340781 0.0409618 0.04489839 0.0392595 0.04734546 0.0466007 0.04170656 0.04691989 0.04245132 0.04404724 0.04074902 0.04372806 0.05638898 0.03340781 0.03330142 0.04021704 0.03755719 0.03702522 0.0317055 0.04894138 0.0354293 0.037238 0.03457815 0.03276944 0.06277264 		</TABLE>	</DEFINITION>	<DEFINITION>
		<FOR>key(0)</FOR>
		<TABLE>0.04166666667 0.04166666667 0.04166666667 0.04166666667 0.04166666667 0.04166666667 0.04166666667 0.04166666667 0.04166666667 0.04166666667 0.04166666667 0.04166666667 0.04166666667 0.04166666667 0.04166666667 0.04166666667 0.04166666667 0.04166666667 0.04166666667 0.04166666667 0.04166666667 0.04166666667 0.04166666667 0.04166666667 		</TABLE>	</DEFINITION>	<DEFINITION>
		<FOR>observation(1)</FOR>
		<GIVEN>chord(1)</GIVEN>
		<TABLE>0.04166666667 0.04166666667 0.04166666667 0.04166666667 0.04166666667 0.04166666667 0.04166666667 0.04166666667 0.04166666667 0.04166666667 0.04166666667 0.04166666667 0.04166666667 0.04166666667 0.04166666667 0.04166666667 0.04166666667 0.04166666667 0.04166666667 0.04166666667 0.04166666667 0.04166666667 0.04166666667 0.04166666667 0.04166666667 0.04166666667 0.04166666667 0.04166666667 0.04166666667 0.04166666667 0.04166666667 0.04166666667 0.04166666667 0.04166666667 0.04166666667 0.04166666667 0.04166666667 0.04166666667 0.04166666667 0.04166666667 0.04166666667 0.04166666667 0.04166666667 0.04166666667 0.04166666667 0.04166666667 0.04166666667 0.04166666667 0.04166666667 0.04166666667 0.04166666667 0.04166666667 0.04166666667 0.04166666667 0.04166666667 0.04166666667 0.04166666667 0.04166666667 0.04166666667 0.04166666667 0.04166666667 0.04166666667 0.04166666667 0.04166666667 0.04166666667 0.04166666667 0.04166666667 0.04166666667 0.04166666667 0.04166666667 0.04166666667 0.04166666667 0.04166666667 0.04166666667 0.04166666667 0.04166666667 0.04166666667 0.04166666667 0.04166666667 0.04166666667 0.04166666667 0.04166666667 0.04166666667 0.04166666667 0.04166666667 0.04166666667 0.04166666667 0.04166666667 0.04166666667 0.04166666667 0.04166666667 0.04166666667 0.04166666667 0.04166666667 0.04166666667 0.04166666667 0.04166666667 0.04166666667 0.04166666667 0.04166666667 0.04166666667 0.04166666667 0.04166666667 0.04166666667 0.04166666667 0.04166666667 0.04166666667 0.04166666667 0.04166666667 0.04166666667 0.04166666667 0.04166666667 0.04166666667 0.04166666667 0.04166666667 0.04166666667 0.04166666667 0.04166666667 0.04166666667 0.04166666667 		</TABLE>	</DEFINITION>	<DEFINITION>
		<FOR>chord(1)</FOR>
		<GIVEN>key(1)</GIVEN>
		<GIVEN>chord(0)</GIVEN>
		<TABLE>0.13883870201604695 0.024338473011947023 0.0512744236513589 0.0432859858340436 0.042560000719201775 0.08839010715650752 0.014406284992912525 0.0927018204546704 0.03941685229911501 0.04020745901139402 0.04986518972131372 0.02454693736439203 0.05906116724275817 0.02019539857441874 0.033007753294591845 0.013055427034978948 0.04178669105568753 0.033940427204099996 0.01400926355815217 0.04126376131415543 0.014154043508371836 0.03751542867614621 0.019447422620461247 0.02273097968327417 0.036302778849940556 0.10182218834887077 0.025782601780173855 0.052607405612316124 0.04888281548738606 0.047356582268689974 0.07562270367581797 0.019318192483860352 0.080479204170595 0.038293976563363606 0.04488242652295201 0.05340104865217945 0.034422217688492705 0.04546414323976861 0.019591719905716027 0.04881730287580922 0.009844920683000549 0.044876754097826516 0.028213141751074932 0.021943988816092636 0.03734017413037291 0.01169276565198807 0.05615612406598807 0.01688482267772381 0.07504303269432736 0.02529820965767825 0.10249292227360446 0.025135693602997403 0.056451283311831614 0.051683625709458135 0.03849877646103761 0.09635732234966077 0.015936022529051862 0.07429340032991827 0.040617968974274096 0.04567164707298692 0.02429602538977656 0.025178152982958408 0.04190898873985535 0.027532675457330274 0.03497944839061485 0.010046475099910053 0.035446521228128226 0.04199230885519655 0.018868663314389363 0.029311030939704975 0.01663115812594475 0.04632864650936378 0.06274357468104692 0.05112370109200379 0.024894489769648163 0.09768322775922883 0.02636815853505658 0.05834888652867805 0.04107537537674305 0.0479558334039116 0.07770700342720777 0.014381642561524547 0.07703710698965861 0.040406435630145565 0.06517039209751467 0.017373297107604456 0.02268945325800656 0.057576468897490365 0.01928632956147557 0.03489606362058349 0.007757609011949542 0.05157674319999165 0.0352985860046717 0.014479643954101227 0.04075663629631163 0.013413341235445752 0.05946749005187971 0.04579179323111683 0.05389422260361546 0.025417675918670397 0.10977802464112692 0.029197457674541474 0.04967840273961609 0.0548128696214777 0.04143080430482882 0.07512685356161079 0.01597587679522855 0.08209917370919685 0.0202136237407087 0.04992336272130068 0.01677215597268818 0.03339399353779207 0.04320685718917107 0.020611972286403452 0.028866697271067228 0.012092460176619755 0.04644596095272454 0.02901887283074569 0.021569079227977333 0.03521431923989189 0.11163536957608781 0.040098854195869504 0.04460068587466461 0.05084037927875475 0.02639156897034237 0.11230901275304203 0.022967517192515552 0.06124950506957686 0.043752051583373246 0.03700772296053618 0.07710550282417956 0.015730317377172558 0.04902983850581419 0.014306441906298251 0.04452915336057668 0.022806948495294386 0.023153143909020162 0.04266351220048705 0.015753395232971996 0.04157361959843563 0.010061035114730563 0.0352780965735242 0.03993817572542419 0.017218151721307362 0.023130247823856576 0.08140178746615556 0.04223433125841178 0.045497536273162595 0.057084463789744494 0.02919740002475432 0.09553519507788948 0.030621663689641684 0.05286865224979581 0.04226172257774608 0.04107355658004941 0.08209901160604585 0.025924325672800282 0.03752560420092902 0.013799139827165229 0.06547906958866581 0.017099702975462778 0.02472257319573834 0.03526070545063116 0.024534357075927684 0.03740465120853765 0.008263796793289405 0.05250402542239873 0.03447648017120022 0.11153543994943901 0.01558276668280884 0.07921360082322153 0.039805594966246444 0.047198606782857255 0.058348413432437865 0.022946957978828945 0.11768206547255075 0.024420614795643426 0.0471823064387082 0.04333604723451196 0.04040610801236375 0.04795965100423713 0.018331873621121923 0.03344107489158164 0.018747451227401606 0.04535822383395218 0.016869585902518334 0.018878184154770643 0.05073686918446114 0.020394572598920392 0.02838538108272841 0.011363163125135424 0.0418754468035531 0.057926726416763254 0.07929287714402306 0.01600174671387271 0.07878349858593094 0.04357550497192061 0.0509093221443436 0.04839126793158746 0.02982833537774429 0.09903645870539145 0.02299823622487391 0.05105499966889154 0.044987412585413125 0.0614708979177517 0.03578758641992254 0.017239171856163936 0.04794324826673984 0.013704171412355812 0.04722031772220938 0.013593396306702121 0.028664864673857593 0.04450620879709913 0.01633205139135471 0.04118806132976598 0.0095636374353215 0.06560500797740945 0.04189037895261117 0.0828268245270031 0.0161888839690676 0.08772988963791073 0.04781064195157687 0.04294862610179468 0.063985992355082 0.025534528862464524 0.09487396499513524 0.025314400828117086 0.053913063287848534 0.014280625084070247 0.04665948744830341 0.034233867504573856 0.025140715704750186 0.035649382863074654 0.014512413974991924 0.038704946601490944 0.0209957632687296 0.025577661957584978 0.036254401633073974 0.024106345159853555 0.035262185353481704 0.07311447854891481 0.04412001963365269 0.0406925143582581 0.07792627760789611 0.016764578235596357 0.08951444653993113 0.03750938447791141 0.052811753225534455 0.05093861620806619 0.022747998917523826 0.09711438728126276 0.024859179189965903 0.04896623805090744 0.010080475669844177 0.04150753290828112 0.04642806723993906 0.01738463589780071 0.035107693135164875 0.011062177621638955 0.05559472197925156 0.017422321202230542 0.019376011576345938 0.049763942063180876 0.019192548430900916 0.03632249468717606 0.0529762968779398 0.04617590746764698 0.04124838517800817 0.08694390829886277 0.018429675374666506 0.07566377394548367 0.04969363354313181 0.04529730083324089 0.04889247230749711 0.025087606439771225 0.10275009040784101 0.02871439475823959 0.03724003269502316 0.009661565193056068 0.06065003641912592 0.03458980174877202 0.018445710267104266 0.028832531065218565 0.017119348123813417 0.049703551004188815 0.01421965514610524 0.02865483587175076 0.04268699234633603 0.10453750504439997 0.04084721747682196 0.029382971193857833 0.07957901043913958 0.025605678546167753 0.06871197463824133 0.028579151429862098 0.07055397882768664 0.07403595152152148 0.015491259259505041 0.05910999413971169 0.03434720514143177 0.07791027025593078 0.017374608630670526 0.022338434877300497 0.039672947874758675 0.02703143129728043 0.03727766692826781 0.007235373488096971 0.04437156156129774 0.02858495994546594 0.023891446907958958 0.027224964711133278 0.01630443586349118 0.051355530658452594 0.07750991740536324 0.04374708831102368 0.030478603784341092 0.0908574816223724 0.02880502628031058 0.059433900233778904 0.03874512606094395 0.06192559418550599 0.07271842285202014 0.017482747476383897 0.06399801261182772 0.024962020259205932 0.06063382388621127 0.017040739080899325 0.03340133456646122 0.03024606442732339 0.029349841383092608 0.03132824970443338 0.0114581494700904 0.04059434149699616 0.023874130800717177 0.03615621209229745 0.02389764134994767 0.08808857725736677 0.03505336017673746 0.07641898060627664 0.04177397499970495 0.03203424697236595 0.09409140908271715 0.02293651165556259 0.0741752929734051 0.03130567274398873 0.05599242306669275 0.07554830139396526 0.01742499036920524 0.033681101367302096 0.01788369560647813 0.054745149340906 0.023456153540615733 0.02344204588197212 0.03023172164947029 0.022706513620941397 0.0456716762612759 0.009650116622743026 0.03121136572144975 0.033260236487968296 0.02921648260088848 0.024894952075825944 0.062409064066737296 0.035872303156317474 0.07574317913349411 0.0455733436840449 0.03443415554189722 0.07776688521199458 0.029712421500060312 0.06220866378016341 0.029381080319054953 0.060380284484363174 0.07815795835981715 0.04274101336891571 0.025046639341598672 0.016759983855760854 0.07821672967546336 0.01708732688525387 0.024320648937429794 0.024276899417668214 0.034359506465030235 0.03992552816488476 0.0077013253937965095 0.04513320516543058 0.02789690201499704 0.10853000738449924 0.017142621926374467 0.06207477498762648 0.034557270234158007 0.08031312028806234 0.04761279642662183 0.02766126564902991 0.09791365494688464 0.024219631351767083 0.056745767046905975 0.030794384766026136 0.060712977949198145 0.03966529976392588 0.030891988972524976 0.022814117155079264 0.02327370275317649 0.0553802438963909 0.01723025295821399 0.018982061496404478 0.03570487830467251 0.029193657865967577 0.030968591975828064 0.010823974381445688 0.03679295751921583 0.0858792869497348 0.07612828622229241 0.0173690073743182 0.06091518817241952 0.03732610444229431 0.08547312119797947 0.03896158070471923 0.03547732556736347 0.08130233366863873 0.022505071367106864 0.06058533455648603 0.031541923964283756 0.053290492128471 0.029203981534406134 0.028663574250430396 0.032271995692563726 0.016786144674076565 0.056885641228503224 0.013699040156808822 0.02843858491517652 0.030902913216859965 0.023066918024828985 0.044337684682880775 0.00898846530735731 0.04644643247879084 0.06271074168699048 0.08029732775228636 0.017743640202426674 0.0684945654411612 0.04135357096383723 0.0728114582004926 0.052020279459172786 0.030666761062207133 0.07864537079950418 0.025013341983241087 0.06460132800369683 0.013552763666669392 0.04084494749085613 0.02820874891959759 0.04220945908948038 0.024230846600178976 0.01794965238718159 0.04708238236947032 0.021365449383790928 0.02562342230026607 0.025418959388485325 0.03437940921553366 0.038329141154682125 0.08669969814070365 0.030911339672963983 0.0602849541365395 0.07476197637803511 0.01818382341839771 0.06916214017821383 0.03210666092767688 0.08860287206810694 0.04098280458910918 0.02703647205418946 0.0796666305001636 0.02430846942924457 0.052672431261223514 0.00946735003826629 0.03595771289978384 0.03785953066867307 0.02888447713413706 0.02361487369854814 0.01354015927015152 0.06692560124305123 0.017544990688020002 0.01920911858305068 0.03452856764047418 0.027087345381276173 0.035545645892723465 0.0628688776236582 0.03237706528806037 0.06115630980849977 0.08347874522751779 0.020005535017904065 0.05850637677018388 0.04256923724390393 0.07605529411080088 0.03936737366111495 0.029840490753781104 0.08435580977114066 0.04055770558275272 0.040090049319920794 0.00908102369941798 0.052581880892576094 0.028228162279200525 0.03067144275746062 0.01940912752725612 0.020970572179832076 0.059880586811180886 0.014330986976445905 0.028430263771814995 0.029641437032852432 0.11727467913376877 0.024505580281247916 0.06260598022893943 0.031227001009027606 0.0649227444037806 0.08731750880995075 0.016089606000931206 0.07375040161565027 0.03474065304481921 0.06945838422121382 0.04130977619710119 0.03004034873165027 0.04219554947103314 0.029348577944916722 0.03655976739978388 0.012625230758463427 0.03727382447294101 0.02849789352081418 0.023967075874867166 0.028579391650514662 0.017838753548456123 0.04650176809372796 0.020165547227654238 0.023203956358746565 0.043023580228130326 0.08329044014974324 0.025139545772614756 0.06220437616583034 0.03415058898149723 0.0699575541165811 0.07234506289858193 0.02089387144885983 0.062003873567219585 0.03268477706526742 0.07508503697927257 0.04284145122807951 0.03402841768673 0.031455214724666884 0.027571869816814348 0.052362486646473944 0.009219757246326461 0.038765593081947804 0.02294066103351743 0.03635585312394264 0.025044913049418284 0.014271191928603846 0.06740866085321563 0.016955222206664667 0.060717282247978385 0.030237370670390996 0.08455400148681613 0.024717760407682015 0.06731865531602062 0.03641518476343891 0.057357306872404125 0.09296703497651039 0.017382807598913776 0.057726196542404566 0.03496397671179884 0.077056859172206 0.0246053628174448 0.025102347364456053 0.029242761562313438 0.03907775721751894 0.03783964007125822 0.009488739761618776 0.030880631551799424 0.03443592790207082 0.03152734948147408 0.019827220757707698 0.020471659662622974 0.05608616508315001 0.10275009040784101 0.03632249468717606 0.0529762968779398 0.04617590746764698 0.04124838517800817 0.08694390829886277 0.018429675374666506 0.07566377394548367 0.04969363354313181 0.04529730083324089 0.04889247230749711 0.025087606439771225 0.04268699234633603 0.02871439475823959 0.03724003269502316 0.009661565193056068 0.06065003641912592 0.03458980174877202 0.018445710267104266 0.028832531065218565 0.017119348123813417 0.049703551004188815 0.01421965514610524 0.02865483587175076 0.02454693736439203 0.13883870201604695 0.024338473011947023 0.0512744236513589 0.0432859858340436 0.042560000719201775 0.08839010715650752 0.014406284992912525 0.0927018204546704 0.03941685229911501 0.04020745901139402 0.04986518972131372 0.02273097968327417 0.05906116724275817 0.02019539857441874 0.033007753294591845 0.013055427034978948 0.04178669105568753 0.033940427204099996 0.01400926355815217 0.04126376131415543 0.014154043508371836 0.03751542867614621 0.019447422620461247 0.05340104865217946 0.03630277884994056 0.10182218834887079 0.02578260178017386 0.05260740561231613 0.048882815487386065 0.04735658226868998 0.07562270367581798 0.019318192483860356 0.08047920417059501 0.03829397656336361 0.04488242652295202 0.016884822677723812 0.03442221768849271 0.04546414323976862 0.01959171990571603 0.048817302875809224 0.00984492068300055 0.04487675409782652 0.028213141751074935 0.02194398881609264 0.03734017413037292 0.011692765651988072 0.05615612406598808 0.04567164707298693 0.07504303269432737 0.02529820965767826 0.1024929222736045 0.02513569360299741 0.056451283311831635 0.05168362570945815 0.03849877646103762 0.0963573223496608 0.015936022529051866 0.0742934003299183 0.04061796897427411 0.046328646509363795 0.024296025389776568 0.025178152982958415 0.041908988739855366 0.02753267545733028 0.034979448390614856 0.010046475099910057 0.03544652122812824 0.041992308855196565 0.01886866331438937 0.029311030939704986 0.016631158125944755 0.040406435630145565 0.06274357468104692 0.05112370109200379 0.024894489769648163 0.09768322775922883 0.02636815853505658 0.05834888652867805 0.04107537537674305 0.0479558334039116 0.07770700342720777 0.014381642561524547 0.07703710698965861 0.013413341235445752 0.06517039209751467 0.017373297107604456 0.02268945325800656 0.057576468897490365 0.01928632956147557 0.03489606362058349 0.007757609011949542 0.05157674319999165 0.0352985860046717 0.014479643954101227 0.04075663629631163 0.08209917370919684 0.0594674900518797 0.045791793231116824 0.053894222603615455 0.02541767591867039 0.1097780246411269 0.02919745767454147 0.04967840273961607 0.05481286962147769 0.04143080430482881 0.07512685356161078 0.015975876795228546 0.035214319239891885 0.020213623740708696 0.04992336272130067 0.016772155972688177 0.03339399353779207 0.04320685718917106 0.020611972286403445 0.02886669727106722 0.012092460176619753 0.04644596095272453 0.029018872830745685 0.02156907922797733 0.01573031737717256 0.11163536957608783 0.04009885419586951 0.044600685874664626 0.05084037927875476 0.026391568970342373 0.11230901275304205 0.022967517192515555 0.061249505069576875 0.04375205158337325 0.037007722960536185 0.07710550282417958 0.017218151721307366 0.049029838505814195 0.014306441906298253 0.04452915336057669 0.02280694849529439 0.023153143909020166 0.04266351220048706 0.015753395232971996 0.041573619598435634 0.010061035114730565 0.03527809657352421 0.0399381757254242 0.08209901160604588 0.023130247823856583 0.08140178746615559 0.04223433125841179 0.04549753627316261 0.057084463789744515 0.02919740002475433 0.0955351950778895 0.030621663689641695 0.052868652249795825 0.042261722577746096 0.04107355658004942 0.03447648017120023 0.025924325672800293 0.037525604200929034 0.013799139827165234 0.06547906958866584 0.017099702975462785 0.02472257319573835 0.035260705450631175 0.024534357075927694 0.03740465120853766 0.008263796793289407 0.05250402542239875 0.04040610801236375 0.11153543994943901 0.01558276668280884 0.07921360082322153 0.039805594966246444 0.047198606782857255 0.058348413432437865 0.022946957978828945 0.11768206547255075 0.024420614795643426 0.0471823064387082 0.04333604723451196 0.0418754468035531 0.04795965100423713 0.018331873621121923 0.03344107489158164 0.018747451227401606 0.04535822383395218 0.016869585902518334 0.018878184154770643 0.05073686918446114 0.020394572598920392 0.02838538108272841 0.011363163125135424 0.044987412585413125 0.057926726416763254 0.07929287714402306 0.01600174671387271 0.07878349858593094 0.04357550497192061 0.0509093221443436 0.04839126793158746 0.02982833537774429 0.09903645870539145 0.02299823622487391 0.05105499966889154 0.0095636374353215 0.0614708979177517 0.03578758641992254 0.017239171856163936 0.04794324826673984 0.013704171412355812 0.04722031772220938 0.013593396306702121 0.028664864673857593 0.04450620879709913 0.01633205139135471 0.04118806132976598 0.05391306328784854 0.06560500797740947 0.041890378952611176 0.08282682452700312 0.016188883969067605 0.08772988963791074 0.047810641951576874 0.04294862610179469 0.06398599235508201 0.02553452886246453 0.09487396499513526 0.025314400828117093 0.03526218535348171 0.01428062508407025 0.046659487448303415 0.03423386750457386 0.02514071570475019 0.03564938286307466 0.014512413974991926 0.03870494660149095 0.020995763268729605 0.02557766195758498 0.03625440163307398 0.02410634515985356 0.024859179189965906 0.07311447854891483 0.044120019633652696 0.04069251435825811 0.07792627760789612 0.01676457823559636 0.08951444653993114 0.03750938447791141 0.05281175322553447 0.050938616208066195 0.02274799891752383 0.09711438728126277 0.01919254843090092 0.04896623805090745 0.010080475669844179 0.041507532908281124 0.046428067239939065 0.017384635897800715 0.03510769313516488 0.011062177621638957 0.05559472197925157 0.017422321202230546 0.01937601157634594 0.04976394206318089 0.077056859172206 0.060717282247978385 0.030237370670390996 0.08455400148681613 0.024717760407682015 0.06731865531602062 0.03641518476343891 0.057357306872404125 0.09296703497651039 0.017382807598913776 0.057726196542404566 0.03496397671179884 0.05608616508315001 0.0246053628174448 0.025102347364456053 0.029242761562313438 0.03907775721751894 0.03783964007125822 0.009488739761618776 0.030880631551799424 0.03443592790207082 0.03152734948147408 0.019827220757707698 0.020471659662622974 0.03434720514143177 0.10453750504439997 0.04084721747682196 0.029382971193857833 0.07957901043913958 0.025605678546167753 0.06871197463824133 0.028579151429862098 0.07055397882768664 0.07403595152152148 0.015491259259505041 0.05910999413971169 0.01630443586349118 0.07791027025593078 0.017374608630670526 0.022338434877300497 0.039672947874758675 0.02703143129728043 0.03727766692826781 0.007235373488096971 0.04437156156129774 0.02858495994546594 0.023891446907958958 0.027224964711133278 0.06399801261182772 0.051355530658452594 0.07750991740536324 0.04374708831102368 0.030478603784341092 0.0908574816223724 0.02880502628031058 0.059433900233778904 0.03874512606094395 0.06192559418550599 0.07271842285202014 0.017482747476383897 0.02389764134994767 0.024962020259205932 0.06063382388621127 0.017040739080899325 0.03340133456646122 0.03024606442732339 0.029349841383092608 0.03132824970443338 0.0114581494700904 0.04059434149699616 0.023874130800717177 0.03615621209229745 0.017424990369205244 0.08808857725736678 0.035053360176737464 0.07641898060627665 0.041773974999704956 0.032034246972365954 0.09409140908271717 0.022936511655562593 0.07417529297340511 0.03130567274398874 0.05599242306669276 0.07554830139396528 0.029216482600888483 0.0336811013673021 0.017883695606478133 0.05474514934090601 0.023456153540615737 0.023442045881972122 0.030231721649470293 0.0227065136209414 0.045671676261275905 0.009650116622743028 0.031211365721449755 0.0332602364879683 0.07815795835981716 0.024894952075825948 0.06240906406673731 0.03587230315631748 0.07574317913349413 0.045573343684044906 0.03443415554189723 0.0777668852119946 0.029712421500060315 0.06220866378016342 0.02938108031905496 0.06038028448436318 0.027896902014997043 0.04274101336891572 0.025046639341598675 0.016759983855760857 0.07821672967546338 0.017087326885253874 0.0243206489374298 0.024276899417668217 0.03435950646503024 0.03992552816488477 0.00770132539379651 0.04513320516543059 0.06071297794919815 0.10853000738449925 0.01714262192637447 0.06207477498762649 0.03455727023415801 0.08031312028806235 0.047612796426621834 0.027661265649029914 0.09791365494688466 0.024219631351767086 0.05674576704690598 0.03079438476602614 0.03679295751921584 0.03966529976392589 0.03089198897252498 0.022814117155079267 0.023273702753176494 0.05538024389639091 0.017230252958213992 0.01898206149640448 0.03570487830467252 0.029193657865967584 0.030968591975828068 0.01082397438144569 0.03154192396428375 0.08587928694973479 0.0761282862222924 0.017369007374318197 0.06091518817241951 0.037326104442294304 0.08547312119797945 0.03896158070471922 0.035477325567363466 0.08130233366863872 0.02250507136710686 0.06058533455648602 0.008988465307357309 0.053290492128470986 0.02920398153440613 0.028663574250430392 0.03227199569256372 0.01678614467407656 0.05688564122850322 0.013699040156808819 0.028438584915176514 0.03090291321685996 0.02306691802482898 0.04433768468288077 0.06460132800369683 0.04644643247879084 0.06271074168699048 0.08029732775228636 0.017743640202426674 0.0684945654411612 0.04135357096383723 0.0728114582004926 0.052020279459172786 0.030666761062207133 0.07864537079950418 0.025013341983241087 0.038329141154682125 0.013552763666669392 0.04084494749085613 0.02820874891959759 0.04220945908948038 0.024230846600178976 0.01794965238718159 0.04708238236947032 0.021365449383790928 0.02562342230026607 0.025418959388485325 0.03437940921553366 0.02430846942924457 0.08669969814070365 0.030911339672963983 0.0602849541365395 0.07476197637803511 0.01818382341839771 0.06916214017821383 0.03210666092767688 0.08860287206810694 0.04098280458910918 0.02703647205418946 0.0796666305001636 0.027087345381276173 0.052672431261223514 0.00946735003826629 0.03595771289978384 0.03785953066867307 0.02888447713413706 0.02361487369854814 0.01354015927015152 0.06692560124305123 0.017544990688020002 0.01920911858305068 0.03452856764047418 0.08435580977114066 0.035545645892723465 0.0628688776236582 0.03237706528806037 0.06115630980849977 0.08347874522751779 0.020005535017904065 0.05850637677018388 0.04256923724390393 0.07605529411080088 0.03936737366111495 0.029840490753781104 0.029641437032852432 0.04055770558275272 0.040090049319920794 0.00908102369941798 0.052581880892576094 0.028228162279200525 0.03067144275746062 0.01940912752725612 0.020970572179832076 0.059880586811180886 0.014330986976445905 0.028430263771814995 0.03004034873165027 0.11727467913376877 0.024505580281247916 0.06260598022893943 0.031227001009027606 0.0649227444037806 0.08731750880995075 0.016089606000931206 0.07375040161565027 0.03474065304481921 0.06945838422121382 0.04130977619710119 0.023203956358746565 0.04219554947103314 0.029348577944916722 0.03655976739978388 0.012625230758463427 0.03727382447294101 0.02849789352081418 0.023967075874867166 0.028579391650514662 0.017838753548456123 0.04650176809372796 0.020165547227654238 0.04284145122807951 0.043023580228130326 0.08329044014974324 0.025139545772614756 0.06220437616583034 0.03415058898149723 0.0699575541165811 0.07234506289858193 0.02089387144885983 0.062003873567219585 0.03268477706526742 0.07508503697927257 0.016955222206664667 0.03402841768673 0.031455214724666884 0.027571869816814348 0.052362486646473944 0.009219757246326461 0.038765593081947804 0.02294066103351743 0.03635585312394264 0.025044913049418284 0.014271191928603846 0.06740866085321563 0.09711438728126275 0.024859179189965896 0.0731144785489148 0.04412001963365268 0.040692514358258096 0.0779262776078961 0.016764578235596354 0.08951444653993111 0.037509384477911405 0.05281175322553445 0.050938616208066174 0.022747998917523823 0.04976394206318087 0.019192548430900912 0.04896623805090743 0.010080475669844175 0.04150753290828111 0.04642806723993905 0.017384635897800708 0.03510769313516487 0.011062177621638953 0.05559472197925155 0.017422321202230542 0.019376011576345935 0.025087606439771225 0.10275009040784101 0.03632249468717606 0.0529762968779398 0.04617590746764698 0.04124838517800817 0.08694390829886277 0.018429675374666506 0.07566377394548367 0.04969363354313181 0.04529730083324089 0.04889247230749711 0.02865483587175076 0.04268699234633603 0.02871439475823959 0.03724003269502316 0.009661565193056068 0.06065003641912592 0.03458980174877202 0.018445710267104266 0.028832531065218565 0.017119348123813417 0.049703551004188815 0.01421965514610524 0.04986518972131372 0.02454693736439203 0.13883870201604695 0.024338473011947023 0.0512744236513589 0.0432859858340436 0.042560000719201775 0.08839010715650752 0.014406284992912525 0.0927018204546704 0.03941685229911501 0.04020745901139402 0.019447422620461247 0.02273097968327417 0.05906116724275817 0.02019539857441874 0.033007753294591845 0.013055427034978948 0.04178669105568753 0.033940427204099996 0.01400926355815217 0.04126376131415543 0.014154043508371836 0.03751542867614621 0.04488242652295201 0.05340104865217945 0.036302778849940556 0.10182218834887077 0.025782601780173855 0.052607405612316124 0.04888281548738606 0.047356582268689974 0.07562270367581797 0.019318192483860352 0.080479204170595 0.038293976563363606 0.05615612406598807 0.01688482267772381 0.034422217688492705 0.04546414323976861 0.019591719905716027 0.04881730287580922 0.009844920683000549 0.044876754097826516 0.028213141751074932 0.021943988816092636 0.03734017413037291 0.01169276565198807 0.04061796897427412 0.04567164707298694 0.07504303269432738 0.025298209657678265 0.10249292227360451 0.025135693602997413 0.05645128331183164 0.051683625709458156 0.03849877646103763 0.09635732234966081 0.01593602252905187 0.07429340032991831 0.016631158125944758 0.0463286465093638 0.02429602538977657 0.02517815298295842 0.04190898873985537 0.027532675457330288 0.03497944839061486 0.010046475099910059 0.03544652122812825 0.04199230885519657 0.018868663314389373 0.029311030939704993 0.0770371069896586 0.04040643563014556 0.06274357468104691 0.05112370109200377 0.02489448976964816 0.0976832277592288 0.026368158535056578 0.058348886528678034 0.041075375376743044 0.047955833403911595 0.07770700342720775 0.014381642561524546 0.04075663629631162 0.01341334123544575 0.06517039209751467 0.017373297107604452 0.022689453258006555 0.05757646889749036 0.019286329561475565 0.034896063620583485 0.0077576090119495416 0.051576743199991636 0.0352985860046717 0.014479643954101225 0.015975876795228546 0.08209917370919684 0.0594674900518797 0.045791793231116824 0.053894222603615455 0.02541767591867039 0.1097780246411269 0.02919745767454147 0.04967840273961607 0.05481286962147769 0.04143080430482881 0.07512685356161078 0.02156907922797733 0.035214319239891885 0.020213623740708696 0.04992336272130067 0.016772155972688177 0.03339399353779207 0.04320685718917106 0.020611972286403445 0.02886669727106722 0.012092460176619753 0.04644596095272453 0.029018872830745685 0.07710550282417956 0.015730317377172558 0.11163536957608781 0.040098854195869504 0.04460068587466461 0.05084037927875475 0.02639156897034237 0.11230901275304203 0.022967517192515552 0.06124950506957686 0.043752051583373246 0.03700772296053618 0.03993817572542419 0.017218151721307362 0.04902983850581419 0.014306441906298251 0.04452915336057668 0.022806948495294386 0.023153143909020162 0.04266351220048705 0.015753395232971996 0.04157361959843563 0.010061035114730563 0.0352780965735242 0.04107355658004942 0.08209901160604588 0.023130247823856583 0.08140178746615559 0.04223433125841179 0.04549753627316261 0.057084463789744515 0.02919740002475433 0.0955351950778895 0.030621663689641695 0.052868652249795825 0.042261722577746096 0.05250402542239875 0.03447648017120023 0.025924325672800293 0.037525604200929034 0.013799139827165234 0.06547906958866584 0.017099702975462785 0.02472257319573835 0.035260705450631175 0.024534357075927694 0.03740465120853766 0.008263796793289407 0.043336047234511954 0.040406108012363745 0.111535439949439 0.015582766682808839 0.07921360082322151 0.039805594966246444 0.04719860678285725 0.05834841343243785 0.022946957978828942 0.11768206547255072 0.02442061479564342 0.047182306438708195 0.011363163125135422 0.041875446803553096 0.047959651004237124 0.01833187362112192 0.033441074891581636 0.018747451227401606 0.045358223833952174 0.01686958590251833 0.01887818415477064 0.05073686918446113 0.02039457259892039 0.028385381082728405 0.051054999668891536 0.04498741258541312 0.05792672641676324 0.07929287714402304 0.01600174671387271 0.07878349858593092 0.0435755049719206 0.050909322144343586 0.048391267931587455 0.029828335377744285 0.09903645870539142 0.022998236224873906 0.041188061329765976 0.009563637435321497 0.06147089791775169 0.03578758641992253 0.017239171856163932 0.04794324826673983 0.01370417141235581 0.04722031772220937 0.01359339630670212 0.02866486467385759 0.04450620879709912 0.016332051391354706 0.025314400828117093 0.05391306328784854 0.06560500797740947 0.041890378952611176 0.08282682452700312 0.016188883969067605 0.08772988963791074 0.047810641951576874 0.04294862610179469 0.06398599235508201 0.02553452886246453 0.09487396499513526 0.02410634515985356 0.03526218535348171 0.01428062508407025 0.046659487448303415 0.03423386750457386 0.02514071570475019 0.03564938286307466 0.014512413974991926 0.03870494660149095 0.020995763268729605 0.02557766195758498 0.03625440163307398 0.0750850369792726 0.04284145122807952 0.04302358022813034 0.08329044014974327 0.025139545772614767 0.06220437616583036 0.03415058898149725 0.06995755411658111 0.07234506289858196 0.020893871448859836 0.062003873567219606 0.032684777065267435 0.06740866085321566 0.01695522220666467 0.034028417686730004 0.03145521472466689 0.027571869816814355 0.052362486646473964 0.009219757246326465 0.03876559308194782 0.022940661033517436 0.036355853123942655 0.02504491304941829 0.01427119192860385 0.03496397671179884 0.077056859172206 0.060717282247978385 0.030237370670390996 0.08455400148681613 0.024717760407682015 0.06731865531602062 0.03641518476343891 0.057357306872404125 0.09296703497651039 0.017382807598913776 0.057726196542404566 0.020471659662622974 0.05608616508315001 0.0246053628174448 0.025102347364456053 0.029242761562313438 0.03907775721751894 0.03783964007125822 0.009488739761618776 0.030880631551799424 0.03443592790207082 0.03152734948147408 0.019827220757707698 0.05910999413971169 0.03434720514143177 0.10453750504439997 0.04084721747682196 0.029382971193857833 0.07957901043913958 0.025605678546167753 0.06871197463824133 0.028579151429862098 0.07055397882768664 0.07403595152152148 0.015491259259505041 0.027224964711133278 0.01630443586349118 0.07791027025593078 0.017374608630670526 0.022338434877300497 0.039672947874758675 0.02703143129728043 0.03727766692826781 0.007235373488096971 0.04437156156129774 0.02858495994546594 0.023891446907958958 0.0174827474763839 0.06399801261182773 0.0513555306584526 0.07750991740536325 0.04374708831102369 0.0304786037843411 0.09085748162237241 0.028805026280310585 0.05943390023377891 0.038745126060943956 0.061925594185506 0.07271842285202015 0.036156212092297454 0.023897641349947672 0.02496202025920594 0.06063382388621128 0.017040739080899328 0.03340133456646123 0.0302460644273234 0.02934984138309261 0.03132824970443339 0.011458149470090401 0.040594341496996166 0.02387413080071718 0.07554830139396526 0.01742499036920524 0.08808857725736677 0.03505336017673746 0.07641898060627664 0.04177397499970495 0.03203424697236595 0.09409140908271715 0.02293651165556259 0.0741752929734051 0.03130567274398873 0.05599242306669275 0.033260236487968296 0.02921648260088848 0.033681101367302096 0.01788369560647813 0.054745149340906 0.023456153540615733 0.02344204588197212 0.03023172164947029 0.022706513620941397 0.0456716762612759 0.009650116622743026 0.03121136572144975 0.06038028448436318 0.07815795835981716 0.024894952075825948 0.06240906406673731 0.03587230315631748 0.07574317913349413 0.045573343684044906 0.03443415554189723 0.0777668852119946 0.029712421500060315 0.06220866378016342 0.02938108031905496 0.04513320516543059 0.027896902014997043 0.04274101336891572 0.025046639341598675 0.016759983855760857 0.07821672967546338 0.017087326885253874 0.0243206489374298 0.024276899417668217 0.03435950646503024 0.03992552816488477 0.00770132539379651 0.030794384766026146 0.060712977949198166 0.10853000738449928 0.017142621926374474 0.0620747749876265 0.03455727023415801 0.08031312028806237 0.04761279642662185 0.027661265649029917 0.09791365494688467 0.02421963135176709 0.056745767046905995 0.010823974381445691 0.036792957519215845 0.03966529976392589 0.030891988972524986 0.02281411715507927 0.023273702753176497 0.055380243896390915 0.017230252958213996 0.018982061496404485 0.03570487830467252 0.029193657865967587 0.03096859197582807 0.06058533455648602 0.03154192396428375 0.08587928694973479 0.0761282862222924 0.017369007374318197 0.06091518817241951 0.037326104442294304 0.08547312119797945 0.03896158070471922 0.035477325567363466 0.08130233366863872 0.02250507136710686 0.04433768468288077 0.008988465307357309 0.053290492128470986 0.02920398153440613 0.028663574250430392 0.03227199569256372 0.01678614467407656 0.05688564122850322 0.013699040156808819 0.028438584915176514 0.03090291321685996 0.02306691802482898 0.025013341983241087 0.06460132800369683 0.04644643247879084 0.06271074168699048 0.08029732775228636 0.017743640202426674 0.0684945654411612 0.04135357096383723 0.0728114582004926 0.052020279459172786 0.030666761062207133 0.07864537079950418 0.03437940921553366 0.038329141154682125 0.013552763666669392 0.04084494749085613 0.02820874891959759 0.04220945908948038 0.024230846600178976 0.01794965238718159 0.04708238236947032 0.021365449383790928 0.02562342230026607 0.025418959388485325 0.0796666305001636 0.02430846942924457 0.08669969814070365 0.030911339672963983 0.0602849541365395 0.07476197637803511 0.01818382341839771 0.06916214017821383 0.03210666092767688 0.08860287206810694 0.04098280458910918 0.02703647205418946 0.03452856764047418 0.027087345381276173 0.052672431261223514 0.00946735003826629 0.03595771289978384 0.03785953066867307 0.02888447713413706 0.02361487369854814 0.01354015927015152 0.06692560124305123 0.017544990688020002 0.01920911858305068 0.029840490753781104 0.08435580977114066 0.035545645892723465 0.0628688776236582 0.03237706528806037 0.06115630980849977 0.08347874522751779 0.020005535017904065 0.05850637677018388 0.04256923724390393 0.07605529411080088 0.03936737366111495 0.028430263771814995 0.029641437032852432 0.04055770558275272 0.040090049319920794 0.00908102369941798 0.052581880892576094 0.028228162279200525 0.03067144275746062 0.01940912752725612 0.020970572179832076 0.059880586811180886 0.014330986976445905 0.04130977619710119 0.03004034873165027 0.11727467913376877 0.024505580281247916 0.06260598022893943 0.031227001009027606 0.0649227444037806 0.08731750880995075 0.016089606000931206 0.07375040161565027 0.03474065304481921 0.06945838422121382 0.020165547227654238 0.023203956358746565 0.04219554947103314 0.029348577944916722 0.03655976739978388 0.012625230758463427 0.03727382447294101 0.02849789352081418 0.023967075874867166 0.028579391650514662 0.017838753548456123 0.04650176809372796 0.09487396499513524 0.025314400828117086 0.053913063287848534 0.06560500797740945 0.04189037895261117 0.0828268245270031 0.0161888839690676 0.08772988963791073 0.04781064195157687 0.04294862610179468 0.063985992355082 0.025534528862464524 0.036254401633073974 0.024106345159853555 0.035262185353481704 0.014280625084070247 0.04665948744830341 0.034233867504573856 0.025140715704750186 0.035649382863074654 0.014512413974991924 0.038704946601490944 0.0209957632687296 0.025577661957584978 0.022747998917523826 0.09711438728126276 0.024859179189965903 0.07311447854891481 0.04412001963365269 0.0406925143582581 0.07792627760789611 0.016764578235596357 0.08951444653993113 0.03750938447791141 0.052811753225534455 0.05093861620806619 0.019376011576345938 0.049763942063180876 0.019192548430900916 0.04896623805090744 0.010080475669844177 0.04150753290828112 0.04642806723993906 0.01738463589780071 0.035107693135164875 0.011062177621638955 0.05559472197925156 0.017422321202230542 0.04889247230749711 0.025087606439771225 0.10275009040784101 0.03632249468717606 0.0529762968779398 0.04617590746764698 0.04124838517800817 0.08694390829886277 0.018429675374666506 0.07566377394548367 0.04969363354313181 0.04529730083324089 0.01421965514610524 0.02865483587175076 0.04268699234633603 0.02871439475823959 0.03724003269502316 0.009661565193056068 0.06065003641912592 0.03458980174877202 0.018445710267104266 0.028832531065218565 0.017119348123813417 0.049703551004188815 0.04020745901139403 0.049865189721313735 0.024546937364392035 0.13883870201604698 0.02433847301194703 0.05127442365135891 0.04328598583404361 0.04256000071920179 0.08839010715650755 0.014406284992912528 0.09270182045467043 0.03941685229911503 0.037515428676146226 0.019447422620461254 0.02273097968327418 0.05906116724275819 0.02019539857441875 0.03300775329459186 0.013055427034978953 0.041786691055687546 0.0339404272041 0.014009263558152175 0.04126376131415544 0.01415404350837184 0.038293976563363606 0.04488242652295201 0.05340104865217945 0.036302778849940556 0.10182218834887077 0.025782601780173855 0.052607405612316124 0.04888281548738606 0.047356582268689974 0.07562270367581797 0.019318192483860352 0.080479204170595 0.01169276565198807 0.05615612406598807 0.01688482267772381 0.034422217688492705 0.04546414323976861 0.019591719905716027 0.04881730287580922 0.009844920683000549 0.044876754097826516 0.028213141751074932 0.021943988816092636 0.03734017413037291 0.0742934003299183 0.04061796897427411 0.04567164707298693 0.07504303269432737 0.02529820965767826 0.1024929222736045 0.02513569360299741 0.056451283311831635 0.05168362570945815 0.03849877646103762 0.0963573223496608 0.015936022529051866 0.029311030939704986 0.016631158125944755 0.046328646509363795 0.024296025389776568 0.025178152982958415 0.041908988739855366 0.02753267545733028 0.034979448390614856 0.010046475099910057 0.03544652122812824 0.041992308855196565 0.01886866331438937 0.014381642561524544 0.07703710698965859 0.04040643563014555 0.06274357468104691 0.051123701092003766 0.024894489769648157 0.09768322775922879 0.02636815853505657 0.05834888652867803 0.04107537537674304 0.04795583340391159 0.07770700342720774 0.014479643954101224 0.04075663629631161 0.013413341235445747 0.06517039209751466 0.017373297107604452 0.02268945325800655 0.05757646889749035 0.019286329561475562 0.034896063620583485 0.00775760901194954 0.05157674319999163 0.03529858600467169 0.07512685356161077 0.015975876795228543 0.08209917370919682 0.059467490051879686 0.04579179323111682 0.05389422260361545 0.025417675918670387 0.10977802464112689 0.029197457674541467 0.049678402739616066 0.05481286962147768 0.0414308043048288 0.029018872830745678 0.021569079227977322 0.03521431923989188 0.020213623740708692 0.049923362721300664 0.016772155972688173 0.033393993537792065 0.043206857189171055 0.020611972286403442 0.028866697271067217 0.012092460176619751 0.046445960952724526 0.037007722960536185 0.07710550282417958 0.01573031737717256 0.11163536957608783 0.04009885419586951 0.044600685874664626 0.05084037927875476 0.026391568970342373 0.11230901275304205 0.022967517192515555 0.061249505069576875 0.04375205158337325 0.03527809657352421 0.0399381757254242 0.017218151721307366 0.049029838505814195 0.014306441906298253 0.04452915336057669 0.02280694849529439 0.023153143909020166 0.04266351220048706 0.015753395232971996 0.041573619598435634 0.010061035114730565 0.042261722577746096 0.04107355658004942 0.08209901160604588 0.023130247823856583 0.08140178746615559 0.04223433125841179 0.04549753627316261 0.057084463789744515 0.02919740002475433 0.0955351950778895 0.030621663689641695 0.052868652249795825 0.008263796793289407 0.05250402542239875 0.03447648017120023 0.025924325672800293 0.037525604200929034 0.013799139827165234 0.06547906958866584 0.017099702975462785 0.02472257319573835 0.035260705450631175 0.024534357075927694 0.03740465120853766 0.047182306438708195 0.043336047234511954 0.040406108012363745 0.111535439949439 0.015582766682808839 0.07921360082322151 0.039805594966246444 0.04719860678285725 0.05834841343243785 0.022946957978828942 0.11768206547255072 0.02442061479564342 0.028385381082728405 0.011363163125135422 0.041875446803553096 0.047959651004237124 0.01833187362112192 0.033441074891581636 0.018747451227401606 0.045358223833952174 0.01686958590251833 0.01887818415477064 0.05073686918446113 0.02039457259892039 0.02299823622487391 0.05105499966889154 0.044987412585413125 0.057926726416763254 0.07929287714402306 0.01600174671387271 0.07878349858593094 0.04357550497192061 0.0509093221443436 0.04839126793158746 0.02982833537774429 0.09903645870539145 0.01633205139135471 0.04118806132976598 0.0095636374353215 0.0614708979177517 0.03578758641992254 0.017239171856163936 0.04794324826673984 0.013704171412355812 0.04722031772220938 0.013593396306702121 0.028664864673857593 0.04450620879709913 0.06945838422121382 0.04130977619710119 0.03004034873165027 0.11727467913376877 0.024505580281247916 0.06260598022893943 0.031227001009027606 0.0649227444037806 0.08731750880995075 0.016089606000931206 0.07375040161565027 0.03474065304481921 0.04650176809372796 0.020165547227654238 0.023203956358746565 0.04219554947103314 0.029348577944916722 0.03655976739978388 0.012625230758463427 0.03727382447294101 0.02849789352081418 0.023967075874867166 0.028579391650514662 0.017838753548456123 0.03268477706526743 0.07508503697927259 0.042841451228079516 0.04302358022813033 0.08329044014974325 0.02513954577261476 0.062204376165830355 0.03415058898149724 0.06995755411658111 0.07234506289858195 0.020893871448859833 0.0620038735672196 0.014271191928603849 0.06740866085321565 0.016955222206664667 0.034028417686730004 0.031455214724666884 0.02757186981681435 0.05236248664647395 0.009219757246326463 0.03876559308194781 0.022940661033517433 0.03635585312394265 0.025044913049418287 0.057726196542404566 0.03496397671179884 0.077056859172206 0.060717282247978385 0.030237370670390996 0.08455400148681613 0.024717760407682015 0.06731865531602062 0.03641518476343891 0.057357306872404125 0.09296703497651039 0.017382807598913776 0.019827220757707698 0.020471659662622974 0.05608616508315001 0.0246053628174448 0.025102347364456053 0.029242761562313438 0.03907775721751894 0.03783964007125822 0.009488739761618776 0.030880631551799424 0.03443592790207082 0.03152734948147408 0.015491259259505041 0.05910999413971169 0.03434720514143177 0.10453750504439997 0.04084721747682196 0.029382971193857833 0.07957901043913958 0.025605678546167753 0.06871197463824133 0.028579151429862098 0.07055397882768664 0.07403595152152148 0.023891446907958958 0.027224964711133278 0.01630443586349118 0.07791027025593078 0.017374608630670526 0.022338434877300497 0.039672947874758675 0.02703143129728043 0.03727766692826781 0.007235373488096971 0.04437156156129774 0.02858495994546594 0.07271842285202015 0.0174827474763839 0.06399801261182773 0.0513555306584526 0.07750991740536325 0.04374708831102369 0.0304786037843411 0.09085748162237241 0.028805026280310585 0.05943390023377891 0.038745126060943956 0.061925594185506 0.02387413080071718 0.036156212092297454 0.023897641349947672 0.02496202025920594 0.06063382388621128 0.017040739080899328 0.03340133456646123 0.0302460644273234 0.02934984138309261 0.03132824970443339 0.011458149470090401 0.040594341496996166 0.05599242306669276 0.07554830139396528 0.017424990369205244 0.08808857725736678 0.035053360176737464 0.07641898060627665 0.041773974999704956 0.032034246972365954 0.09409140908271717 0.022936511655562593 0.07417529297340511 0.03130567274398874 0.031211365721449755 0.0332602364879683 0.029216482600888483 0.0336811013673021 0.017883695606478133 0.05474514934090601 0.023456153540615737 0.023442045881972122 0.030231721649470293 0.0227065136209414 0.045671676261275905 0.009650116622743028 0.029381080319054953 0.060380284484363174 0.07815795835981715 0.024894952075825944 0.062409064066737296 0.035872303156317474 0.07574317913349411 0.0455733436840449 0.03443415554189722 0.07776688521199458 0.029712421500060312 0.06220866378016341 0.0077013253937965095 0.04513320516543058 0.02789690201499704 0.04274101336891571 0.025046639341598672 0.016759983855760854 0.07821672967546336 0.01708732688525387 0.024320648937429794 0.024276899417668214 0.034359506465030235 0.03992552816488476 0.056745767046905995 0.030794384766026146 0.060712977949198166 0.10853000738449928 0.017142621926374474 0.0620747749876265 0.03455727023415801 0.08031312028806237 0.04761279642662185 0.027661265649029917 0.09791365494688467 0.02421963135176709 0.03096859197582807 0.010823974381445691 0.036792957519215845 0.03966529976392589 0.030891988972524986 0.02281411715507927 0.023273702753176497 0.055380243896390915 0.017230252958213996 0.018982061496404485 0.03570487830467252 0.029193657865967587 0.022505071367106864 0.06058533455648603 0.031541923964283756 0.0858792869497348 0.07612828622229241 0.0173690073743182 0.06091518817241952 0.03732610444229431 0.08547312119797947 0.03896158070471923 0.03547732556736347 0.08130233366863873 0.023066918024828985 0.044337684682880775 0.00898846530735731 0.053290492128471 0.029203981534406134 0.028663574250430396 0.032271995692563726 0.016786144674076565 0.056885641228503224 0.013699040156808822 0.02843858491517652 0.030902913216859965 0.07864537079950418 0.025013341983241087 0.06460132800369683 0.04644643247879084 0.06271074168699048 0.08029732775228636 0.017743640202426674 0.0684945654411612 0.04135357096383723 0.0728114582004926 0.052020279459172786 0.030666761062207133 0.025418959388485325 0.03437940921553366 0.038329141154682125 0.013552763666669392 0.04084494749085613 0.02820874891959759 0.04220945908948038 0.024230846600178976 0.01794965238718159 0.04708238236947032 0.021365449383790928 0.02562342230026607 0.027036472054189457 0.0796666305001636 0.024308469429244566 0.08669969814070363 0.030911339672963976 0.06028495413653949 0.07476197637803511 0.018183823418397707 0.06916214017821382 0.032106660927676875 0.08860287206810692 0.040982804589109176 0.019209118583050678 0.03452856764047417 0.02708734538127617 0.0526724312612235 0.009467350038266289 0.035957712899783834 0.037859530668673064 0.028884477134137054 0.023614873698548138 0.013540159270151517 0.06692560124305122 0.01754499068802 0.03936737366111495 0.029840490753781104 0.08435580977114066 0.035545645892723465 0.0628688776236582 0.03237706528806037 0.06115630980849977 0.08347874522751779 0.020005535017904065 0.05850637677018388 0.04256923724390393 0.07605529411080088 0.014330986976445905 0.028430263771814995 0.029641437032852432 0.04055770558275272 0.040090049319920794 0.00908102369941798 0.052581880892576094 0.028228162279200525 0.03067144275746062 0.01940912752725612 0.020970572179832076 0.059880586811180886 0.09903645870539142 0.022998236224873906 0.051054999668891536 0.04498741258541312 0.05792672641676324 0.07929287714402304 0.01600174671387271 0.07878349858593092 0.0435755049719206 0.050909322144343586 0.048391267931587455 0.029828335377744285 0.04450620879709912 0.016332051391354706 0.041188061329765976 0.009563637435321497 0.06147089791775169 0.03578758641992253 0.017239171856163932 0.04794324826673983 0.01370417141235581 0.04722031772220937 0.01359339630670212 0.02866486467385759 0.02553452886246453 0.09487396499513526 0.025314400828117093 0.05391306328784854 0.06560500797740947 0.041890378952611176 0.08282682452700312 0.016188883969067605 0.08772988963791074 0.047810641951576874 0.04294862610179469 0.06398599235508201 0.02557766195758498 0.03625440163307398 0.02410634515985356 0.03526218535348171 0.01428062508407025 0.046659487448303415 0.03423386750457386 0.02514071570475019 0.03564938286307466 0.014512413974991926 0.03870494660149095 0.020995763268729605 0.050938616208066195 0.02274799891752383 0.09711438728126277 0.024859179189965906 0.07311447854891483 0.044120019633652696 0.04069251435825811 0.07792627760789612 0.01676457823559636 0.08951444653993114 0.03750938447791141 0.05281175322553447 0.017422321202230546 0.01937601157634594 0.04976394206318089 0.01919254843090092 0.04896623805090745 0.010080475669844179 0.041507532908281124 0.046428067239939065 0.017384635897800715 0.03510769313516488 0.011062177621638957 0.05559472197925157 0.04529730083324089 0.04889247230749711 0.025087606439771225 0.10275009040784101 0.03632249468717606 0.0529762968779398 0.04617590746764698 0.04124838517800817 0.08694390829886277 0.018429675374666506 0.07566377394548367 0.04969363354313181 0.049703551004188815 0.01421965514610524 0.02865483587175076 0.04268699234633603 0.02871439475823959 0.03724003269502316 0.009661565193056068 0.06065003641912592 0.03458980174877202 0.018445710267104266 0.028832531065218565 0.017119348123813417 0.03941685229911503 0.04020745901139403 0.049865189721313735 0.024546937364392035 0.13883870201604698 0.02433847301194703 0.05127442365135891 0.04328598583404361 0.04256000071920179 0.08839010715650755 0.014406284992912528 0.09270182045467043 0.01415404350837184 0.037515428676146226 0.019447422620461254 0.02273097968327418 0.05906116724275819 0.02019539857441875 0.03300775329459186 0.013055427034978953 0.041786691055687546 0.0339404272041 0.014009263558152175 0.04126376131415544 0.08047920417059502 0.03829397656336362 0.044882426522952025 0.05340104865217947 0.03630277884994057 0.10182218834887082 0.025782601780173865 0.05260740561231614 0.04888281548738607 0.04735658226868999 0.075622703675818 0.01931819248386036 0.03734017413037292 0.011692765651988075 0.05615612406598809 0.016884822677723812 0.03442221768849272 0.04546414323976863 0.019591719905716034 0.04881730287580924 0.009844920683000552 0.044876754097826536 0.02821314175107494 0.021943988816092642 0.015936022529051866 0.0742934003299183 0.04061796897427411 0.04567164707298693 0.07504303269432737 0.02529820965767826 0.1024929222736045 0.02513569360299741 0.056451283311831635 0.05168362570945815 0.03849877646103762 0.0963573223496608 0.01886866331438937 0.029311030939704986 0.016631158125944755 0.046328646509363795 0.024296025389776568 0.025178152982958415 0.041908988739855366 0.02753267545733028 0.034979448390614856 0.010046475099910057 0.03544652122812824 0.041992308855196565 0.07770700342720775 0.014381642561524546 0.0770371069896586 0.04040643563014556 0.06274357468104691 0.05112370109200377 0.02489448976964816 0.0976832277592288 0.026368158535056578 0.058348886528678034 0.041075375376743044 0.047955833403911595 0.0352985860046717 0.014479643954101225 0.04075663629631162 0.01341334123544575 0.06517039209751467 0.017373297107604452 0.022689453258006555 0.05757646889749036 0.019286329561475565 0.034896063620583485 0.0077576090119495416 0.051576743199991636 0.04143080430482881 0.07512685356161078 0.015975876795228546 0.08209917370919684 0.0594674900518797 0.045791793231116824 0.053894222603615455 0.02541767591867039 0.1097780246411269 0.02919745767454147 0.04967840273961607 0.05481286962147769 0.04644596095272453 0.029018872830745685 0.02156907922797733 0.035214319239891885 0.020213623740708696 0.04992336272130067 0.016772155972688177 0.03339399353779207 0.04320685718917106 0.020611972286403445 0.02886669727106722 0.012092460176619753 0.043752051583373246 0.03700772296053618 0.07710550282417956 0.015730317377172558 0.11163536957608781 0.040098854195869504 0.04460068587466461 0.05084037927875475 0.02639156897034237 0.11230901275304203 0.022967517192515552 0.06124950506957686 0.010061035114730563 0.0352780965735242 0.03993817572542419 0.017218151721307362 0.04902983850581419 0.014306441906298251 0.04452915336057668 0.022806948495294386 0.023153143909020162 0.04266351220048705 0.015753395232971996 0.04157361959843563 0.05286865224979582 0.04226172257774609 0.041073556580049415 0.08209901160604587 0.02313024782385658 0.08140178746615558 0.042234331258411785 0.0454975362731626 0.0570844637897445 0.029197400024754322 0.09553519507788949 0.03062166368964169 0.037404651208537656 0.008263796793289405 0.05250402542239874 0.034476480171200224 0.025924325672800286 0.03752560420092903 0.013799139827165232 0.06547906958866583 0.01709970297546278 0.024722573195738343 0.03526070545063117 0.02453435707592769 0.02442061479564343 0.04718230643870821 0.04333604723451197 0.04040610801236376 0.11153543994943903 0.015582766682808844 0.07921360082322154 0.03980559496624645 0.04719860678285726 0.05834841343243787 0.02294695797882895 0.11768206547255076 0.020394572598920396 0.028385381082728412 0.011363163125135427 0.04187544680355311 0.04795965100423714 0.018331873621121927 0.03344107489158164 0.01874745122740161 0.04535822383395219 0.016869585902518334 0.018878184154770643 0.050736869184461145 0.07605529411080086 0.039367373661114945 0.0298404907537811 0.08435580977114064 0.035545645892723465 0.06286887762365818 0.032377065288060364 0.061156309808499766 0.08347874522751778 0.02000553501790406 0.058506376770183874 0.04256923724390392 0.05988058681118088 0.014330986976445904 0.028430263771814988 0.029641437032852425 0.040557705582752714 0.04009004931992079 0.009081023699417979 0.05258188089257609 0.02822816227920052 0.030671442757460615 0.019409127527256115 0.020970572179832073 0.03474065304481921 0.06945838422121381 0.04130977619710118 0.030040348731650263 0.11727467913376874 0.024505580281247913 0.06260598022893941 0.031227001009027602 0.06492274440378058 0.08731750880995073 0.016089606000931206 0.07375040161565026 0.01783875354845612 0.04650176809372795 0.020165547227654235 0.02320395635874656 0.042195549471033135 0.02934857794491672 0.03655976739978387 0.012625230758463425 0.037273824472941 0.028497893520814176 0.023967075874867162 0.028579391650514655 0.0620038735672196 0.03268477706526743 0.07508503697927259 0.042841451228079516 0.04302358022813033 0.08329044014974325 0.02513954577261476 0.062204376165830355 0.03415058898149724 0.06995755411658111 0.07234506289858195 0.020893871448859833 0.025044913049418287 0.014271191928603849 0.06740866085321565 0.016955222206664667 0.034028417686730004 0.031455214724666884 0.02757186981681435 0.05236248664647395 0.009219757246326463 0.03876559308194781 0.022940661033517433 0.03635585312394265 0.017382807598913773 0.05772619654240455 0.034963976711798836 0.07705685917220599 0.06071728224797838 0.030237370670390992 0.08455400148681612 0.02471776040768201 0.0673186553160206 0.036415184763438906 0.05735730687240411 0.09296703497651038 0.03152734948147407 0.019827220757707695 0.02047165966262297 0.05608616508315 0.024605362817444798 0.02510234736445605 0.029242761562313434 0.03907775721751893 0.037839640071258215 0.009488739761618774 0.030880631551799417 0.03443592790207081 0.07403595152152148 0.015491259259505041 0.05910999413971169 0.03434720514143177 0.10453750504439997 0.04084721747682196 0.029382971193857833 0.07957901043913958 0.025605678546167753 0.06871197463824133 0.028579151429862098 0.07055397882768664 0.02858495994546594 0.023891446907958958 0.027224964711133278 0.01630443586349118 0.07791027025593078 0.017374608630670526 0.022338434877300497 0.039672947874758675 0.02703143129728043 0.03727766692826781 0.007235373488096971 0.04437156156129774 0.061925594185506 0.07271842285202015 0.0174827474763839 0.06399801261182773 0.0513555306584526 0.07750991740536325 0.04374708831102369 0.0304786037843411 0.09085748162237241 0.028805026280310585 0.05943390023377891 0.038745126060943956 0.040594341496996166 0.02387413080071718 0.036156212092297454 0.023897641349947672 0.02496202025920594 0.06063382388621128 0.017040739080899328 0.03340133456646123 0.0302460644273234 0.02934984138309261 0.03132824970443339 0.011458149470090401 0.031305672743988745 0.05599242306669277 0.07554830139396529 0.017424990369205248 0.0880885772573668 0.03505336017673747 0.07641898060627667 0.04177397499970496 0.032034246972365954 0.09409140908271718 0.022936511655562597 0.07417529297340511 0.00965011662274303 0.03121136572144976 0.0332602364879683 0.02921648260088849 0.0336811013673021 0.017883695606478137 0.05474514934090602 0.02345615354061574 0.02344204588197213 0.030231721649470297 0.022706513620941404 0.04567167626127591 0.06220866378016341 0.029381080319054953 0.060380284484363174 0.07815795835981715 0.024894952075825944 0.062409064066737296 0.035872303156317474 0.07574317913349411 0.0455733436840449 0.03443415554189722 0.07776688521199458 0.029712421500060312 0.03992552816488476 0.0077013253937965095 0.04513320516543058 0.02789690201499704 0.04274101336891571 0.025046639341598672 0.016759983855760854 0.07821672967546336 0.01708732688525387 0.024320648937429794 0.024276899417668214 0.034359506465030235 0.02421963135176709 0.056745767046905995 0.030794384766026146 0.060712977949198166 0.10853000738449928 0.017142621926374474 0.0620747749876265 0.03455727023415801 0.08031312028806237 0.04761279642662185 0.027661265649029917 0.09791365494688467 0.029193657865967587 0.03096859197582807 0.010823974381445691 0.036792957519215845 0.03966529976392589 0.030891988972524986 0.02281411715507927 0.023273702753176497 0.055380243896390915 0.017230252958213996 0.018982061496404485 0.03570487830467252 0.08130233366863873 0.022505071367106864 0.06058533455648603 0.031541923964283756 0.0858792869497348 0.07612828622229241 0.0173690073743182 0.06091518817241952 0.03732610444229431 0.08547312119797947 0.03896158070471923 0.03547732556736347 0.030902913216859965 0.023066918024828985 0.044337684682880775 0.00898846530735731 0.053290492128471 0.029203981534406134 0.028663574250430396 0.032271995692563726 0.016786144674076565 0.056885641228503224 0.013699040156808822 0.02843858491517652 0.030666761062207133 0.07864537079950418 0.025013341983241087 0.06460132800369683 0.04644643247879084 0.06271074168699048 0.08029732775228636 0.017743640202426674 0.0684945654411612 0.04135357096383723 0.0728114582004926 0.052020279459172786 0.02562342230026607 0.025418959388485325 0.03437940921553366 0.038329141154682125 0.013552763666669392 0.04084494749085613 0.02820874891959759 0.04220945908948038 0.024230846600178976 0.01794965238718159 0.04708238236947032 0.021365449383790928 0.040982804589109176 0.027036472054189457 0.0796666305001636 0.024308469429244566 0.08669969814070363 0.030911339672963976 0.06028495413653949 0.07476197637803511 0.018183823418397707 0.06916214017821382 0.032106660927676875 0.08860287206810692 0.01754499068802 0.019209118583050678 0.03452856764047417 0.02708734538127617 0.0526724312612235 0.009467350038266289 0.035957712899783834 0.037859530668673064 0.028884477134137054 0.023614873698548138 0.013540159270151517 0.06692560124305122 0.11768206547255072 0.02442061479564342 0.047182306438708195 0.043336047234511954 0.040406108012363745 0.111535439949439 0.015582766682808839 0.07921360082322151 0.039805594966246444 0.04719860678285725 0.05834841343243785 0.022946957978828942 0.05073686918446113 0.02039457259892039 0.028385381082728405 0.011363163125135422 0.041875446803553096 0.047959651004237124 0.01833187362112192 0.033441074891581636 0.018747451227401606 0.045358223833952174 0.01686958590251833 0.01887818415477064 0.02982833537774429 0.09903645870539145 0.02299823622487391 0.05105499966889154 0.044987412585413125 0.057926726416763254 0.07929287714402306 0.01600174671387271 0.07878349858593094 0.04357550497192061 0.0509093221443436 0.04839126793158746 0.028664864673857593 0.04450620879709913 0.01633205139135471 0.04118806132976598 0.0095636374353215 0.0614708979177517 0.03578758641992254 0.017239171856163936 0.04794324826673984 0.013704171412355812 0.04722031772220938 0.013593396306702121 0.063985992355082 0.025534528862464524 0.09487396499513524 0.025314400828117086 0.053913063287848534 0.06560500797740945 0.04189037895261117 0.0828268245270031 0.0161888839690676 0.08772988963791073 0.04781064195157687 0.04294862610179468 0.0209957632687296 0.025577661957584978 0.036254401633073974 0.024106345159853555 0.035262185353481704 0.014280625084070247 0.04665948744830341 0.034233867504573856 0.025140715704750186 0.035649382863074654 0.014512413974991924 0.038704946601490944 0.052811753225534455 0.05093861620806619 0.022747998917523826 0.09711438728126276 0.024859179189965903 0.07311447854891481 0.04412001963365269 0.0406925143582581 0.07792627760789611 0.016764578235596357 0.08951444653993113 0.03750938447791141 0.05559472197925156 0.017422321202230542 0.019376011576345938 0.049763942063180876 0.019192548430900916 0.04896623805090744 0.010080475669844177 0.04150753290828112 0.04642806723993906 0.01738463589780071 0.035107693135164875 0.011062177621638955 0.04969363354313182 0.0452973008332409 0.04889247230749712 0.025087606439771228 0.10275009040784103 0.03632249468717607 0.05297629687793982 0.046175907467646986 0.041248385178008176 0.08694390829886278 0.01842967537466651 0.07566377394548368 0.017119348123813417 0.04970355100418882 0.014219655146105244 0.028654835871750762 0.042686992346336036 0.028714394758239593 0.03724003269502317 0.00966156519305607 0.060650036419125926 0.03458980174877202 0.01844571026710427 0.028832531065218568 0.09270182045467042 0.03941685229911502 0.040207459011394026 0.04986518972131373 0.024546937364392032 0.13883870201604698 0.024338473011947026 0.051274423651358904 0.043285985834043604 0.04256000071920178 0.08839010715650754 0.014406284992912527 0.041263761314155434 0.014154043508371838 0.03751542867614622 0.01944742262046125 0.022730979683274175 0.05906116724275818 0.020195398574418745 0.03300775329459185 0.013055427034978952 0.04178669105568754 0.033940427204099996 0.014009263558152171 0.019318192483860352 0.080479204170595 0.038293976563363606 0.04488242652295201 0.05340104865217945 0.036302778849940556 0.10182218834887077 0.025782601780173855 0.052607405612316124 0.04888281548738606 0.047356582268689974 0.07562270367581797 0.021943988816092636 0.03734017413037291 0.01169276565198807 0.05615612406598807 0.01688482267772381 0.034422217688492705 0.04546414323976861 0.019591719905716027 0.04881730287580922 0.009844920683000549 0.044876754097826516 0.028213141751074932 0.09635732234966078 0.015936022529051866 0.07429340032991828 0.0406179689742741 0.045671647072986925 0.07504303269432736 0.025298209657678254 0.10249292227360447 0.025135693602997406 0.05645128331183162 0.05168362570945814 0.038498776461037616 0.04199230885519656 0.018868663314389366 0.029311030939704982 0.01663115812594475 0.04632864650936379 0.024296025389776564 0.02517815298295841 0.04190898873985536 0.027532675457330277 0.034979448390614856 0.010046475099910055 0.03544652122812823 0.047955833403911595 0.07770700342720775 0.014381642561524546 0.0770371069896586 0.04040643563014556 0.06274357468104691 0.05112370109200377 0.02489448976964816 0.0976832277592288 0.026368158535056578 0.058348886528678034 0.041075375376743044 0.051576743199991636 0.0352985860046717 0.014479643954101225 0.04075663629631162 0.01341334123544575 0.06517039209751467 0.017373297107604452 0.022689453258006555 0.05757646889749036 0.019286329561475565 0.034896063620583485 0.0077576090119495416 0.05481286962147769 0.04143080430482881 0.07512685356161078 0.015975876795228546 0.08209917370919684 0.0594674900518797 0.045791793231116824 0.053894222603615455 0.02541767591867039 0.1097780246411269 0.02919745767454147 0.04967840273961607 0.012092460176619753 0.04644596095272453 0.029018872830745685 0.02156907922797733 0.035214319239891885 0.020213623740708696 0.04992336272130067 0.016772155972688177 0.03339399353779207 0.04320685718917106 0.020611972286403445 0.02886669727106722 0.061249505069576875 0.04375205158337325 0.037007722960536185 0.07710550282417958 0.01573031737717256 0.11163536957608783 0.04009885419586951 0.044600685874664626 0.05084037927875476 0.026391568970342373 0.11230901275304205 0.022967517192515555 0.041573619598435634 0.010061035114730565 0.03527809657352421 0.0399381757254242 0.017218151721307366 0.049029838505814195 0.014306441906298253 0.04452915336057669 0.02280694849529439 0.023153143909020166 0.04266351220048706 0.015753395232971996 0.03062166368964169 0.05286865224979582 0.04226172257774609 0.041073556580049415 0.08209901160604587 0.02313024782385658 0.08140178746615558 0.042234331258411785 0.0454975362731626 0.0570844637897445 0.029197400024754322 0.09553519507788949 0.02453435707592769 0.037404651208537656 0.008263796793289405 0.05250402542239874 0.034476480171200224 0.025924325672800286 0.03752560420092903 0.013799139827165232 0.06547906958866583 0.01709970297546278 0.024722573195738343 0.03526070545063117 0.08860287206810692 0.040982804589109176 0.027036472054189457 0.0796666305001636 0.024308469429244566 0.08669969814070363 0.030911339672963976 0.06028495413653949 0.07476197637803511 0.018183823418397707 0.06916214017821382 0.032106660927676875 0.06692560124305122 0.01754499068802 0.019209118583050678 0.03452856764047417 0.02708734538127617 0.0526724312612235 0.009467350038266289 0.035957712899783834 0.037859530668673064 0.028884477134137054 0.023614873698548138 0.013540159270151517 0.04256923724390392 0.07605529411080086 0.039367373661114945 0.0298404907537811 0.08435580977114064 0.035545645892723465 0.06286887762365818 0.032377065288060364 0.061156309808499766 0.08347874522751778 0.02000553501790406 0.058506376770183874 0.020970572179832073 0.05988058681118088 0.014330986976445904 0.028430263771814988 0.029641437032852425 0.040557705582752714 0.04009004931992079 0.009081023699417979 0.05258188089257609 0.02822816227920052 0.030671442757460615 0.019409127527256115 0.07375040161565027 0.03474065304481921 0.06945838422121382 0.04130977619710119 0.03004034873165027 0.11727467913376877 0.024505580281247916 0.06260598022893943 0.031227001009027606 0.0649227444037806 0.08731750880995075 0.016089606000931206 0.028579391650514662 0.017838753548456123 0.04650176809372796 0.020165547227654238 0.023203956358746565 0.04219554947103314 0.029348577944916722 0.03655976739978388 0.012625230758463427 0.03727382447294101 0.02849789352081418 0.023967075874867166 0.020893871448859833 0.0620038735672196 0.03268477706526743 0.07508503697927259 0.042841451228079516 0.04302358022813033 0.08329044014974325 0.02513954577261476 0.062204376165830355 0.03415058898149724 0.06995755411658111 0.07234506289858195 0.03635585312394265 0.025044913049418287 0.014271191928603849 0.06740866085321565 0.016955222206664667 0.034028417686730004 0.031455214724666884 0.02757186981681435 0.05236248664647395 0.009219757246326463 0.03876559308194781 0.022940661033517433 0.09296703497651038 0.017382807598913773 0.05772619654240455 0.034963976711798836 0.07705685917220599 0.06071728224797838 0.030237370670390992 0.08455400148681612 0.02471776040768201 0.0673186553160206 0.036415184763438906 0.05735730687240411 0.03443592790207081 0.03152734948147407 0.019827220757707695 0.02047165966262297 0.05608616508315 0.024605362817444798 0.02510234736445605 0.029242761562313434 0.03907775721751893 0.037839640071258215 0.009488739761618774 0.030880631551799417 0.07055397882768664 0.07403595152152148 0.015491259259505041 0.05910999413971169 0.03434720514143177 0.10453750504439997 0.04084721747682196 0.029382971193857833 0.07957901043913958 0.025605678546167753 0.06871197463824133 0.028579151429862098 0.04437156156129774 0.02858495994546594 0.023891446907958958 0.027224964711133278 0.01630443586349118 0.07791027025593078 0.017374608630670526 0.022338434877300497 0.039672947874758675 0.02703143129728043 0.03727766692826781 0.007235373488096971 0.03874512606094395 0.06192559418550599 0.07271842285202014 0.017482747476383897 0.06399801261182772 0.051355530658452594 0.07750991740536324 0.04374708831102368 0.030478603784341092 0.0908574816223724 0.02880502628031058 0.059433900233778904 0.0114581494700904 0.04059434149699616 0.023874130800717177 0.03615621209229745 0.02389764134994767 0.024962020259205932 0.06063382388621127 0.017040739080899325 0.03340133456646122 0.03024606442732339 0.029349841383092608 0.03132824970443338 0.07417529297340511 0.03130567274398874 0.05599242306669276 0.07554830139396528 0.017424990369205244 0.08808857725736678 0.035053360176737464 0.07641898060627665 0.041773974999704956 0.032034246972365954 0.09409140908271717 0.022936511655562593 0.045671676261275905 0.009650116622743028 0.031211365721449755 0.0332602364879683 0.029216482600888483 0.0336811013673021 0.017883695606478133 0.05474514934090601 0.023456153540615737 0.023442045881972122 0.030231721649470293 0.0227065136209414 0.029712421500060305 0.0622086637801634 0.02938108031905495 0.06038028448436316 0.07815795835981713 0.024894952075825937 0.06240906406673729 0.035872303156317474 0.0757431791334941 0.04557334368404489 0.034434155541897216 0.07776688521199457 0.034359506465030235 0.039925528164884753 0.007701325393796508 0.045133205165430575 0.027896902014997036 0.0427410133689157 0.02504663934159867 0.01675998385576085 0.07821672967546336 0.01708732688525387 0.02432064893742979 0.02427689941766821 0.09791365494688464 0.024219631351767083 0.056745767046905975 0.030794384766026136 0.060712977949198145 0.10853000738449924 0.017142621926374467 0.06207477498762648 0.034557270234158007 0.08031312028806234 0.04761279642662183 0.02766126564902991 0.03570487830467251 0.029193657865967577 0.030968591975828064 0.010823974381445688 0.03679295751921583 0.03966529976392588 0.030891988972524976 0.022814117155079264 0.02327370275317649 0.0553802438963909 0.01723025295821399 0.018982061496404478 0.03547732556736347 0.08130233366863873 0.022505071367106864 0.06058533455648603 0.031541923964283756 0.0858792869497348 0.07612828622229241 0.0173690073743182 0.06091518817241952 0.03732610444229431 0.08547312119797947 0.03896158070471923 0.02843858491517652 0.030902913216859965 0.023066918024828985 0.044337684682880775 0.00898846530735731 0.053290492128471 0.029203981534406134 0.028663574250430396 0.032271995692563726 0.016786144674076565 0.056885641228503224 0.013699040156808822 0.052020279459172786 0.030666761062207133 0.07864537079950418 0.025013341983241087 0.06460132800369683 0.04644643247879084 0.06271074168699048 0.08029732775228636 0.017743640202426674 0.0684945654411612 0.04135357096383723 0.0728114582004926 0.021365449383790928 0.02562342230026607 0.025418959388485325 0.03437940921553366 0.038329141154682125 0.013552763666669392 0.04084494749085613 0.02820874891959759 0.04220945908948038 0.024230846600178976 0.01794965238718159 0.04708238236947032 0.09553519507788948 0.030621663689641684 0.05286865224979581 0.04226172257774608 0.04107355658004941 0.08209901160604585 0.023130247823856576 0.08140178746615556 0.04223433125841178 0.045497536273162595 0.057084463789744494 0.02919740002475432 0.03526070545063116 0.024534357075927684 0.03740465120853765 0.008263796793289405 0.05250402542239873 0.03447648017120022 0.025924325672800282 0.03752560420092902 0.013799139827165229 0.06547906958866581 0.017099702975462778 0.02472257319573834 0.022946957978828945 0.11768206547255075 0.024420614795643426 0.0471823064387082 0.04333604723451196 0.04040610801236375 0.11153543994943901 0.01558276668280884 0.07921360082322153 0.039805594966246444 0.047198606782857255 0.058348413432437865 0.018878184154770643 0.05073686918446114 0.020394572598920392 0.02838538108272841 0.011363163125135424 0.0418754468035531 0.04795965100423713 0.018331873621121923 0.03344107489158164 0.018747451227401606 0.04535822383395218 0.016869585902518334 0.04839126793158746 0.02982833537774429 0.09903645870539145 0.02299823622487391 0.05105499966889154 0.044987412585413125 0.057926726416763254 0.07929287714402306 0.01600174671387271 0.07878349858593094 0.04357550497192061 0.0509093221443436 0.013593396306702121 0.028664864673857593 0.04450620879709913 0.01633205139135471 0.04118806132976598 0.0095636374353215 0.0614708979177517 0.03578758641992254 0.017239171856163936 0.04794324826673984 0.013704171412355812 0.04722031772220938 0.04294862610179469 0.06398599235508201 0.02553452886246453 0.09487396499513526 0.025314400828117093 0.05391306328784854 0.06560500797740947 0.041890378952611176 0.08282682452700312 0.016188883969067605 0.08772988963791074 0.047810641951576874 0.03870494660149095 0.020995763268729605 0.02557766195758498 0.03625440163307398 0.02410634515985356 0.03526218535348171 0.01428062508407025 0.046659487448303415 0.03423386750457386 0.02514071570475019 0.03564938286307466 0.014512413974991926 0.03750938447791141 0.052811753225534455 0.05093861620806619 0.022747998917523826 0.09711438728126276 0.024859179189965903 0.07311447854891481 0.04412001963365269 0.0406925143582581 0.07792627760789611 0.016764578235596357 0.08951444653993113 0.011062177621638955 0.05559472197925156 0.017422321202230542 0.019376011576345938 0.049763942063180876 0.019192548430900916 0.04896623805090744 0.010080475669844177 0.04150753290828112 0.04642806723993906 0.01738463589780071 0.035107693135164875 0.07566377394548368 0.04969363354313182 0.0452973008332409 0.04889247230749712 0.025087606439771228 0.10275009040784103 0.03632249468717607 0.05297629687793982 0.046175907467646986 0.041248385178008176 0.08694390829886278 0.01842967537466651 0.028832531065218568 0.017119348123813417 0.04970355100418882 0.014219655146105244 0.028654835871750762 0.042686992346336036 0.028714394758239593 0.03724003269502317 0.00966156519305607 0.060650036419125926 0.03458980174877202 0.01844571026710427 0.014406284992912525 0.0927018204546704 0.03941685229911501 0.04020745901139402 0.04986518972131372 0.02454693736439203 0.13883870201604695 0.024338473011947023 0.0512744236513589 0.0432859858340436 0.042560000719201775 0.08839010715650752 0.01400926355815217 0.04126376131415543 0.014154043508371836 0.03751542867614621 0.019447422620461247 0.02273097968327417 0.05906116724275817 0.02019539857441874 0.033007753294591845 0.013055427034978948 0.04178669105568753 0.033940427204099996 0.07562270367581798 0.019318192483860356 0.08047920417059501 0.03829397656336361 0.04488242652295202 0.05340104865217946 0.03630277884994056 0.10182218834887079 0.02578260178017386 0.05260740561231613 0.048882815487386065 0.04735658226868998 0.028213141751074935 0.02194398881609264 0.03734017413037292 0.011692765651988072 0.05615612406598808 0.016884822677723812 0.03442221768849271 0.04546414323976862 0.01959171990571603 0.048817302875809224 0.00984492068300055 0.04487675409782652 0.03849877646103761 0.09635732234966077 0.015936022529051862 0.07429340032991827 0.040617968974274096 0.04567164707298692 0.07504303269432736 0.02529820965767825 0.10249292227360446 0.025135693602997403 0.056451283311831614 0.051683625709458135 0.035446521228128226 0.04199230885519655 0.018868663314389363 0.029311030939704975 0.01663115812594475 0.04632864650936378 0.02429602538977656 0.025178152982958408 0.04190898873985535 0.027532675457330274 0.03497944839061485 0.010046475099910053 0.04107537537674306 0.04795583340391161 0.07770700342720778 0.01438164256152455 0.07703710698965863 0.04040643563014557 0.06274357468104694 0.051123701092003794 0.024894489769648167 0.09768322775922884 0.026368158535056585 0.058348886528678055 0.007757609011949544 0.051576743199991656 0.03529858600467171 0.01447964395410123 0.040756636296311634 0.013413341235445754 0.06517039209751468 0.01737329710760446 0.022689453258006562 0.05757646889749038 0.019286329561475572 0.0348960636205835 0.04967840273961607 0.05481286962147769 0.04143080430482881 0.07512685356161078 0.015975876795228546 0.08209917370919684 0.0594674900518797 0.045791793231116824 0.053894222603615455 0.02541767591867039 0.1097780246411269 0.02919745767454147 0.02886669727106722 0.012092460176619753 0.04644596095272453 0.029018872830745685 0.02156907922797733 0.035214319239891885 0.020213623740708696 0.04992336272130067 0.016772155972688177 0.03339399353779207 0.04320685718917106 0.020611972286403445 0.022967517192515555 0.061249505069576875 0.04375205158337325 0.037007722960536185 0.07710550282417958 0.01573031737717256 0.11163536957608783 0.04009885419586951 0.044600685874664626 0.05084037927875476 0.026391568970342373 0.11230901275304205 0.015753395232971996 0.041573619598435634 0.010061035114730565 0.03527809657352421 0.0399381757254242 0.017218151721307366 0.049029838505814195 0.014306441906298253 0.04452915336057669 0.02280694849529439 0.023153143909020166 0.04266351220048706 0.0728114582004926 0.052020279459172786 0.030666761062207133 0.07864537079950418 0.025013341983241087 0.06460132800369683 0.04644643247879084 0.06271074168699048 0.08029732775228636 0.017743640202426674 0.0684945654411612 0.04135357096383723 0.04708238236947032 0.021365449383790928 0.02562342230026607 0.025418959388485325 0.03437940921553366 0.038329141154682125 0.013552763666669392 0.04084494749085613 0.02820874891959759 0.04220945908948038 0.024230846600178976 0.01794965238718159 0.032106660927676875 0.08860287206810692 0.040982804589109176 0.027036472054189457 0.0796666305001636 0.024308469429244566 0.08669969814070363 0.030911339672963976 0.06028495413653949 0.07476197637803511 0.018183823418397707 0.06916214017821382 0.013540159270151517 0.06692560124305122 0.01754499068802 0.019209118583050678 0.03452856764047417 0.02708734538127617 0.0526724312612235 0.009467350038266289 0.035957712899783834 0.037859530668673064 0.028884477134137054 0.023614873698548138 0.05850637677018386 0.042569237243903914 0.07605529411080085 0.03936737366111494 0.029840490753781094 0.08435580977114063 0.03554564589272346 0.06286887762365818 0.032377065288060364 0.06115630980849975 0.08347874522751776 0.020005535017904058 0.019409127527256112 0.02097057217983207 0.05988058681118087 0.014330986976445902 0.028430263771814984 0.029641437032852422 0.04055770558275271 0.04009004931992078 0.009081023699417979 0.05258188089257608 0.028228162279200514 0.03067144275746061 0.016089606000931202 0.07375040161565025 0.0347406530448192 0.0694583842212138 0.041309776197101175 0.03004034873165026 0.11727467913376872 0.024505580281247906 0.0626059802289394 0.031227001009027595 0.06492274440378058 0.08731750880995072 0.02396707587486716 0.02857939165051465 0.017838753548456116 0.04650176809372794 0.02016554722765423 0.023203956358746558 0.04219554947103313 0.029348577944916715 0.036559767399783866 0.012625230758463422 0.037273824472940996 0.028497893520814173 0.07234506289858195 0.020893871448859833 0.0620038735672196 0.03268477706526743 0.07508503697927259 0.042841451228079516 0.04302358022813033 0.08329044014974325 0.02513954577261476 0.062204376165830355 0.03415058898149724 0.06995755411658111 0.022940661033517433 0.03635585312394265 0.025044913049418287 0.014271191928603849 0.06740866085321565 0.016955222206664667 0.034028417686730004 0.031455214724666884 0.02757186981681435 0.05236248664647395 0.009219757246326463 0.03876559308194781 0.057357306872404104 0.09296703497651035 0.01738280759891377 0.057726196542404545 0.03496397671179883 0.07705685917220598 0.060717282247978364 0.030237370670390985 0.0845540014868161 0.024717760407682008 0.0673186553160206 0.0364151847634389 0.030880631551799414 0.034435927902070805 0.031527349481474065 0.01982722075770769 0.020471659662622967 0.056086165083149994 0.024605362817444795 0.025102347364456042 0.029242761562313428 0.039077757217518924 0.03783964007125821 0.009488739761618773 0.028579151429862098 0.07055397882768664 0.07403595152152148 0.015491259259505041 0.05910999413971169 0.03434720514143177 0.10453750504439997 0.04084721747682196 0.029382971193857833 0.07957901043913958 0.025605678546167753 0.06871197463824133 0.007235373488096971 0.04437156156129774 0.02858495994546594 0.023891446907958958 0.027224964711133278 0.01630443586349118 0.07791027025593078 0.017374608630670526 0.022338434877300497 0.039672947874758675 0.02703143129728043 0.03727766692826781 0.05943390023377889 0.03874512606094394 0.06192559418550598 0.07271842285202014 0.017482747476383894 0.0639980126118277 0.05135553065845259 0.07750991740536323 0.04374708831102367 0.03047860378434109 0.09085748162237238 0.028805026280310574 0.031328249704433375 0.011458149470090398 0.04059434149699615 0.023874130800717173 0.03615621209229744 0.023897641349947665 0.02496202025920593 0.06063382388621126 0.01704073908089932 0.033401334566461216 0.030246064427323388 0.0293498413830926 0.022936511655562593 0.07417529297340511 0.03130567274398874 