<?xml version="1.0" encoding="US-ASCII"?>
<!--
Bayesian network in XMLBIF v0.3 (BayesNet Interchange Format)
Produced by BNJ 3.0 (http://bndev.sourceforge.net/
-->
		<!-- DTD for the XMLBIF 0.3 format -->
<!DOCTYPE BIF [
<!ELEMENT BIF ( NETWORK )*>
<!ATTLIST BIF VERSION CDATA #REQUIRED>
<!ELEMENT NETWORK ( NAME, ( PROPERTY | VARIABLE | DEFINITION )* )>
<!ELEMENT NAME (#PCDATA)>
<!ELEMENT VARIABLE ( NAME, ( OUTCOME |  PROPERTY )* ) >
	<!ATTLIST VARIABLE TYPE (nature|decision|utility) "nature">
<!ELEMENT OUTCOME (#PCDATA)>
<!ELEMENT DEFINITION ( FOR | GIVEN | TABLE | PROPERTY )* >
<!ELEMENT FOR (#PCDATA)>
<!ELEMENT GIVEN (#PCDATA)>
<!ELEMENT TABLE (#PCDATA)>
<!ELEMENT PROPERTY (#PCDATA)>
]>
<BIF VERSION="0.3">
<NETWORK>
<NAME>bn</NAME>
	<VARIABLE TYPE="nature">
		<NAME>observation(0)</NAME>
		<OUTCOME>O0</OUTCOME>
		<OUTCOME>O1</OUTCOME>
		<OUTCOME>O2</OUTCOME>
		<OUTCOME>O3</OUTCOME>
		<OUTCOME>O4</OUTCOME>
		<PROPERTY>position = (0,0)</PROPERTY>
	</VARIABLE>
	<VARIABLE TYPE="nature">
		<NAME>chord(0)</NAME>
		<OUTCOME>Cmaj</OUTCOME>
		<OUTCOME>Dbmaj</OUTCOME>
		<OUTCOME>Dmaj</OUTCOME>
		<OUTCOME>Ebmaj</OUTCOME>
		<OUTCOME>Emaj</OUTCOME>
		<OUTCOME>Fmaj</OUTCOME>
		<OUTCOME>Gbmaj</OUTCOME>
		<OUTCOME>Gmaj</OUTCOME>
		<OUTCOME>Abmaj</OUTCOME>
		<OUTCOME>Amaj</OUTCOME>
		<OUTCOME>Bbmaj</OUTCOME>
		<OUTCOME>Bmaj</OUTCOME>
		<OUTCOME>Cmin</OUTCOME>
		<OUTCOME>Dbmin</OUTCOME>
		<OUTCOME>Dmin</OUTCOME>
		<OUTCOME>Ebmin</OUTCOME>
		<OUTCOME>Emin</OUTCOME>
		<OUTCOME>Fmin</OUTCOME>
		<OUTCOME>Gbmin</OUTCOME>
		<OUTCOME>Gmin</OUTCOME>
		<OUTCOME>Abmin</OUTCOME>
		<OUTCOME>Amin</OUTCOME>
		<OUTCOME>Bbmin</OUTCOME>
		<OUTCOME>Bmin</OUTCOME>
		<PROPERTY>position = (0,0)</PROPERTY>
	</VARIABLE>
	<VARIABLE TYPE="nature">
		<NAME>observation(1)</NAME>
		<OUTCOME>O0</OUTCOME>
		<OUTCOME>O1</OUTCOME>
		<OUTCOME>O2</OUTCOME>
		<OUTCOME>O3</OUTCOME>
		<OUTCOME>O4</OUTCOME>
		<PROPERTY>position = (0,0)</PROPERTY>
	</VARIABLE>
	<VARIABLE TYPE="nature">
		<NAME>chord(1)</NAME>
		<OUTCOME>Cmaj</OUTCOME>
		<OUTCOME>Dbmaj</OUTCOME>
		<OUTCOME>Dmaj</OUTCOME>
		<OUTCOME>Ebmaj</OUTCOME>
		<OUTCOME>Emaj</OUTCOME>
		<OUTCOME>Fmaj</OUTCOME>
		<OUTCOME>Gbmaj</OUTCOME>
		<OUTCOME>Gmaj</OUTCOME>
		<OUTCOME>Abmaj</OUTCOME>
		<OUTCOME>Amaj</OUTCOME>
		<OUTCOME>Bbmaj</OUTCOME>
		<OUTCOME>Bmaj</OUTCOME>
		<OUTCOME>Cmin</OUTCOME>
		<OUTCOME>Dbmin</OUTCOME>
		<OUTCOME>Dmin</OUTCOME>
		<OUTCOME>Ebmin</OUTCOME>
		<OUTCOME>Emin</OUTCOME>
		<OUTCOME>Fmin</OUTCOME>
		<OUTCOME>Gbmin</OUTCOME>
		<OUTCOME>Gmin</OUTCOME>
		<OUTCOME>Abmin</OUTCOME>
		<OUTCOME>Amin</OUTCOME>
		<OUTCOME>Bbmin</OUTCOME>
		<OUTCOME>Bmin</OUTCOME>
		<PROPERTY>position = (0,0)</PROPERTY>
	</VARIABLE>
	<VARIABLE TYPE="nature">
		<NAME>observation(2)</NAME>
		<OUTCOME>O0</OUTCOME>
		<OUTCOME>O1</OUTCOME>
		<OUTCOME>O2</OUTCOME>
		<OUTCOME>O3</OUTCOME>
		<OUTCOME>O4</OUTCOME>
		<PROPERTY>position = (0,0)</PROPERTY>
	</VARIABLE>
	<VARIABLE TYPE="nature">
		<NAME>chord(2)</NAME>
		<OUTCOME>Cmaj</OUTCOME>
		<OUTCOME>Dbmaj</OUTCOME>
		<OUTCOME>Dmaj</OUTCOME>
		<OUTCOME>Ebmaj</OUTCOME>
		<OUTCOME>Emaj</OUTCOME>
		<OUTCOME>Fmaj</OUTCOME>
		<OUTCOME>Gbmaj</OUTCOME>
		<OUTCOME>Gmaj</OUTCOME>
		<OUTCOME>Abmaj</OUTCOME>
		<OUTCOME>Amaj</OUTCOME>
		<OUTCOME>Bbmaj</OUTCOME>
		<OUTCOME>Bmaj</OUTCOME>
		<OUTCOME>Cmin</OUTCOME>
		<OUTCOME>Dbmin</OUTCOME>
		<OUTCOME>Dmin</OUTCOME>
		<OUTCOME>Ebmin</OUTCOME>
		<OUTCOME>Emin</OUTCOME>
		<OUTCOME>Fmin</OUTCOME>
		<OUTCOME>Gbmin</OUTCOME>
		<OUTCOME>Gmin</OUTCOME>
		<OUTCOME>Abmin</OUTCOME>
		<OUTCOME>Amin</OUTCOME>
		<OUTCOME>Bbmin</OUTCOME>
		<OUTCOME>Bmin</OUTCOME>
		<PROPERTY>position = (0,0)</PROPERTY>
	</VARIABLE>
	<VARIABLE TYPE="nature">
		<NAME>observation(3)</NAME>
		<OUTCOME>O0</OUTCOME>
		<OUTCOME>O1</OUTCOME>
		<OUTCOME>O2</OUTCOME>
		<OUTCOME>O3</OUTCOME>
		<OUTCOME>O4</OUTCOME>
		<PROPERTY>position = (0,0)</PROPERTY>
	</VARIABLE>
	<VARIABLE TYPE="nature">
		<NAME>chord(3)</NAME>
		<OUTCOME>Cmaj</OUTCOME>
		<OUTCOME>Dbmaj</OUTCOME>
		<OUTCOME>Dmaj</OUTCOME>
		<OUTCOME>Ebmaj</OUTCOME>
		<OUTCOME>Emaj</OUTCOME>
		<OUTCOME>Fmaj</OUTCOME>
		<OUTCOME>Gbmaj</OUTCOME>
		<OUTCOME>Gmaj</OUTCOME>
		<OUTCOME>Abmaj</OUTCOME>
		<OUTCOME>Amaj</OUTCOME>
		<OUTCOME>Bbmaj</OUTCOME>
		<OUTCOME>Bmaj</OUTCOME>
		<OUTCOME>Cmin</OUTCOME>
		<OUTCOME>Dbmin</OUTCOME>
		<OUTCOME>Dmin</OUTCOME>
		<OUTCOME>Ebmin</OUTCOME>
		<OUTCOME>Emin</OUTCOME>
		<OUTCOME>Fmin</OUTCOME>
		<OUTCOME>Gbmin</OUTCOME>
		<OUTCOME>Gmin</OUTCOME>
		<OUTCOME>Abmin</OUTCOME>
		<OUTCOME>Amin</OUTCOME>
		<OUTCOME>Bbmin</OUTCOME>
		<OUTCOME>Bmin</OUTCOME>
		<PROPERTY>position = (0,0)</PROPERTY>
	</VARIABLE>
	<VARIABLE TYPE="nature">
		<NAME>observation(4)</NAME>
		<OUTCOME>O0</OUTCOME>
		<OUTCOME>O1</OUTCOME>
		<OUTCOME>O2</OUTCOME>
		<OUTCOME>O3</OUTCOME>
		<OUTCOME>O4</OUTCOME>
		<PROPERTY>position = (0,0)</PROPERTY>
	</VARIABLE>
	<VARIABLE TYPE="nature">
		<NAME>chord(4)</NAME>
		<OUTCOME>Cmaj</OUTCOME>
		<OUTCOME>Dbmaj</OUTCOME>
		<OUTCOME>Dmaj</OUTCOME>
		<OUTCOME>Ebmaj</OUTCOME>
		<OUTCOME>Emaj</OUTCOME>
		<OUTCOME>Fmaj</OUTCOME>
		<OUTCOME>Gbmaj</OUTCOME>
		<OUTCOME>Gmaj</OUTCOME>
		<OUTCOME>Abmaj</OUTCOME>
		<OUTCOME>Amaj</OUTCOME>
		<OUTCOME>Bbmaj</OUTCOME>
		<OUTCOME>Bmaj</OUTCOME>
		<OUTCOME>Cmin</OUTCOME>
		<OUTCOME>Dbmin</OUTCOME>
		<OUTCOME>Dmin</OUTCOME>
		<OUTCOME>Ebmin</OUTCOME>
		<OUTCOME>Emin</OUTCOME>
		<OUTCOME>Fmin</OUTCOME>
		<OUTCOME>Gbmin</OUTCOME>
		<OUTCOME>Gmin</OUTCOME>
		<OUTCOME>Abmin</OUTCOME>
		<OUTCOME>Amin</OUTCOME>
		<OUTCOME>Bbmin</OUTCOME>
		<OUTCOME>Bmin</OUTCOME>
		<PROPERTY>position = (0,0)</PROPERTY>
	</VARIABLE>
	<DEFINITION>
		<FOR>observation(0)</FOR>
		<GIVEN>chord(0)</GIVEN>
		<TABLE>0.04166666667 0.04166666667 0.04166666667 0.04166666667 0.04166666667 0.04166666667 0.04166666667 0.04166666667 0.04166666667 0.04166666667 0.04166666667 0.04166666667 0.04166666667 0.04166666667 0.04166666667 0.04166666667 0.04166666667 0.04166666667 0.04166666667 0.04166666667 0.04166666667 0.04166666667 0.04166666667 0.04166666667 0.04166666667 0.04166666667 0.04166666667 0.04166666667 0.04166666667 0.04166666667 0.04166666667 0.04166666667 0.04166666667 0.04166666667 0.04166666667 0.04166666667 0.04166666667 0.04166666667 0.04166666667 0.04166666667 0.04166666667 0.04166666667 0.04166666667 0.04166666667 0.04166666667 0.04166666667 0.04166666667 0.04166666667 0.04166666667 0.04166666667 0.04166666667 0.04166666667 0.04166666667 0.04166666667 0.04166666667 0.04166666667 0.04166666667 0.04166666667 0.04166666667 0.04166666667 0.04166666667 0.04166666667 0.04166666667 0.04166666667 0.04166666667 0.04166666667 0.04166666667 0.04166666667 0.04166666667 0.04166666667 0.04166666667 0.04166666667 0.04166666667 0.04166666667 0.04166666667 0.04166666667 0.04166666667 0.04166666667 0.04166666667 0.04166666667 0.04166666667 0.04166666667 0.04166666667 0.04166666667 0.04166666667 0.04166666667 0.04166666667 0.04166666667 0.04166666667 0.04166666667 0.04166666667 0.04166666667 0.04166666667 0.04166666667 0.04166666667 0.04166666667 0.04166666667 0.04166666667 0.04166666667 0.04166666667 0.04166666667 0.04166666667 0.04166666667 0.04166666667 0.04166666667 0.04166666667 0.04166666667 0.04166666667 0.04166666667 0.04166666667 0.04166666667 0.04166666667 0.04166666667 0.04166666667 0.04166666667 0.04166666667 0.04166666667 0.04166666667 0.04166666667 0.04166666667 		</TABLE>	</DEFINITION>	<DEFINITION>
		<FOR>chord(0)</FOR>
		<TABLE>0.04166666667 0.04166666667 0.04166666667 0.04166666667 0.04166666667 0.04166666667 0.04166666667 0.04166666667 0.04166666667 0.04166666667 0.04166666667 0.04166666667 0.04166666667 0.04166666667 0.04166666667 0.04166666667 0.04166666667 0.04166666667 0.04166666667 0.04166666667 0.04166666667 0.04166666667 0.04166666667 0.04166666667 		</TABLE>	</DEFINITION>	<DEFINITION>
		<FOR>observation(1)</FOR>
		<GIVEN>chord(1)</GIVEN>
		<TABLE>0.04166666667 0.04166666667 0.04166666667 0.04166666667 0.04166666667 0.04166666667 0.04166666667 0.04166666667 0.04166666667 0.04166666667 0.04166666667 0.04166666667 0.04166666667 0.04166666667 0.04166666667 0.04166666667 0.04166666667 0.04166666667 0.04166666667 0.04166666667 0.04166666667 0.04166666667 0.04166666667 0.04166666667 0.04166666667 0.04166666667 0.04166666667 0.04166666667 0.04166666667 0.04166666667 0.04166666667 0.04166666667 0.04166666667 0.04166666667 0.04166666667 0.04166666667 0.04166666667 0.04166666667 0.04166666667 0.04166666667 0.04166666667 0.04166666667 0.04166666667 0.04166666667 0.04166666667 0.04166666667 0.04166666667 0.04166666667 0.04166666667 0.04166666667 0.04166666667 0.04166666667 0.04166666667 0.04166666667 0.04166666667 0.04166666667 0.04166666667 0.04166666667 0.04166666667 0.04166666667 0.04166666667 0.04166666667 0.04166666667 0.04166666667 0.04166666667 0.04166666667 0.04166666667 0.04166666667 0.04166666667 0.04166666667 0.04166666667 0.04166666667 0.04166666667 0.04166666667 0.04166666667 0.04166666667 0.04166666667 0.04166666667 0.04166666667 0.04166666667 0.04166666667 0.04166666667 0.04166666667 0.04166666667 0.04166666667 0.04166666667 0.04166666667 0.04166666667 0.04166666667 0.04166666667 0.04166666667 0.04166666667 0.04166666667 0.04166666667 0.04166666667 0.04166666667 0.04166666667 0.04166666667 0.04166666667 0.04166666667 0.04166666667 0.04166666667 0.04166666667 0.04166666667 0.04166666667 0.04166666667 0.04166666667 0.04166666667 0.04166666667 0.04166666667 0.04166666667 0.04166666667 0.04166666667 0.04166666667 0.04166666667 0.04166666667 0.04166666667 0.04166666667 0.04166666667 0.04166666667 		</TABLE>	</DEFINITION>	<DEFINITION>
		<FOR>chord(1)</FOR>
		<GIVEN>chord(0)</GIVEN>
		<TABLE>0.08332986 0.02083247 0.04333153 0.03729011 0.03395692 0.0662889 0.01320778 0.0662889 0.03395692 0.03729011 0.04333153 0.02083247 0.06295571 0.02924878 0.05153952 0.01441607 0.06399733 0.05062289 0.02629057 0.05170618 0.02049915 0.0687888 0.02491563 0.03508187 0.02083247 0.08332986 0.02083247 0.04333153 0.03729011 0.03395692 0.0662889 0.01320778 0.0662889 0.03395692 0.03729011 0.04333153 0.03508187 0.06295571 0.02924878 0.05153952 0.01441607 0.06399733 0.05062289 0.02629057 0.05170618 0.02049915 0.0687888 0.02491563 0.04333153 0.02083247 0.08332986 0.02083247 0.04333153 0.03729011 0.03395692 0.0662889 0.01320778 0.0662889 0.03395692 0.03729011 0.02491563 0.03508187 0.06295571 0.02924878 0.05153952 0.01441607 0.06399733 0.05062289 0.02629057 0.05170618 0.02049915 0.0687888 0.03729011 0.04333153 0.02083247 0.08332986 0.02083247 0.04333153 0.03729011 0.03395692 0.0662889 0.01320778 0.0662889 0.03395692 0.0687888 0.02491563 0.03508187 0.06295571 0.02924878 0.05153952 0.01441607 0.06399733 0.05062289 0.02629057 0.05170618 0.02049915 0.03395692 0.03729011 0.04333153 0.02083247 0.08332986 0.02083247 0.04333153 0.03729011 0.03395692 0.0662889 0.01320778 0.0662889 0.02049915 0.0687888 0.02491563 0.03508187 0.06295571 0.02924878 0.05153952 0.01441607 0.06399733 0.05062289 0.02629057 0.05170618 0.0662889 0.03395692 0.03729011 0.04333153 0.02083247 0.08332986 0.02083247 0.04333153 0.03729011 0.03395692 0.0662889 0.01320778 0.05170618 0.02049915 0.0687888 0.02491563 0.03508187 0.06295571 0.02924878 0.05153952 0.01441607 0.06399733 0.05062289 0.02629057 0.01320778 0.0662889 0.03395692 0.03729011 0.04333153 0.02083247 0.08332986 0.02083247 0.04333153 0.03729011 0.03395692 0.0662889 0.02629057 0.05170618 0.02049915 0.0687888 0.02491563 0.03508187 0.06295571 0.02924878 0.05153952 0.01441607 0.06399733 0.05062289 0.0662889 0.01320778 0.0662889 0.03395692 0.03729011 0.04333153 0.02083247 0.08332986 0.02083247 0.04333153 0.03729011 0.03395692 0.05062289 0.02629057 0.05170618 0.02049915 0.0687888 0.02491563 0.03508187 0.06295571 0.02924878 0.05153952 0.01441607 0.06399733 0.03395692 0.0662889 0.01320778 0.0662889 0.03395692 0.03729011 0.04333153 0.02083247 0.08332986 0.02083247 0.04333153 0.03729011 0.06399733 0.05062289 0.02629057 0.05170618 0.02049915 0.0687888 0.02491563 0.03508187 0.06295571 0.02924878 0.05153952 0.01441607 0.03729011 0.03395692 0.0662889 0.01320778 0.0662889 0.03395692 0.03729011 0.04333153 0.02083247 0.08332986 0.02083247 0.04333153 0.01441607 0.06399733 0.05062289 0.02629057 0.05170618 0.02049915 0.0687888 0.02491563 0.03508187 0.06295571 0.02924878 0.05153952 0.04333153 0.03729011 0.03395692 0.0662889 0.01320778 0.0662889 0.03395692 0.03729011 0.04333153 0.02083247 0.08332986 0.02083247 0.05153952 0.01441607 0.06399733 0.05062289 0.02629057 0.05170618 0.02049915 0.0687888 0.02491563 0.03508187 0.06295571 0.02924878 0.02083247 0.04333153 0.03729011 0.03395692 0.0662889 0.01320778 0.0662889 0.03395692 0.03729011 0.04333153 0.02083247 0.08332986 0.02924878 0.05153952 0.01441607 0.06399733 0.05062289 0.02629057 0.05170618 0.02049915 0.0687888 0.02491563 0.03508187 0.06295571 0.06295046 0.03507895 0.02491355 0.06878307 0.02049744 0.05170187 0.02628838 0.05061867 0.063992 0.01441486 0.05153522 0.02924634 0.08332292 0.02524684 0.03499563 0.04395284 0.04153647 0.05578469 0.0136233 0.05578469 0.04153647 0.04395284 0.03499563 0.02524684 0.02924634 0.06295046 0.03507895 0.02491355 0.06878307 0.02049744 0.05170187 0.02628838 0.05061867 0.063992 0.01441486 0.05153522 0.02524684 0.08332292 0.02524684 0.03499563 0.04395284 0.04153647 0.05578469 0.0136233 0.05578469 0.04153647 0.04395284 0.03499563 0.05153522 0.02924634 0.06295046 0.03507895 0.02491355 0.06878307 0.02049744 0.05170187 0.02628838 0.05061867 0.063992 0.01441486 0.03499563 0.02524684 0.08332292 0.02524684 0.03499563 0.04395284 0.04153647 0.05578469 0.0136233 0.05578469 0.04153647 0.04395284 0.01441486 0.05153522 0.02924634 0.06295046 0.03507895 0.02491355 0.06878307 0.02049744 0.05170187 0.02628838 0.05061867 0.063992 0.04395284 0.03499563 0.02524684 0.08332292 0.02524684 0.03499563 0.04395284 0.04153647 0.05578469 0.0136233 0.05578469 0.04153647 0.063992 0.01441486 0.05153522 0.02924634 0.06295046 0.03507895 0.02491355 0.06878307 0.02049744 0.05170187 0.02628838 0.05061867 0.04153647 0.04395284 0.03499563 0.02524684 0.08332292 0.02524684 0.03499563 0.04395284 0.04153647 0.05578469 0.0136233 0.05578469 0.05061867 0.063992 0.01441486 0.05153522 0.02924634 0.06295046 0.03507895 0.02491355 0.06878307 0.02049744 0.05170187 0.02628838 0.05578469 0.04153647 0.04395284 0.03499563 0.02524684 0.08332292 0.02524684 0.03499563 0.04395284 0.04153647 0.05578469 0.0136233 0.02628838 0.05061867 0.063992 0.01441486 0.05153522 0.02924634 0.06295046 0.03507895 0.02491355 0.06878307 0.02049744 0.05170187 0.0136233 0.05578469 0.04153647 0.04395284 0.03499563 0.02524684 0.08332292 0.02524684 0.03499563 0.04395284 0.04153647 0.05578469 0.05170187 0.02628838 0.05061867 0.063992 0.01441486 0.05153522 0.02924634 0.06295046 0.03507895 0.02491355 0.06878307 0.02049744 0.05578469 0.0136233 0.05578469 0.04153647 0.04395284 0.03499563 0.02524684 0.08332292 0.02524684 0.03499563 0.04395284 0.04153647 0.02049744 0.05170187 0.02628838 0.05061867 0.063992 0.01441486 0.05153522 0.02924634 0.06295046 0.03507895 0.02491355 0.06878307 0.04153647 0.05578469 0.0136233 0.05578469 0.04153647 0.04395284 0.03499563 0.02524684 0.08332292 0.02524684 0.03499563 0.04395284 0.06878307 0.02049744 0.05170187 0.02628838 0.05061867 0.063992 0.01441486 0.05153522 0.02924634 0.06295046 0.03507895 0.02491355 0.04395284 0.04153647 0.05578469 0.0136233 0.05578469 0.04153647 0.04395284 0.03499563 0.02524684 0.08332292 0.02524684 0.03499563 0.02491355 0.06878307 0.02049744 0.05170187 0.02628838 0.05061867 0.063992 0.01441486 0.05153522 0.02924634 0.06295046 0.03507895 0.03499563 0.04395284 0.04153647 0.05578469 0.0136233 0.05578469 0.04153647 0.04395284 0.03499563 0.02524684 0.08332292 0.02524684 0.03507895 0.02491355 0.06878307 0.02049744 0.05170187 0.02628838 0.05061867 0.063992 0.01441486 0.05153522 0.02924634 0.06295046 0.02524684 0.03499563 0.04395284 0.04153647 0.05578469 0.0136233 0.05578469 0.04153647 0.04395284 0.03499563 0.02524684 0.08332292 		</TABLE>	</DEFINITION>	<DEFINITION>
		<FOR>observation(2)</FOR>
		<GIVEN>chord(2)</GIVEN>
		<TABLE>0.04166666667 0.04166666667 0.04166666667 0.04166666667 0.04166666667 0.04166666667 0.04166666667 0.04166666667 0.04166666667 0.04166666667 0.04166666667 0.04166666667 0.04166666667 0.04166666667 0.04166666667 0.04166666667 0.04166666667 0.04166666667 0.04166666667 0.04166666667 0.04166666667 0.04166666667 0.04166666667 0.04166666667 0.04166666667 0.04166666667 0.04166666667 0.04166666667 0.04166666667 0.04166666667 0.04166666667 0.04166666667 0.04166666667 0.04166666667 0.04166666667 0.04166666667 0.04166666667 0.04166666667 0.04166666667 0.04166666667 0.04166666667 0.04166666667 0.04166666667 0.04166666667 0.04166666667 0.04166666667 0.04166666667 0.04166666667 0.04166666667 0.04166666667 0.04166666667 0.04166666667 0.04166666667 0.04166666667 0.04166666667 0.04166666667 0.04166666667 0.04166666667 0.04166666667 0.04166666667 0.04166666667 0.04166666667 0.04166666667 0.04166666667 0.04166666667 0.04166666667 0.04166666667 0.04166666667 0.04166666667 0.04166666667 0.04166666667 0.04166666667 0.04166666667 0.04166666667 0.04166666667 0.04166666667 0.04166666667 0.04166666667 0.04166666667 0.04166666667 0.04166666667 0.04166666667 0.04166666667 0.04166666667 0.04166666667 0.04166666667 0.04166666667 0.04166666667 0.04166666667 0.04166666667 0.04166666667 0.04166666667 0.04166666667 0.04166666667 0.04166666667 0.04166666667 0.04166666667 0.04166666667 0.04166666667 0.04166666667 0.04166666667 0.04166666667 0.04166666667 0.04166666667 0.04166666667 0.04166666667 0.04166666667 0.04166666667 0.04166666667 0.04166666667 0.04166666667 0.04166666667 0.04166666667 0.04166666667 0.04166666667 0.04166666667 0.04166666667 0.04166666667 0.04166666667 0.04166666667 		</TABLE>	</DEFINITION>	<DEFINITION>
		<FOR>chord(2)</FOR>
		<GIVEN>chord(1)</GIVEN>
		<TABLE>0.08332986 0.02083247 0.04333153 0.03729011 0.03395692 0.0662889 0.01320778 0.0662889 0.03395692 0.03729011 0.04333153 0.02083247 0.06295571 0.02924878 0.05153952 0.01441607 0.06399733 0.05062289 0.02629057 0.05170618 0.02049915 0.0687888 0.02491563 0.03508187 0.02083247 0.08332986 0.02083247 0.04333153 0.03729011 0.03395692 0.0662889 0.01320778 0.0662889 0.03395692 0.03729011 0.04333153 0.03508187 0.06295571 0.02924878 0.05153952 0.01441607 0.06399733 0.05062289 0.02629057 0.05170618 0.02049915 0.0687888 0.02491563 0.04333153 0.02083247 0.08332986 0.02083247 0.04333153 0.03729011 0.03395692 0.0662889 0.01320778 0.0662889 0.03395692 0.03729011 0.02491563 0.03508187 0.06295571 0.02924878 0.05153952 0.01441607 0.06399733 0.05062289 0.02629057 0.05170618 0.02049915 0.0687888 0.03729011 0.04333153 0.02083247 0.08332986 0.02083247 0.04333153 0.03729011 0.03395692 0.0662889 0.01320778 0.0662889 0.03395692 0.0687888 0.02491563 0.03508187 0.06295571 0.02924878 0.05153952 0.01441607 0.06399733 0.05062289 0.02629057 0.05170618 0.02049915 0.03395692 0.03729011 0.04333153 0.02083247 0.08332986 0.02083247 0.04333153 0.03729011 0.03395692 0.0662889 0.01320778 0.0662889 0.02049915 0.0687888 0.02491563 0.03508187 0.06295571 0.02924878 0.05153952 0.01441607 0.06399733 0.05062289 0.02629057 0.05170618 0.0662889 0.03395692 0.03729011 0.04333153 0.02083247 0.08332986 0.02083247 0.04333153 0.03729011 0.03395692 0.0662889 0.01320778 0.05170618 0.02049915 0.0687888 0.02491563 0.03508187 0.06295571 0.02924878 0.05153952 0.01441607 0.06399733 0.05062289 0.02629057 0.01320778 0.0662889 0.03395692 0.03729011 0.04333153 0.02083247 0.08332986 0.02083247 0.04333153 0.03729011 0.03395692 0.0662889 0.02629057 0.05170618 0.02049915 0.0687888 0.02491563 0.03508187 0.06295571 0.02924878 0.05153952 0.01441607 0.06399733 0.05062289 0.0662889 0.01320778 0.0662889 0.03395692 0.03729011 0.04333153 0.02083247 0.08332986 0.02083247 0.04333153 0.03729011 0.03395692 0.05062289 0.02629057 0.05170618 0.02049915 0.0687888 0.02491563 0.03508187 0.06295571 0.02924878 0.05153952 0.01441607 0.06399733 0.03395692 0.0662889 0.01320778 0.0662889 0.03395692 0.03729011 0.04333153 0.02083247 0.08332986 0.02083247 0.04333153 0.03729011 0.06399733 0.05062289 0.02629057 0.05170618 0.02049915 0.0687888 0.02491563 0.03508187 0.06295571 0.02924878 0.05153952 0.01441607 0.03729011 0.03395692 0.0662889 0.01320778 0.0662889 0.03395692 0.03729011 0.04333153 0.02083247 0.08332986 0.02083247 0.04333153 0.01441607 0.06399733 0.05062289 0.02629057 0.05170618 0.02049915 0.0687888 0.02491563 0.03508187 0.06295571 0.02924878 0.05153952 0.04333153 0.03729011 0.03395692 0.0662889 0.01320778 0.0662889 0.03395692 0.03729011 0.04333153 0.02083247 0.08332986 0.02083247 0.05153952 0.01441607 0.06399733 0.05062289 0.02629057 0.05170618 0.02049915 0.0687888 0.02491563 0.03508187 0.06295571 0.02924878 0.02083247 0.04333153 0.03729011 0.03395692 0.0662889 0.01320778 0.0662889 0.03395692 0.03729011 0.04333153 0.02083247 0.08332986 0.02924878 0.05153952 0.01441607 0.06399733 0.05062289 0.02629057 0.05170618 0.02049915 0.0687888 0.02491563 0.03508187 0.06295571 0.06295046 0.03507895 0.02491355 0.06878307 0.02049744 0.05170187 0.02628838 0.05061867 0.063992 0.01441486 0.05153522 0.02924634 0.08332292 0.02524684 0.03499563 0.04395284 0.04153647 0.05578469 0.0136233 0.05578469 0.04153647 0.04395284 0.03499563 0.02524684 0.02924634 0.06295046 0.03507895 0.02491355 0.06878307 0.02049744 0.05170187 0.02628838 0.05061867 0.063992 0.01441486 0.05153522 0.02524684 0.08332292 0.02524684 0.03499563 0.04395284 0.04153647 0.05578469 0.0136233 0.05578469 0.04153647 0.04395284 0.03499563 0.05153522 0.02924634 0.06295046 0.03507895 0.02491355 0.06878307 0.02049744 0.05170187 0.02628838 0.05061867 0.063992 0.01441486 0.03499563 0.02524684 0.08332292 0.02524684 0.03499563 0.04395284 0.04153647 0.05578469 0.0136233 0.05578469 0.04153647 0.04395284 0.01441486 0.05153522 0.02924634 0.06295046 0.03507895 0.02491355 0.06878307 0.02049744 0.05170187 0.02628838 0.05061867 0.063992 0.04395284 0.03499563 0.02524684 0.08332292 0.02524684 0.03499563 0.04395284 0.04153647 0.05578469 0.0136233 0.05578469 0.04153647 0.063992 0.01441486 0.05153522 0.02924634 0.06295046 0.03507895 0.02491355 0.06878307 0.02049744 0.05170187 0.02628838 0.05061867 0.04153647 0.04395284 0.03499563 0.02524684 0.08332292 0.02524684 0.03499563 0.04395284 0.04153647 0.05578469 0.0136233 0.05578469 0.05061867 0.063992 0.01441486 0.05153522 0.02924634 0.06295046 0.03507895 0.02491355 0.06878307 0.02049744 0.05170187 0.02628838 0.05578469 0.04153647 0.04395284 0.03499563 0.02524684 0.08332292 0.02524684 0.03499563 0.04395284 0.04153647 0.05578469 0.0136233 0.02628838 0.05061867 0.063992 0.01441486 0.05153522 0.02924634 0.06295046 0.03507895 0.02491355 0.06878307 0.02049744 0.05170187 0.0136233 0.05578469 0.04153647 0.04395284 0.03499563 0.02524684 0.08332292 0.02524684 0.03499563 0.04395284 0.04153647 0.05578469 0.05170187 0.02628838 0.05061867 0.063992 0.01441486 0.05153522 0.02924634 0.06295046 0.03507895 0.02491355 0.06878307 0.02049744 0.05578469 0.0136233 0.05578469 0.04153647 0.04395284 0.03499563 0.02524684 0.08332292 0.02524684 0.03499563 0.04395284 0.04153647 0.02049744 0.05170187 0.02628838 0.05061867 0.063992 0.01441486 0.05153522 0.02924634 0.06295046 0.03507895 0.02491355 0.06878307 0.04153647 0.05578469 0.0136233 0.05578469 0.04153647 0.04395284 0.03499563 0.02524684 0.08332292 0.02524684 0.03499563 0.04395284 0.06878307 0.02049744 0.05170187 0.02628838 0.05061867 0.063992 0.01441486 0.05153522 0.02924634 0.06295046 0.03507895 0.02491355 0.04395284 0.04153647 0.05578469 0.0136233 0.05578469 0.04153647 0.04395284 0.03499563 0.02524684 0.08332292 0.02524684 0.03499563 0.02491355 0.06878307 0.02049744 0.05170187 0.02628838 0.05061867 0.063992 0.01441486 0.05153522 0.02924634 0.06295046 0.03507895 0.03499563 0.04395284 0.04153647 0.05578469 0.0136233 0.05578469 0.04153647 0.04395284 0.03499563 0.02524684 0.08332292 0.02524684 0.03507895 0.02491355 0.06878307 0.02049744 0.05170187 0.02628838 0.05061867 0.063992 0.01441486 0.05153522 0.02924634 0.06295046 0.02524684 0.03499563 0.04395284 0.04153647 0.05578469 0.0136233 0.05578469 0.04153647 0.04395284 0.03499563 0.02524684 0.08332292 		</TABLE>	</DEFINITION>	<DEFINITION>
		<FOR>observation(3)</FOR>
		<GIVEN>chord(3)</GIVEN>
		<TABLE>0.04166666667 0.04166666667 0.04166666667 0.04166666667 0.04166666667 0.04166666667 0.04166666667 0.04166666667 0.04166666667 0.04166666667 0.04166666667 0.04166666667 0.04166666667 0.04166666667 0.04166666667 0.04166666667 0.04166666667 0.04166666667 0.04166666667 0.04166666667 0.04166666667 0.04166666667 0.04166666667 0.04166666667 0.04166666667 0.04166666667 0.04166666667 0.04166666667 0.04166666667 0.04166666667 0.04166666667 0.04166666667 0.04166666667 0.04166666667 0.04166666667 0.04166666667 0.04166666667 0.04166666667 0.04166666667 0.04166666667 0.04166666667 0.04166666667 0.04166666667 0.04166666667 0.04166666667 0.04166666667 0.04166666667 0.04166666667 0.04166666667 0.04166666667 0.04166666667 0.04166666667 0.04166666667 0.04166666667 0.04166666667 0.04166666667 0.04166666667 0.04166666667 0.04166666667 0.04166666667 0.04166666667 0.04166666667 0.04166666667 0.04166666667 0.04166666667 0.04166666667 0.04166666667 0.04166666667 0.04166666667 0.04166666667 0.04166666667 0.04166666667 0.04166666667 0.04166666667 0.04166666667 0.04166666667 0.04166666667 0.04166666667 0.04166666667 0.04166666667 0.04166666667 0.04166666667 0.04166666667 0.04166666667 0.04166666667 0.04166666667 0.04166666667 0.04166666667 0.04166666667 0.04166666667 0.04166666667 0.04166666667 0.04166666667 0.04166666667 0.04166666667 0.04166666667 0.04166666667 0.04166666667 0.04166666667 0.04166666667 0.04166666667 0.04166666667 0.04166666667 0.04166666667 0.04166666667 0.04166666667 0.04166666667 0.04166666667 0.04166666667 0.04166666667 0.04166666667 0.04166666667 0.04166666667 0.04166666667 0.04166666667 0.04166666667 0.04166666667 0.04166666667 0.04166666667 0.04166666667 		</TABLE>	</DEFINITION>	<DEFINITION>
		<FOR>chord(3)</FOR>
		<GIVEN>chord(2)</GIVEN>
		<GIVEN>chord(0)</GIVEN>
		<TABLE>0.08332986 0.02083247 0.04333153000000001 0.03729011000000001 0.03395692 0.06628890000000001 0.013207780000000002 0.06628890000000001 0.03395692 0.03729011000000001 0.04333153000000001 0.02083247 0.06295571000000001 0.02924878 0.051539520000000005 0.014416070000000001 0.06399733000000002 0.050622890000000004 0.026290570000000003 0.051706180000000004 0.020499150000000004 0.06878880000000001 0.024915630000000005 0.03508187 0.08332986 0.02083247 0.04333153000000001 0.03729011000000001 0.03395692 0.06628890000000001 0.013207780000000002 0.06628890000000001 0.03395692 0.03729011000000001 0.04333153000000001 0.02083247 0.06295571000000001 0.02924878 0.051539520000000005 0.014416070000000001 0.06399733000000002 0.050622890000000004 0.026290570000000003 0.051706180000000004 0.020499150000000004 0.06878880000000001 0.024915630000000005 0.03508187 0.08332986 0.02083247 0.04333153000000001 0.03729011000000001 0.03395692 0.06628890000000001 0.013207780000000002 0.06628890000000001 0.03395692 0.03729011000000001 0.04333153000000001 0.02083247 0.06295571000000001 0.02924878 0.051539520000000005 0.014416070000000001 0.06399733000000002 0.050622890000000004 0.026290570000000003 0.051706180000000004 0.020499150000000004 0.06878880000000001 0.024915630000000005 0.03508187 0.08332986 0.02083247 0.04333153000000001 0.03729011000000001 0.03395692 0.06628890000000001 0.013207780000000002 0.06628890000000001 0.03395692 0.03729011000000001 0.04333153000000001 0.02083247 0.06295571000000001 0.02924878 0.051539520000000005 0.014416070000000001 0.06399733000000002 0.050622890000000004 0.026290570000000003 0.051706180000000004 0.020499150000000004 0.06878880000000001 0.024915630000000005 0.03508187 0.08332986 0.02083247 0.04333153000000001 0.03729011000000001 0.03395692 0.06628890000000001 0.013207780000000002 0.06628890000000001 0.03395692 0.03729011000000001 0.04333153000000001 0.02083247 0.06295571000000001 0.02924878 0.051539520000000005 0.014416070000000001 0.06399733000000002 0.050622890000000004 0.026290570000000003 0.051706180000000004 0.020499150000000004 0.06878880000000001 0.024915630000000005 0.03508187 0.08332986 0.02083247 0.04333153000000001 0.03729011000000001 0.03395692 0.06628890000000001 0.013207780000000002 0.06628890000000001 0.03395692 0.03729011000000001 0.04333153000000001 0.02083247 0.06295571000000001 0.02924878 0.051539520000000005 0.014416070000000001 0.06399733000000002 0.050622890000000004 0.026290570000000003 0.051706180000000004 0.020499150000000004 0.06878880000000001 0.024915630000000005 0.03508187 0.08332986 0.02083247 0.04333153000000001 0.03729011000000001 0.03395692 0.06628890000000001 0.013207780000000002 0.06628890000000001 0.03395692 0.03729011000000001 0.04333153000000001 0.02083247 0.06295571000000001 0.02924878 0.051539520000000005 0.014416070000000001 0.06399733000000002 0.050622890000000004 0.026290570000000003 0.051706180000000004 0.020499150000000004 0.06878880000000001 0.024915630000000005 0.03508187 0.08332986 0.02083247 0.04333153000000001 0.03729011000000001 0.03395692 0.06628890000000001 0.013207780000000002 0.06628890000000001 0.03395692 0.03729011000000001 0.04333153000000001 0.02083247 0.06295571000000001 0.02924878 0.051539520000000005 0.014416070000000001 0.06399733000000002 0.050622890000000004 0.026290570000000003 0.051706180000000004 0.020499150000000004 0.06878880000000001 0.024915630000000005 0.03508187 0.08332986 0.02083247 0.04333153000000001 0.03729011000000001 0.03395692 0.06628890000000001 0.013207780000000002 0.06628890000000001 0.03395692 0.03729011000000001 0.04333153000000001 0.02083247 0.06295571000000001 0.02924878 0.051539520000000005 0.014416070000000001 0.06399733000000002 0.050622890000000004 0.026290570000000003 0.051706180000000004 0.020499150000000004 0.06878880000000001 0.024915630000000005 0.03508187 0.08332986 0.02083247 0.04333153000000001 0.03729011000000001 0.03395692 0.06628890000000001 0.013207780000000002 0.06628890000000001 0.03395692 0.03729011000000001 0.04333153000000001 0.02083247 0.06295571000000001 0.02924878 0.051539520000000005 0.014416070000000001 0.06399733000000002 0.050622890000000004 0.026290570000000003 0.051706180000000004 0.020499150000000004 0.06878880000000001 0.024915630000000005 0.03508187 0.08332986 0.02083247 0.04333153000000001 0.03729011000000001 0.03395692 0.06628890000000001 0.013207780000000002 0.06628890000000001 0.03395692 0.03729011000000001 0.04333153000000001 0.02083247 0.06295571000000001 0.02924878 0.051539520000000005 0.014416070000000001 0.06399733000000002 0.050622890000000004 0.026290570000000003 0.051706180000000004 0.020499150000000004 0.06878880000000001 0.024915630000000005 0.03508187 0.08332986 0.02083247 0.04333153000000001 0.03729011000000001 0.03395692 0.06628890000000001 0.013207780000000002 0.06628890000000001 0.03395692 0.03729011000000001 0.04333153000000001 0.02083247 0.06295571000000001 0.02924878 0.051539520000000005 0.014416070000000001 0.06399733000000002 0.050622890000000004 0.026290570000000003 0.051706180000000004 0.020499150000000004 0.06878880000000001 0.024915630000000005 0.03508187 0.08332986 0.02083247 0.04333153000000001 0.03729011000000001 0.03395692 0.06628890000000001 0.013207780000000002 0.06628890000000001 0.03395692 0.03729011000000001 0.04333153000000001 0.02083247 0.06295571000000001 0.02924878 0.051539520000000005 0.014416070000000001 0.06399733000000002 0.050622890000000004 0.026290570000000003 0.051706180000000004 0.020499150000000004 0.06878880000000001 0.024915630000000005 0.03508187 0.08332986 0.02083247 0.04333153000000001 0.03729011000000001 0.03395692 0.06628890000000001 0.013207780000000002 0.06628890000000001 0.03395692 0.03729011000000001 0.04333153000000001 0.02083247 0.06295571000000001 0.02924878 0.051539520000000005 0.014416070000000001 0.06399733000000002 0.050622890000000004 0.026290570000000003 0.051706180000000004 0.020499150000000004 0.06878880000000001 0.024915630000000005 0.03508187 0.08332986 0.02083247 0.04333153000000001 0.03729011000000001 0.03395692 0.06628890000000001 0.013207780000000002 0.06628890000000001 0.03395692 0.03729011000000001 0.04333153000000001 0.02083247 0.06295571000000001 0.02924878 0.051539520000000005 0.014416070000000001 0.06399733000000002 0.050622890000000004 0.026290570000000003 0.051706180000000004 0.020499150000000004 0.06878880000000001 0.024915630000000005 0.03508187 0.08332986 0.02083247 0.04333153000000001 0.03729011000000001 0.03395692 0.06628890000000001 0.013207780000000002 0.06628890000000001 0.03395692 0.03729011000000001 0.04333153000000001 0.02083247 0.06295571000000001 0.02924878 0.051539520000000005 0.014416070000000001 0.06399733000000002 0.050622890000000004 0.026290570000000003 0.051706180000000004 0.020499150000000004 0.06878880000000001 0.024915630000000005 0.03508187 0.08332986 0.02083247 0.04333153000000001 0.03729011000000001 0.03395692 0.06628890000000001 0.013207780000000002 0.06628890000000001 0.03395692 0.03729011000000001 0.04333153000000001 0.02083247 0.06295571000000001 0.02924878 0.051539520000000005 0.014416070000000001 0.06399733000000002 0.050622890000000004 0.026290570000000003 0.051706180000000004 0.020499150000000004 0.06878880000000001 0.024915630000000005 0.03508187 0.08332986 0.02083247 0.04333153000000001 0.03729011000000001 0.03395692 0.06628890000000001 0.013207780000000002 0.06628890000000001 0.03395692 0.03729011000000001 0.04333153000000001 0.02083247 0.06295571000000001 0.02924878 0.051539520000000005 0.014416070000000001 0.06399733000000002 0.050622890000000004 0.026290570000000003 0.051706180000000004 0.020499150000000004 0.06878880000000001 0.024915630000000005 0.03508187 0.08332986 0.02083247 0.04333153000000001 0.03729011000000001 0.03395692 0.06628890000000001 0.013207780000000002 0.06628890000000001 0.03395692 0.03729011000000001 0.04333153000000001 0.02083247 0.06295571000000001 0.02924878 0.051539520000000005 0.014416070000000001 0.06399733000000002 0.050622890000000004 0.026290570000000003 0.051706180000000004 0.020499150000000004 0.06878880000000001 0.024915630000000005 0.03508187 0.08332986 0.02083247 0.04333153000000001 0.03729011000000001 0.03395692 0.06628890000000001 0.013207780000000002 0.06628890000000001 0.03395692 0.03729011000000001 0.04333153000000001 0.02083247 0.06295571000000001 0.02924878 0.051539520000000005 0.014416070000000001 0.06399733000000002 0.050622890000000004 0.026290570000000003 0.051706180000000004 0.020499150000000004 0.06878880000000001 0.024915630000000005 0.03508187 0.08332986 0.02083247 0.04333153000000001 0.03729011000000001 0.03395692 0.06628890000000001 0.013207780000000002 0.06628890000000001 0.03395692 0.03729011000000001 0.04333153000000001 0.02083247 0.06295571000000001 0.02924878 0.051539520000000005 0.014416070000000001 0.06399733000000002 0.050622890000000004 0.026290570000000003 0.051706180000000004 0.020499150000000004 0.06878880000000001 0.024915630000000005 0.03508187 0.08332986 0.02083247 0.04333153000000001 0.03729011000000001 0.03395692 0.06628890000000001 0.013207780000000002 0.06628890000000001 0.03395692 0.03729011000000001 0.04333153000000001 0.02083247 0.06295571000000001 0.02924878 0.051539520000000005 0.014416070000000001 0.06399733000000002 0.050622890000000004 0.026290570000000003 0.051706180000000004 0.020499150000000004 0.06878880000000001 0.024915630000000005 0.03508187 0.08332986 0.02083247 0.04333153000000001 0.03729011000000001 0.03395692 0.06628890000000001 0.013207780000000002 0.06628890000000001 0.03395692 0.03729011000000001 0.04333153000000001 0.02083247 0.06295571000000001 0.02924878 0.051539520000000005 0.014416070000000001 0.06399733000000002 0.050622890000000004 0.026290570000000003 0.051706180000000004 0.020499150000000004 0.06878880000000001 0.024915630000000005 0.03508187 0.08332986 0.02083247 0.04333153000000001 0.03729011000000001 0.03395692 0.06628890000000001 0.013207780000000002 0.06628890000000001 0.03395692 0.03729011000000001 0.04333153000000001 0.02083247 0.06295571000000001 0.02924878 0.051539520000000005 0.014416070000000001 0.06399733000000002 0.050622890000000004 0.026290570000000003 0.051706180000000004 0.020499150000000004 0.06878880000000001 0.024915630000000005 0.03508187 0.02083247 0.08332986 0.02083247 0.04333153000000001 0.03729011000000001 0.03395692 0.06628890000000001 0.013207780000000002 0.06628890000000001 0.03395692 0.03729011000000001 0.04333153000000001 0.03508187 0.06295571000000001 0.02924878 0.051539520000000005 0.014416070000000001 0.06399733000000002 0.050622890000000004 0.026290570000000003 0.051706180000000004 0.020499150000000004 0.06878880000000001 0.024915630000000005 0.02083247 0.08332986 0.02083247 0.04333153000000001 0.03729011000000001 0.03395692 0.06628890000000001 0.013207780000000002 0.06628890000000001 0.03395692 0.03729011000000001 0.04333153000000001 0.03508187 0.06295571000000001 0.02924878 0.051539520000000005 0.014416070000000001 0.06399733000000002 0.050622890000000004 0.026290570000000003 0.051706180000000004 0.020499150000000004 0.06878880000000001 0.024915630000000005 0.02083247 0.08332986 0.02083247 0.04333153000000001 0.03729011000000001 0.03395692 0.06628890000000001 0.013207780000000002 0.06628890000000001 0.03395692 0.03729011000000001 0.04333153000000001 0.03508187 0.06295571000000001 0.02924878 0.051539520000000005 0.014416070000000001 0.06399733000000002 0.050622890000000004 0.026290570000000003 0.051706180000000004 0.020499150000000004 0.06878880000000001 0.024915630000000005 0.02083247 0.08332986 0.02083247 0.04333153000000001 0.03729011000000001 0.03395692 0.06628890000000001 0.013207780000000002 0.06628890000000001 0.03395692 0.03729011000000001 0.04333153000000001 0.03508187 0.06295571000000001 0.02924878 0.051539520000000005 0.014416070000000001 0.06399733000000002 0.050622890000000004 0.026290570000000003 0.051706180000000004 0.020499150000000004 0.06878880000000001 0.024915630000000005 0.02083247 0.08332986 0.02083247 0.04333153000000001 0.03729011000000001 0.03395692 0.06628890000000001 0.013207780000000002 0.06628890000000001 0.03395692 0.03729011000000001 0.04333153000000001 0.03508187 0.06295571000000001 0.02924878 0.051539520000000005 0.014416070000000001 0.06399733000000002 0.050622890000000004 0.026290570000000003 0.051706180000000004 0.020499150000000004 0.06878880000000001 0.024915630000000005 0.02083247 0.08332986 0.02083247 0.04333153000000001 0.03729011000000001 0.03395692 0.06628890000000001 0.013207780000000002 0.06628890000000001 0.03395692 0.03729011000000001 0.04333153000000001 0.03508187 0.06295571000000001 0.02924878 0.051539520000000005 0.014416070000000001 0.06399733000000002 0.050622890000000004 0.026290570000000003 0.051706180000000004 0.020499150000000004 0.06878880000000001 0.024915630000000005 0.02083247 0.08332986 0.02083247 0.04333153000000001 0.03729011000000001 0.03395692 0.06628890000000001 0.013207780000000002 0.06628890000000001 0.03395692 0.03729011000000001 0.04333153000000001 0.03508187 0.06295571000000001 0.02924878 0.051539520000000005 0.014416070000000001 0.06399733000000002 0.050622890000000004 0.026290570000000003 0.051706180000000004 0.020499150000000004 0.06878880000000001 0.024915630000000005 0.02083247 0.08332986 0.02083247 0.04333153000000001 0.03729011000000001 0.03395692 0.06628890000000001 0.013207780000000002 0.06628890000000001 0.03395692 0.03729011000000001 0.04333153000000001 0.03508187 0.06295571000000001 0.02924878 0.051539520000000005 0.014416070000000001 0.06399733000000002 0.050622890000000004 0.026290570000000003 0.051706180000000004 0.020499150000000004 0.06878880000000001 0.024915630000000005 0.02083247 0.08332986 0.02083247 0.04333153000000001 0.03729011000000001 0.03395692 0.06628890000000001 0.013207780000000002 0.06628890000000001 0.03395692 0.03729011000000001 0.04333153000000001 0.03508187 0.06295571000000001 0.02924878 0.051539520000000005 0.014416070000000001 0.06399733000000002 0.050622890000000004 0.026290570000000003 0.051706180000000004 0.020499150000000004 0.06878880000000001 0.024915630000000005 0.02083247 0.08332986 0.02083247 0.04333153000000001 0.03729011000000001 0.03395692 0.06628890000000001 0.013207780000000002 0.06628890000000001 0.03395692 0.03729011000000001 0.04333153000000001 0.03508187 0.06295571000000001 0.02924878 0.051539520000000005 0.014416070000000001 0.06399733000000002 0.050622890000000004 0.026290570000000003 0.051706180000000004 0.020499150000000004 0.06878880000000001 0.024915630000000005 0.02083247 0.08332986 0.02083247 0.04333153000000001 0.03729011000000001 0.03395692 0.06628890000000001 0.013207780000000002 0.06628890000000001 0.03395692 0.03729011000000001 0.04333153000000001 0.03508187 0.06295571000000001 0.02924878 0.051539520000000005 0.014416070000000001 0.06399733000000002 0.050622890000000004 0.026290570000000003 0.051706180000000004 0.020499150000000004 0.06878880000000001 0.024915630000000005 0.02083247 0.08332986 0.02083247 0.04333153000000001 0.03729011000000001 0.03395692 0.06628890000000001 0.013207780000000002 0.06628890000000001 0.03395692 0.03729011000000001 0.04333153000000001 0.03508187 0.06295571000000001 0.02924878 0.051539520000000005 0.014416070000000001 0.06399733000000002 0.050622890000000004 0.026290570000000003 0.051706180000000004 0.020499150000000004 0.06878880000000001 0.024915630000000005 0.02083247 0.08332986 0.02083247 0.04333153000000001 0.03729011000000001 0.03395692 0.06628890000000001 0.013207780000000002 0.06628890000000001 0.03395692 0.03729011000000001 0.04333153000000001 0.03508187 0.06295571000000001 0.02924878 0.051539520000000005 0.014416070000000001 0.06399733000000002 0.050622890000000004 0.026290570000000003 0.051706180000000004 0.020499150000000004 0.06878880000000001 0.024915630000000005 0.02083247 0.08332986 0.02083247 0.04333153000000001 0.03729011000000001 0.03395692 0.06628890000000001 0.013207780000000002 0.06628890000000001 0.03395692 0.03729011000000001 0.04333153000000001 0.03508187 0.06295571000000001 0.02924878 0.051539520000000005 0.014416070000000001 0.06399733000000002 0.050622890000000004 0.026290570000000003 0.051706180000000004 0.020499150000000004 0.06878880000000001 0.024915630000000005 0.02083247 0.08332986 0.02083247 0.04333153000000001 0.03729011000000001 0.03395692 0.06628890000000001 0.013207780000000002 0.06628890000000001 0.03395692 0.03729011000000001 0.04333153000000001 0.03508187 0.06295571000000001 0.02924878 0.051539520000000005 0.014416070000000001 0.06399733000000002 0.050622890000000004 0.026290570000000003 0.051706180000000004 0.020499150000000004 0.06878880000000001 0.024915630000000005 0.02083247 0.08332986 0.02083247 0.04333153000000001 0.03729011000000001 0.03395692 0.06628890000000001 0.013207780000000002 0.06628890000000001 0.03395692 0.03729011000000001 0.04333153000000001 0.03508187 0.06295571000000001 0.02924878 0.051539520000000005 0.014416070000000001 0.06399733000000002 0.050622890000000004 0.026290570000000003 0.051706180000000004 0.020499150000000004 0.06878880000000001 0.024915630000000005 0.02083247 0.08332986 0.02083247 0.04333153000000001 0.03729011000000001 0.03395692 0.06628890000000001 0.013207780000000002 0.06628890000000001 0.03395692 0.03729011000000001 0.04333153000000001 0.03508187 0.06295571000000001 0.02924878 0.051539520000000005 0.014416070000000001 0.06399733000000002 0.050622890000000004 0.026290570000000003 0.051706180000000004 0.020499150000000004 0.06878880000000001 0.024915630000000005 0.02083247 0.08332986 0.02083247 0.04333153000000001 0.03729011000000001 0.03395692 0.06628890000000001 0.013207780000000002 0.06628890000000001 0.03395692 0.03729011000000001 0.04333153000000001 0.03508187 0.06295571000000001 0.02924878 0.051539520000000005 0.014416070000000001 0.06399733000000002 0.050622890000000004 0.026290570000000003 0.051706180000000004 0.020499150000000004 0.06878880000000001 0.024915630000000005 0.02083247 0.08332986 0.02083247 0.04333153000000001 0.03729011000000001 0.03395692 0.06628890000000001 0.013207780000000002 0.06628890000000001 0.03395692 0.03729011000000001 0.04333153000000001 0.03508187 0.06295571000000001 0.02924878 0.051539520000000005 0.014416070000000001 0.06399733000000002 0.050622890000000004 0.026290570000000003 0.051706180000000004 0.020499150000000004 0.06878880000000001 0.024915630000000005 0.02083247 0.08332986 0.02083247 0.04333153000000001 0.03729011000000001 0.03395692 0.06628890000000001 0.013207780000000002 0.06628890000000001 0.03395692 0.03729011000000001 0.04333153000000001 0.03508187 0.06295571000000001 0.02924878 0.051539520000000005 0.014416070000000001 0.06399733000000002 0.050622890000000004 0.026290570000000003 0.051706180000000004 0.020499150000000004 0.06878880000000001 0.024915630000000005 0.02083247 0.08332986 0.02083247 0.04333153000000001 0.03729011000000001 0.03395692 0.06628890000000001 0.013207780000000002 0.06628890000000001 0.03395692 0.03729011000000001 0.04333153000000001 0.03508187 0.06295571000000001 0.02924878 0.051539520000000005 0.014416070000000001 0.06399733000000002 0.050622890000000004 0.026290570000000003 0.051706180000000004 0.020499150000000004 0.06878880000000001 0.024915630000000005 0.02083247 0.08332986 0.02083247 0.04333153000000001 0.03729011000000001 0.03395692 0.06628890000000001 0.013207780000000002 0.06628890000000001 0.03395692 0.03729011000000001 0.04333153000000001 0.03508187 0.06295571000000001 0.02924878 0.051539520000000005 0.014416070000000001 0.06399733000000002 0.050622890000000004 0.026290570000000003 0.051706180000000004 0.020499150000000004 0.06878880000000001 0.024915630000000005 0.02083247 0.08332986 0.02083247 0.04333153000000001 0.03729011000000001 0.03395692 0.06628890000000001 0.013207780000000002 0.06628890000000001 0.03395692 0.03729011000000001 0.04333153000000001 0.03508187 0.06295571000000001 0.02924878 0.051539520000000005 0.014416070000000001 0.06399733000000002 0.050622890000000004 0.026290570000000003 0.051706180000000004 0.020499150000000004 0.06878880000000001 0.024915630000000005 0.02083247 0.08332986 0.02083247 0.04333153000000001 0.03729011000000001 0.03395692 0.06628890000000001 0.013207780000000002 0.06628890000000001 0.03395692 0.03729011000000001 0.04333153000000001 0.03508187 0.06295571000000001 0.02924878 0.051539520000000005 0.014416070000000001 0.06399733000000002 0.050622890000000004 0.026290570000000003 0.051706180000000004 0.020499150000000004 0.06878880000000001 0.024915630000000005 0.04333153000000001 0.02083247 0.08332986 0.02083247 0.04333153000000001 0.03729011000000001 0.03395692 0.06628890000000001 0.013207780000000002 0.06628890000000001 0.03395692 0.03729011000000001 0.024915630000000005 0.03508187 0.06295571000000001 0.02924878 0.051539520000000005 0.014416070000000001 0.06399733000000002 0.050622890000000004 0.026290570000000003 0.051706180000000004 0.020499150000000004 0.06878880000000001 0.04333153000000001 0.02083247 0.08332986 0.02083247 0.04333153000000001 0.03729011000000001 0.03395692 0.06628890000000001 0.013207780000000002 0.06628890000000001 0.03395692 0.03729011000000001 0.024915630000000005 0.03508187 0.06295571000000001 0.02924878 0.051539520000000005 0.014416070000000001 0.06399733000000002 0.050622890000000004 0.026290570000000003 0.051706180000000004 0.020499150000000004 0.06878880000000001 0.04333153000000001 0.02083247 0.08332986 0.02083247 0.04333153000000001 0.03729011000000001 0.03395692 0.06628890000000001 0.013207780000000002 0.06628890000000001 0.03395692 0.03729011000000001 0.024915630000000005 0.03508187 0.06295571000000001 0.02924878 0.051539520000000005 0.014416070000000001 0.06399733000000002 0.050622890000000004 0.026290570000000003 0.051706180000000004 0.020499150000000004 0.06878880000000001 0.04333153000000001 0.02083247 0.08332986 0.02083247 0.04333153000000001 0.03729011000000001 0.03395692 0.06628890000000001 0.013207780000000002 0.06628890000000001 0.03395692 0.03729011000000001 0.024915630000000005 0.03508187 0.06295571000000001 0.02924878 0.051539520000000005 0.014416070000000001 0.06399733000000002 0.050622890000000004 0.026290570000000003 0.051706180000000004 0.020499150000000004 0.06878880000000001 0.04333153000000001 0.02083247 0.08332986 0.02083247 0.04333153000000001 0.03729011000000001 0.03395692 0.06628890000000001 0.013207780000000002 0.06628890000000001 0.03395692 0.03729011000000001 0.024915630000000005 0.03508187 0.06295571000000001 0.02924878 0.051539520000000005 0.014416070000000001 0.06399733000000002 0.050622890000000004 0.026290570000000003 0.051706180000000004 0.020499150000000004 0.06878880000000001 0.04333153000000001 0.02083247 0.08332986 0.02083247 0.04333153000000001 0.03729011000000001 0.03395692 0.06628890000000001 0.013207780000000002 0.06628890000000001 0.03395692 0.03729011000000001 0.024915630000000005 0.03508187 0.06295571000000001 0.02924878 0.051539520000000005 0.014416070000000001 0.06399733000000002 0.050622890000000004 0.026290570000000003 0.051706180000000004 0.020499150000000004 0.06878880000000001 0.04333153000000001 0.02083247 0.08332986 0.02083247 0.04333153000000001 0.03729011000000001 0.03395692 0.06628890000000001 0.013207780000000002 0.06628890000000001 0.03395692 0.03729011000000001 0.024915630000000005 0.03508187 0.06295571000000001 0.02924878 0.051539520000000005 0.014416070000000001 0.06399733000000002 0.050622890000000004 0.026290570000000003 0.051706180000000004 0.020499150000000004 0.06878880000000001 0.04333153000000001 0.02083247 0.08332986 0.02083247 0.04333153000000001 0.03729011000000001 0.03395692 0.06628890000000001 0.013207780000000002 0.06628890000000001 0.03395692 0.03729011000000001 0.024915630000000005 0.03508187 0.06295571000000001 0.02924878 0.051539520000000005 0.014416070000000001 0.06399733000000002 0.050622890000000004 0.026290570000000003 0.051706180000000004 0.020499150000000004 0.06878880000000001 0.04333153000000001 0.02083247 0.08332986 0.02083247 0.04333153000000001 0.03729011000000001 0.03395692 0.06628890000000001 0.013207780000000002 0.06628890000000001 0.03395692 0.03729011000000001 0.024915630000000005 0.03508187 0.06295571000000001 0.02924878 0.051539520000000005 0.014416070000000001 0.06399733000000002 0.050622890000000004 0.026290570000000003 0.051706180000000004 0.020499150000000004 0.06878880000000001 0.04333153000000001 0.02083247 0.08332986 0.02083247 0.04333153000000001 0.03729011000000001 0.03395692 0.06628890000000001 0.013207780000000002 0.06628890000000001 0.03395692 0.03729011000000001 0.024915630000000005 0.03508187 0.06295571000000001 0.02924878 0.051539520000000005 0.014416070000000001 0.06399733000000002 0.050622890000000004 0.026290570000000003 0.051706180000000004 0.020499150000000004 0.06878880000000001 0.04333153000000001 0.02083247 0.08332986 0.02083247 0.04333153000000001 0.03729011000000001 0.03395692 0.06628890000000001 0.013207780000000002 0.06628890000000001 0.03395692 0.03729011000000001 0.024915630000000005 0.03508187 0.06295571000000001 0.02924878 0.051539520000000005 0.014416070000000001 0.06399733000000002 0.050622890000000004 0.026290570000000003 0.051706180000000004 0.020499150000000004 0.06878880000000001 0.04333153000000001 0.02083247 0.08332986 0.02083247 0.04333153000000001 0.03729011000000001 0.03395692 0.06628890000000001 0.013207780000000002 0.06628890000000001 0.03395692 0.03729011000000001 0.024915630000000005 0.03508187 0.06295571000000001 0.02924878 0.051539520000000005 0.014416070000000001 0.06399733000000002 0.050622890000000004 0.026290570000000003 0.051706180000000004 0.020499150000000004 0.06878880000000001 0.04333153000000001 0.02083247 0.08332986 0.02083247 0.04333153000000001 0.03729011000000001 0.03395692 0.06628890000000001 0.013207780000000002 0.06628890000000001 0.03395692 0.03729011000000001 0.024915630000000005 0.03508187 0.06295571000000001 0.02924878 0.051539520000000005 0.014416070000000001 0.06399733000000002 0.050622890000000004 0.026290570000000003 0.051706180000000004 0.020499150000000004 0.06878880000000001 0.04333153000000001 0.02083247 0.08332986 0.02083247 0.04333153000000001 0.03729011000000001 0.03395692 0.06628890000000001 0.013207780000000002 0.06628890000000001 0.03395692 0.03729011000000001 0.024915630000000005 0.03508187 0.06295571000000001 0.02924878 0.051539520000000005 0.014416070000000001 0.06399733000000002 0.050622890000000004 0.026290570000000003 0.051706180000000004 0.020499150000000004 0.06878880000000001 0.04333153000000001 0.02083247 0.08332986 0.02083247 0.04333153000000001 0.03729011000000001 0.03395692 0.06628890000000001 0.013207780000000002 0.06628890000000001 0.03395692 0.03729011000000001 0.024915630000000005 0.03508187 0.06295571000000001 0.02924878 0.051539520000000005 0.014416070000000001 0.06399733000000002 0.050622890000000004 0.026290570000000003 0.051706180000000004 0.020499150000000004 0.06878880000000001 0.04333153000000001 0.02083247 0.08332986 0.02083247 0.04333153000000001 0.03729011000000001 0.03395692 0.06628890000000001 0.013207780000000002 0.06628890000000001 0.03395692 0.03729011000000001 0.024915630000000005 0.03508187 0.06295571000000001 0.02924878 0.051539520000000005 0.014416070000000001 0.06399733000000002 0.050622890000000004 0.026290570000000003 0.051706180000000004 0.020499150000000004 0.06878880000000001 0.04333153000000001 0.02083247 0.08332986 0.02083247 0.04333153000000001 0.03729011000000001 0.03395692 0.06628890000000001 0.013207780000000002 0.06628890000000001 0.03395692 0.03729011000000001 0.024915630000000005 0.03508187 0.06295571000000001 0.02924878 0.051539520000000005 0.014416070000000001 0.06399733000000002 0.050622890000000004 0.026290570000000003 0.051706180000000004 0.020499150000000004 0.06878880000000001 0.04333153000000001 0.02083247 0.08332986 0.02083247 0.04333153000000001 0.03729011000000001 0.03395692 0.06628890000000001 0.013207780000000002 0.06628890000000001 0.03395692 0.03729011000000001 0.024915630000000005 0.03508187 0.06295571000000001 0.02924878 0.051539520000000005 0.014416070000000001 0.06399733000000002 0.050622890000000004 0.026290570000000003 0.051706180000000004 0.020499150000000004 0.06878880000000001 0.04333153000000001 0.02083247 0.08332986 0.02083247 0.04333153000000001 0.03729011000000001 0.03395692 0.06628890000000001 0.013207780000000002 0.06628890000000001 0.03395692 0.03729011000000001 0.024915630000000005 0.03508187 0.06295571000000001 0.02924878 0.051539520000000005 0.014416070000000001 0.06399733000000002 0.050622890000000004 0.026290570000000003 0.051706180000000004 0.020499150000000004 0.06878880000000001 0.04333153000000001 0.02083247 0.08332986 0.02083247 0.04333153000000001 0.03729011000000001 0.03395692 0.06628890000000001 0.013207780000000002 0.06628890000000001 0.03395692 0.03729011000000001 0.024915630000000005 0.03508187 0.06295571000000001 0.02924878 0.051539520000000005 0.014416070000000001 0.06399733000000002 0.050622890000000004 0.026290570000000003 0.051706180000000004 0.020499150000000004 0.06878880000000001 0.04333153000000001 0.02083247 0.08332986 0.02083247 0.04333153000000001 0.03729011000000001 0.03395692 0.06628890000000001 0.013207780000000002 0.06628890000000001 0.03395692 0.03729011000000001 0.024915630000000005 0.03508187 0.06295571000000001 0.02924878 0.051539520000000005 0.014416070000000001 0.06399733000000002 0.050622890000000004 0.026290570000000003 0.051706180000000004 0.020499150000000004 0.06878880000000001 0.04333153000000001 0.02083247 0.08332986 0.02083247 0.04333153000000001 0.03729011000000001 0.03395692 0.06628890000000001 0.013207780000000002 0.06628890000000001 0.03395692 0.03729011000000001 0.024915630000000005 0.03508187 0.06295571000000001 0.02924878 0.051539520000000005 0.014416070000000001 0.06399733000000002 0.050622890000000004 0.026290570000000003 0.051706180000000004 0.020499150000000004 0.06878880000000001 0.04333153000000001 0.02083247 0.08332986 0.02083247 0.04333153000000001 0.03729011000000001 0.03395692 0.06628890000000001 0.013207780000000002 0.06628890000000001 0.03395692 0.03729011000000001 0.024915630000000005 0.03508187 0.06295571000000001 0.02924878 0.051539520000000005 0.014416070000000001 0.06399733000000002 0.050622890000000004 0.026290570000000003 0.051706180000000004 0.020499150000000004 0.06878880000000001 0.04333153000000001 0.02083247 0.08332986 0.02083247 0.04333153000000001 0.03729011000000001 0.03395692 0.06628890000000001 0.013207780000000002 0.06628890000000001 0.03395692 0.03729011000000001 0.024915630000000005 0.03508187 0.06295571000000001 0.02924878 0.051539520000000005 0.014416070000000001 0.06399733000000002 0.050622890000000004 0.026290570000000003 0.051706180000000004 0.020499150000000004 0.06878880000000001 0.03729011000000001 0.04333153000000001 0.020832470000000002 0.08332986000000002 0.020832470000000002 0.04333153000000001 0.03729011000000001 0.03395692000000001 0.06628890000000001 0.013207780000000004 0.06628890000000001 0.03395692000000001 0.06878880000000001 0.024915630000000008 0.03508187000000001 0.06295571000000001 0.029248780000000002 0.05153952000000001 0.014416070000000003 0.06399733000000002 0.05062289000000001 0.026290570000000003 0.05170618000000001 0.020499150000000008 0.03729011000000001 0.04333153000000001 0.020832470000000002 0.08332986000000002 0.020832470000000002 0.04333153000000001 0.03729011000000001 0.03395692000000001 0.06628890000000001 0.013207780000000004 0.06628890000000001 0.03395692000000001 0.06878880000000001 0.024915630000000008 0.03508187000000001 0.06295571000000001 0.029248780000000002 0.05153952000000001 0.014416070000000003 0.06399733000000002 0.05062289000000001 0.026290570000000003 0.05170618000000001 0.020499150000000008 0.03729011000000001 0.04333153000000001 0.020832470000000002 0.08332986000000002 0.020832470000000002 0.04333153000000001 0.03729011000000001 0.03395692000000001 0.06628890000000001 0.013207780000000004 0.06628890000000001 0.03395692000000001 0.06878880000000001 0.024915630000000008 0.03508187000000001 0.06295571000000001 0.029248780000000002 0.05153952000000001 0.014416070000000003 0.06399733000000002 0.05062289000000001 0.026290570000000003 0.05170618000000001 0.020499150000000008 0.03729011000000001 0.04333153000000001 0.020832470000000002 0.08332986000000002 0.020832470000000002 0.04333153000000001 0.03729011000000001 0.03395692000000001 0.06628890000000001 0.013207780000000004 0.06628890000000001 0.03395692000000001 0.06878880000000001 0.024915630000000008 0.03508187000000001 0.06295571000000001 0.029248780000000002 0.05153952000000001 0.014416070000000003 0.06399733000000002 0.05062289000000001 0.026290570000000003 0.05170618000000001 0.020499150000000008 0.03729011000000001 0.04333153000000001 0.020832470000000002 0.08332986000000002 0.020832470000000002 0.04333153000000001 0.03729011000000001 0.03395692000000001 0.06628890000000001 0.013207780000000004 0.06628890000000001 0.03395692000000001 0.06878880000000001 0.024915630000000008 0.03508187000000001 0.06295571000000001 0.029248780000000002 0.05153952000000001 0.014416070000000003 0.06399733000000002 0.05062289000000001 0.026290570000000003 0.05170618000000001 0.020499150000000008 0.03729011000000001 0.04333153000000001 0.020832470000000002 0.08332986000000002 0.020832470000000002 0.04333153000000001 0.03729011000000001 0.03395692000000001 0.06628890000000001 0.013207780000000004 0.06628890000000001 0.03395692000000001 0.06878880000000001 0.024915630000000008 0.03508187000000001 0.06295571000000001 0.029248780000000002 0.05153952000000001 0.014416070000000003 0.06399733000000002 0.05062289000000001 0.026290570000000003 0.05170618000000001 0.020499150000000008 0.03729011000000001 0.04333153000000001 0.020832470000000002 0.08332986000000002 0.020832470000000002 0.04333153000000001 0.03729011000000001 0.03395692000000001 0.06628890000000001 0.013207780000000004 0.06628890000000001 0.03395692000000001 0.06878880000000001 0.024915630000000008 0.03508187000000001 0.06295571000000001 0.029248780000000002 0.05153952000000001 0.014416070000000003 0.06399733000000002 0.05062289000000001 0.026290570000000003 0.05170618000000001 0.020499150000000008 0.03729011000000001 0.04333153000000001 0.020832470000000002 0.08332986000000002 0.020832470000000002 0.04333153000000001 0.03729011000000001 0.03395692000000001 0.06628890000000001 0.013207780000000004 0.06628890000000001 0.03395692000000001 0.06878880000000001 0.024915630000000008 0.03508187000000001 0.06295571000000001 0.029248780000000002 0.05153952000000001 0.014416070000000003 0.06399733000000002 0.05062289000000001 0.026290570000000003 0.05170618000000001 0.020499150000000008 0.03729011000000001 0.04333153000000001 0.020832470000000002 0.08332986000000002 0.020832470000000002 0.04333153000000001 0.03729011000000001 0.03395692000000001 0.06628890000000001 0.013207780000000004 0.06628890000000001 0.03395692000000001 0.06878880000000001 0.024915630000000008 0.03508187000000001 0.06295571000000001 0.029248780000000002 0.05153952000000001 0.014416070000000003 0.06399733000000002 0.05062289000000001 0.026290570000000003 0.05170618000000001 0.020499150000000008 0.03729011000000001 0.04333153000000001 0.020832470000000002 0.08332986000000002 0.020832470000000002 0.04333153000000001 0.03729011000000001 0.03395692000000001 0.06628890000000001 0.013207780000000004 0.06628890000000001 0.03395692000000001 0.06878880000000001 0.024915630000000008 0.03508187000000001 0.06295571000000001 0.029248780000000002 0.05153952000000001 0.014416070000000003 0.06399733000000002 0.05062289000000001 0.026290570000000003 0.05170618000000001 0.020499150000000008 0.03729011000000001 0.04333153000000001 0.020832470000000002 0.08332986000000002 0.020832470000000002 0.04333153000000001 0.03729011000000001 0.03395692000000001 0.06628890000000001 0.013207780000000004 0.06628890000000001 0.03395692000000001 0.06878880000000001 0.024915630000000008 0.03508187000000001 0.06295571000000001 0.029248780000000002 0.05153952000000001 0.014416070000000003 0.06399733000000002 0.05062289000000001 0.026290570000000003 0.05170618000000001 0.020499150000000008 0.03729011000000001 0.04333153000000001 0.020832470000000002 0.08332986000000002 0.020832470000000002 0.04333153000000001 0.03729011000000001 0.03395692000000001 0.06628890000000001 0.013207780000000004 0.06628890000000001 0.03395692000000001 0.06878880000000001 0.024915630000000008 0.03508187000000001 0.06295571000000001 0.029248780000000002 0.05153952000000001 0.014416070000000003 0.06399733000000002 0.05062289000000001 0.026290570000000003 0.05170618000000001 0.020499150000000008 0.03729011000000001 0.04333153000000001 0.020832470000000002 0.08332986000000002 0.020832470000000002 0.04333153000000001 0.03729011000000001 0.03395692000000001 0.06628890000000001 0.013207780000000004 0.06628890000000001 0.03395692000000001 0.06878880000000001 0.024915630000000008 0.03508187000000001 0.06295571000000001 0.029248780000000002 0.05153952000000001 0.014416070000000003 0.06399733000000002 0.05062289000000001 0.026290570000000003 0.05170618000000001 0.020499150000000008 0.03729011000000001 0.04333153000000001 0.020832470000000002 0.08332986000000002 0.020832470000000002 0.04333153000000001 0.03729011000000001 0.03395692000000001 0.06628890000000001 0.013207780000000004 0.06628890000000001 0.03395692000000001 0.06878880000000001 0.024915630000000008 0.03508187000000001 0.06295571000000001 0.029248780000000002 0.05153952000000001 0.014416070000000003 0.06399733000000002 0.05062289000000001 0.026290570000000003 0.05170618000000001 0.020499150000000008 0.03729011000000001 0.04333153000000001 0.020832470000000002 0.08332986000000002 0.020832470000000002 0.04333153000000001 0.03729011000000001 0.03395692000000001 0.06628890000000001 0.013207780000000004 0.06628890000000001 0.03395692000000001 0.06878880000000001 0.024915630000000008 0.03508187000000001 0.06295571000000001 0.029248780000000002 0.05153952000000001 0.014416070000000003 0.06399733000000002 0.05062289000000001 0.026290570000000003 0.05170618000000001 0.020499150000000008 0.03729011000000001 0.04333153000000001 0.020832470000000002 0.08332986000000002 0.020832470000000002 0.04333153000000001 0.03729011000000001 0.03395692000000001 0.06628890000000001 0.013207780000000004 0.06628890000000001 0.03395692000000001 0.06878880000000001 0.024915630000000008 0.03508187000000001 0.06295571000000001 0.029248780000000002 0.05153952000000001 0.014416070000000003 0.06399733000000002 0.05062289000000001 0.026290570000000003 0.05170618000000001 0.020499150000000008 0.03729011000000001 0.04333153000000001 0.020832470000000002 0.08332986000000002 0.020832470000000002 0.04333153000000001 0.03729011000000001 0.03395692000000001 0.06628890000000001 0.013207780000000004 0.06628890000000001 0.03395692000000001 0.06878880000000001 0.024915630000000008 0.03508187000000001 0.06295571000000001 0.029248780000000002 0.05153952000000001 0.014416070000000003 0.06399733000000002 0.05062289000000001 0.026290570000000003 0.05170618000000001 0.020499150000000008 0.03729011000000001 0.04333153000000001 0.020832470000000002 0.08332986000000002 0.020832470000000002 0.04333153000000001 0.03729011000000001 0.03395692000000001 0.06628890000000001 0.013207780000000004 0.06628890000000001 0.03395692000000001 0.06878880000000001 0.024915630000000008 0.03508187000000001 0.06295571000000001 0.029248780000000002 0.05153952000000001 0.014416070000000003 0.06399733000000002 0.05062289000000001 0.026290570000000003 0.05170618000000001 0.020499150000000008 0.03729011000000001 0.04333153000000001 0.020832470000000002 0.08332986000000002 0.020832470000000002 0.04333153000000001 0.03729011000000001 0.03395692000000001 0.06628890000000001 0.013207780000000004 0.06628890000000001 0.03395692000000001 0.06878880000000001 0.024915630000000008 0.03508187000000001 0.06295571000000001 0.029248780000000002 0.05153952000000001 0.014416070000000003 0.06399733000000002 0.05062289000000001 0.026290570000000003 0.05170618000000001 0.020499150000000008 0.03729011000000001 0.04333153000000001 0.020832470000000002 0.08332986000000002 0.020832470000000002 0.04333153000000001 0.03729011000000001 0.03395692000000001 0.06628890000000001 0.013207780000000004 0.06628890000000001 0.03395692000000001 0.06878880000000001 0.024915630000000008 0.03508187000000001 0.06295571000000001 0.029248780000000002 0.05153952000000001 0.014416070000000003 0.06399733000000002 0.05062289000000001 0.026290570000000003 0.05170618000000001 0.020499150000000008 0.03729011000000001 0.04333153000000001 0.020832470000000002 0.08332986000000002 0.020832470000000002 0.04333153000000001 0.03729011000000001 0.03395692000000001 0.06628890000000001 0.013207780000000004 0.06628890000000001 0.03395692000000001 0.06878880000000001 0.024915630000000008 0.03508187000000001 0.06295571000000001 0.029248780000000002 0.05153952000000001 0.014416070000000003 0.06399733000000002 0.05062289000000001 0.026290570000000003 0.05170618000000001 0.020499150000000008 0.03729011000000001 0.04333153000000001 0.020832470000000002 0.08332986000000002 0.020832470000000002 0.04333153000000001 0.03729011000000001 0.03395692000000001 0.06628890000000001 0.013207780000000004 0.06628890000000001 0.03395692000000001 0.06878880000000001 0.024915630000000008 0.03508187000000001 0.06295571000000001 0.029248780000000002 0.05153952000000001 0.014416070000000003 0.06399733000000002 0.05062289000000001 0.026290570000000003 0.05170618000000001 0.020499150000000008 0.03729011000000001 0.04333153000000001 0.020832470000000002 0.08332986000000002 0.020832470000000002 0.04333153000000001 0.03729011000000001 0.03395692000000001 0.06628890000000001 0.013207780000000004 0.06628890000000001 0.03395692000000001 0.06878880000000001 0.024915630000000008 0.03508187000000001 0.06295571000000001 0.029248780000000002 0.05153952000000001 0.014416070000000003 0.06399733000000002 0.05062289000000001 0.026290570000000003 0.05170618000000001 0.020499150000000008 0.03729011000000001 0.04333153000000001 0.020832470000000002 0.08332986000000002 0.020832470000000002 0.04333153000000001 0.03729011000000001 0.03395692000000001 0.06628890000000001 0.013207780000000004 0.06628890000000001 0.03395692000000001 0.06878880000000001 0.024915630000000008 0.03508187000000001 0.06295571000000001 0.029248780000000002 0.05153952000000001 0.014416070000000003 0.06399733000000002 0.05062289000000001 0.026290570000000003 0.05170618000000001 0.020499150000000008 0.03395692 0.03729011000000001 0.04333153000000001 0.02083247 0.08332986 0.02083247 0.04333153000000001 0.03729011000000001 0.03395692 0.06628890000000001 0.013207780000000002 0.06628890000000001 0.020499150000000004 0.06878880000000001 0.024915630000000005 0.03508187 0.06295571000000001 0.02924878 0.051539520000000005 0.014416070000000001 0.06399733000000002 0.050622890000000004 0.026290570000000003 0.051706180000000004 0.03395692 0.03729011000000001 0.04333153000000001 0.02083247 0.08332986 0.02083247 0.04333153000000001 0.03729011000000001 0.03395692 0.06628890000000001 0.013207780000000002 0.06628890000000001 0.020499150000000004 0.06878880000000001 0.024915630000000005 0.03508187 0.06295571000000001 0.02924878 0.051539520000000005 0.014416070000000001 0.06399733000000002 0.050622890000000004 0.026290570000000003 0.051706180000000004 0.03395692 0.03729011000000001 0.04333153000000001 0.02083247 0.08332986 0.02083247 0.04333153000000001 0.03729011000000001 0.03395692 0.06628890000000001 0.013207780000000002 0.06628890000000001 0.020499150000000004 0.06878880000000001 0.024915630000000005 0.03508187 0.06295571000000001 0.02924878 0.051539520000000005 0.014416070000000001 0.06399733000000002 0.050622890000000004 0.026290570000000003 0.051706180000000004 0.03395692 0.03729011000000001 0.04333153000000001 0.02083247 0.08332986 0.02083247 0.04333153000000001 0.03729011000000001 0.03395692 0.06628890000000001 0.013207780000000002 0.06628890000000001 0.020499150000000004 0.06878880000000001 0.024915630000000005 0.03508187 0.06295571000000001 0.02924878 0.051539520000000005 0.014416070000000001 0.06399733000000002 0.050622890000000004 0.026290570000000003 0.051706180000000004 0.03395692 0.03729011000000001 0.04333153000000001 0.02083247 0.08332986 0.02083247 0.04333153000000001 0.03729011000000001 0.03395692 0.06628890000000001 0.013207780000000002 0.06628890000000001 0.020499150000000004 0.06878880000000001 0.024915630000000005 0.03508187 0.06295571000000001 0.02924878 0.051539520000000005 0.014416070000000001 0.06399733000000002 0.050622890000000004 0.026290570000000003 0.051706180000000004 0.03395692 0.03729011000000001 0.04333153000000001 0.02083247 0.08332986 0.02083247 0.04333153000000001 0.03729011000000001 0.03395692 0.06628890000000001 0.013207780000000002 0.06628890000000001 0.020499150000000004 0.06878880000000001 0.024915630000000005 0.03508187 0.06295571000000001 0.02924878 0.051539520000000005 0.014416070000000001 0.06399733000000002 0.050622890000000004 0.026290570000000003 0.051706180000000004 0.03395692 0.03729011000000001 0.04333153000000001 0.02083247 0.08332986 0.02083247 0.04333153000000001 0.03729011000000001 0.03395692 0.06628890000000001 0.013207780000000002 0.06628890000000001 0.020499150000000004 0.06878880000000001 0.024915630000000005 0.03508187 0.06295571000000001 0.02924878 0.051539520000000005 0.014416070000000001 0.06399733000000002 0.050622890000000004 0.026290570000000003 0.051706180000000004 0.03395692 0.03729011000000001 0.04333153000000001 0.02083247 0.08332986 0.02083247 0.04333153000000001 0.03729011000000001 0.03395692 0.06628890000000001 0.013207780000000002 0.06628890000000001 0.020499150000000004 0.06878880000000001 0.024915630000000005 0.03508187 0.06295571000000001 0.02924878 0.051539520000000005 0.014416070000000001 0.06399733000000002 0.050622890000000004 0.026290570000000003 0.051706180000000004 0.03395692 0.03729011000000001 0.04333153000000001 0.02083247 0.08332986 0.02083247 0.04333153000000001 0.03729011000000001 0.03395692 0.06628890000000001 0.013207780000000002 0.06628890000000001 0.020499150000000004 0.06878880000000001 0.024915630000000005 0.03508187 0.06295571000000001 0.02924878 0.051539520000000005 0.014416070000000001 0.06399733000000002 0.050622890000000004 0.026290570000000003 0.051706180000000004 0.03395692 0.03729011000000001 0.04333153000000001 0.02083247 0.08332986 0.02083247 0.04333153000000001 0.03729011000000001 0.03395692 0.06628890000000001 0.013207780000000002 0.06628890000000001 0.020499150000000004 0.06878880000000001 0.024915630000000005 0.03508187 0.06295571000000001 0.02924878 0.051539520000000005 0.014416070000000001 0.06399733000000002 0.050622890000000004 0.026290570000000003 0.051706180000000004 0.03395692 0.03729011000000001 0.04333153000000001 0.02083247 0.08332986 0.02083247 0.04333153000000001 0.03729011000000001 0.03395692 0.06628890000000001 0.013207780000000002 0.06628890000000001 0.020499150000000004 0.06878880000000001 0.024915630000000005 0.03508187 0.06295571000000001 0.02924878 0.051539520000000005 0.014416070000000001 0.06399733000000002 0.050622890000000004 0.026290570000000003 0.051706180000000004 0.03395692 0.03729011000000001 0.04333153000000001 0.02083247 0.08332986 0.02083247 0.04333153000000001 0.03729011000000001 0.03395692 0.06628890000000001 0.013207780000000002 0.06628890000000001 0.020499150000000004 0.06878880000000001 0.024915630000000005 0.03508187 0.06295571000000001 0.02924878 0.051539520000000005 0.014416070000000001 0.06399733000000002 0.050622890000000004 0.026290570000000003 0.051706180000000004 0.03395692 0.03729011000000001 0.04333153000000001 0.02083247 0.08332986 0.02083247 0.04333153000000001 0.03729011000000001 0.03395692 0.06628890000000001 0.013207780000000002 0.06628890000000001 0.020499150000000004 0.06878880000000001 0.024915630000000005 0.03508187 0.06295571000000001 0.02924878 0.051539520000000005 0.014416070000000001 0.06399733000000002 0.050622890000000004 0.026290570000000003 0.051706180000000004 0.03395692 0.03729011000000001 0.04333153000000001 0.02083247 0.08332986 0.02083247 0.04333153000000001 0.03729011000000001 0.03395692 0.06628890000000001 0.013207780000000002 0.06628890000000001 0.020499150000000004 0.06878880000000001 0.024915630000000005 0.03508187 0.06295571000000001 0.02924878 0.051539520000000005 0.014416070000000001 0.06399733000000002 0.050622890000000004 0.026290570000000003 0.051706180000000004 0.03395692 0.03729011000000001 0.04333153000000001 0.02083247 0.08332986 0.02083247 0.04333153000000001 0.03729011000000001 0.03395692 0.06628890000000001 0.013207780000000002 0.06628890000000001 0.020499150000000004 0.06878880000000001 0.024915630000000005 0.03508187 0.06295571000000001 0.02924878 0.051539520000000005 0.014416070000000001 0.06399733000000002 0.050622890000000004 0.026290570000000003 0.051706180000000004 0.03395692 0.03729011000000001 0.04333153000000001 0.02083247 0.08332986 0.02083247 0.04333153000000001 0.03729011000000001 0.03395692 0.06628890000000001 0.013207780000000002 0.06628890000000001 0.020499150000000004 0.06878880000000001 0.024915630000000005 0.03508187 0.06295571000000001 0.02924878 0.051539520000000005 0.014416070000000001 0.06399733000000002 0.050622890000000004 0.026290570000000003 0.051706180000000004 0.03395692 0.03729011000000001 0.04333153000000001 0.02083247 0.08332986 0.02083247 0.04333153000000001 0.03729011000000001 0.03395692 0.06628890000000001 0.013207780000000002 0.06628890000000001 0.020499150000000004 0.06878880000000001 0.024915630000000005 0.03508187 0.06295571000000001 0.02924878 0.051539520000000005 0.014416070000000001 0.06399733000000002 0.050622890000000004 0.026290570000000003 0.051706180000000004 0.03395692 0.03729011000000001 0.04333153000000001 0.02083247 0.08332986 0.02083247 0.04333153000000001 0.03729011000000001 0.03395692 0.06628890000000001 0.013207780000000002 0.06628890000000001 0.020499150000000004 0.06878880000000001 0.024915630000000005 0.03508187 0.06295571000000001 0.02924878 0.051539520000000005 0.014416070000000001 0.06399733000000002 0.050622890000000004 0.026290570000000003 0.051706180000000004 0.03395692 0.03729011000000001 0.04333153000000001 0.02083247 0.08332986 0.02083247 0.04333153000000001 0.03729011000000001 0.03395692 0.06628890000000001 0.013207780000000002 0.06628890000000001 0.020499150000000004 0.06878880000000001 0.024915630000000005 0.03508187 0.06295571000000001 0.02924878 0.051539520000000005 0.014416070000000001 0.06399733000000002 0.050622890000000004 0.026290570000000003 0.051706180000000004 0.03395692 0.03729011000000001 0.04333153000000001 0.02083247 0.08332986 0.02083247 0.04333153000000001 0.03729011000000001 0.03395692 0.06628890000000001 0.013207780000000002 0.06628890000000001 0.020499150000000004 0.06878880000000001 0.024915630000000005 0.03508187 0.06295571000000001 0.02924878 0.051539520000000005 0.014416070000000001 0.06399733000000002 0.050622890000000004 0.026290570000000003 0.051706180000000004 0.03395692 0.03729011000000001 0.04333153000000001 0.02083247 0.08332986 0.02083247 0.04333153000000001 0.03729011000000001 0.03395692 0.06628890000000001 0.013207780000000002 0.06628890000000001 0.020499150000000004 0.06878880000000001 0.024915630000000005 0.03508187 0.06295571000000001 0.02924878 0.051539520000000005 0.014416070000000001 0.06399733000000002 0.050622890000000004 0.026290570000000003 0.051706180000000004 0.03395692 0.03729011000000001 0.04333153000000001 0.02083247 0.08332986 0.02083247 0.04333153000000001 0.03729011000000001 0.03395692 0.06628890000000001 0.013207780000000002 0.06628890000000001 0.020499150000000004 0.06878880000000001 0.024915630000000005 0.03508187 0.06295571000000001 0.02924878 0.051539520000000005 0.014416070000000001 0.06399733000000002 0.050622890000000004 0.026290570000000003 0.051706180000000004 0.03395692 0.03729011000000001 0.04333153000000001 0.02083247 0.08332986 0.02083247 0.04333153000000001 0.03729011000000001 0.03395692 0.06628890000000001 0.013207780000000002 0.06628890000000001 0.020499150000000004 0.06878880000000001 0.024915630000000005 0.03508187 0.06295571000000001 0.02924878 0.051539520000000005 0.014416070000000001 0.06399733000000002 0.050622890000000004 0.026290570000000003 0.051706180000000004 0.03395692 0.03729011000000001 0.04333153000000001 0.02083247 0.08332986 0.02083247 0.04333153000000001 0.03729011000000001 0.03395692 0.06628890000000001 0.013207780000000002 0.06628890000000001 0.020499150000000004 0.06878880000000001 0.024915630000000005 0.03508187 0.06295571000000001 0.02924878 0.051539520000000005 0.014416070000000001 0.06399733000000002 0.050622890000000004 0.026290570000000003 0.051706180000000004 0.06628890000000001 0.03395692 0.03729011000000001 0.04333153000000001 0.02083247 0.08332986 0.02083247 0.04333153000000001 0.03729011000000001 0.03395692 0.06628890000000001 0.013207780000000002 0.051706180000000004 0.020499150000000004 0.06878880000000001 0.024915630000000005 0.03508187 0.06295571000000001 0.02924878 0.051539520000000005 0.014416070000000001 0.06399733000000002 0.050622890000000004 0.026290570000000003 0.06628890000000001 0.03395692 0.03729011000000001 0.04333153000000001 0.02083247 0.08332986 0.02083247 0.04333153000000001 0.03729011000000001 0.03395692 0.06628890000000001 0.013207780000000002 0.051706180000000004 0.020499150000000004 0.06878880000000001 0.024915630000000005 0.03508187 0.06295571000000001 0.02924878 0.051539520000000005 0.014416070000000001 0.06399733000000002 0.050622890000000004 0.026290570000000003 0.06628890000000001 0.03395692 0.03729011000000001 0.04333153000000001 0.02083247 0.08332986 0.02083247 0.04333153000000001 0.03729011000000001 0.03395692 0.06628890000000001 0.013207780000000002 0.051706180000000004 0.020499150000000004 0.06878880000000001 0.024915630000000005 0.03508187 0.06295571000000001 0.02924878 0.051539520000000005 0.014416070000000001 0.06399733000000002 0.050622890000000004 0.026290570000000003 0.06628890000000001 0.03395692 0.03729011000000001 0.04333153000000001 0.02083247 0.08332986 0.02083247 0.04333153000000001 0.03729011000000001 0.03395692 0.06628890000000001 0.013207780000000002 0.051706180000000004 0.020499150000000004 0.06878880000000001 0.024915630000000005 0.03508187 0.06295571000000001 0.02924878 0.051539520000000005 0.014416070000000001 0.06399733000000002 0.050622890000000004 0.026290570000000003 0.06628890000000001 0.03395692 0.03729011000000001 0.04333153000000001 0.02083247 0.08332986 0.02083247 0.04333153000000001 0.03729011000000001 0.03395692 0.06628890000000001 0.013207780000000002 0.051706180000000004 0.020499150000000004 0.06878880000000001 0.024915630000000005 0.03508187 0.06295571000000001 0.02924878 0.051539520000000005 0.014416070000000001 0.06399733000000002 0.050622890000000004 0.026290570000000003 0.06628890000000001 0.03395692 0.03729011000000001 0.04333153000000001 0.02083247 0.08332986 0.02083247 0.04333153000000001 0.03729011000000001 0.03395692 0.06628890000000001 0.013207780000000002 0.051706180000000004 0.020499150000000004 0.06878880000000001 0.024915630000000005 0.03508187 0.06295571000000001 0.02924878 0.051539520000000005 0.014416070000000001 0.06399733000000002 0.050622890000000004 0.026290570000000003 0.06628890000000001 0.03395692 0.03729011000000001 0.04333153000000001 0.02083247 0.08332986 0.02083247 0.04333153000000001 0.03729011000000001 0.03395692 0.06628890000000001 0.013207780000000002 0.051706180000000004 0.020499150000000004 0.06878880000000001 0.024915630000000005 0.03508187 0.06295571000000001 0.02924878 0.051539520000000005 0.014416070000000001 0.06399733000000002 0.050622890000000004 0.026290570000000003 0.06628890000000001 0.03395692 0.03729011000000001 0.04333153000000001 0.02083247 0.08332986 0.02083247 0.04333153000000001 0.03729011000000001 0.03395692 0.06628890000000001 0.013207780000000002 0.051706180000000004 0.020499150000000004 0.06878880000000001 0.024915630000000005 0.03508187 0.06295571000000001 0.02924878 0.051539520000000005 0.014416070000000001 0.06399733000000002 0.050622890000000004 0.026290570000000003 0.06628890000000001 0.03395692 0.03729011000000001 0.04333153000000001 0.02083247 0.08332986 0.02083247 0.04333153000000001 0.03729011000000001 0.03395692 0.06628890000000001 0.013207780000000002 0.051706180000000004 0.020499150000000004 0.06878880000000001 0.024915630000000005 0.03508187 0.06295571000000001 0.02924878 0.051539520000000005 0.014416070000000001 0.06399733000000002 0.050622890000000004 0.026290570000000003 0.06628890000000001 0.03395692 0.03729011000000001 0.04333153000000001 0.02083247 0.08332986 0.02083247 0.04333153000000001 0.03729011000000001 0.03395692 0.06628890000000001 0.013207780000000002 0.051706180000000004 0.020499150000000004 0.06878880000000001 0.024915630000000005 0.03508187 0.06295571000000001 0.02924878 0.051539520000000005 0.014416070000000001 0.06399733000000002 0.050622890000000004 0.026290570000000003 0.06628890000000001 0.03395692 0.03729011000000001 0.04333153000000001 0.02083247 0.08332986 0.02083247 0.04333153000000001 0.03729011000000001 0.03395692 0.06628890000000001 0.013207780000000002 0.051706180000000004 0.020499150000000004 0.06878880000000001 0.024915630000000005 0.03508187 0.06295571000000001 0.02924878 0.051539520000000005 0.014416070000000001 0.06399733000000002 0.050622890000000004 0.026290570000000003 0.06628890000000001 0.03395692 0.03729011000000001 0.04333153000000001 0.02083247 0.08332986 0.02083247 0.04333153000000001 0.03729011000000001 0.03395692 0.06628890000000001 0.013207780000000002 0.051706180000000004 0.020499150000000004 0.06878880000000001 0.024915630000000005 0.03508187 0.06295571000000001 0.02924878 0.051539520000000005 0.014416070000000001 0.06399733000000002 0.050622890000000004 0.026290570000000003 0.06628890000000001 0.03395692 0.03729011000000001 0.04333153000000001 0.02083247 0.08332986 0.02083247 0.04333153000000001 0.03729011000000001 0.03395692 0.06628890000000001 0.013207780000000002 0.051706180000000004 0.020499150000000004 0.06878880000000001 0.024915630000000005 0.03508187 0.06295571000000001 0.02924878 0.051539520000000005 0.014416070000000001 0.06399733000000002 0.050622890000000004 0.026290570000000003 0.06628890000000001 0.03395692 0.03729011000000001 0.04333153000000001 0.02083247 0.08332986 0.02083247 0.04333153000000001 0.03729011000000001 0.03395692 0.06628890000000001 0.013207780000000002 0.051706180000000004 0.020499150000000004 0.06878880000000001 0.024915630000000005 0.03508187 0.06295571000000001 0.02924878 0.051539520000000005 0.014416070000000001 0.06399733000000002 0.050622890000000004 0.026290570000000003 0.06628890000000001 0.03395692 0.03729011000000001 0.04333153000000001 0.02083247 0.08332986 0.02083247 0.04333153000000001 0.03729011000000001 0.03395692 0.06628890000000001 0.013207780000000002 0.051706180000000004 0.020499150000000004 0.06878880000000001 0.024915630000000005 0.03508187 0.06295571000000001 0.02924878 0.051539520000000005 0.014416070000000001 0.06399733000000002 0.050622890000000004 0.026290570000000003 0.06628890000000001 0.03395692 0.03729011000000001 0.04333153000000001 0.02083247 0.08332986 0.02083247 0.04333153000000001 0.03729011000000001 0.03395692 0.06628890000000001 0.013207780000000002 0.051706180000000004 0.020499150000000004 0.06878880000000001 0.024915630000000005 0.03508187 0.06295571000000001 0.02924878 0.051539520000000005 0.014416070000000001 0.06399733000000002 0.050622890000000004 0.026290570000000003 0.06628890000000001 0.03395692 0.03729011000000001 0.04333153000000001 0.02083247 0.08332986 0.02083247 0.04333153000000001 0.03729011000000001 0.03395692 0.06628890000000001 0.013207780000000002 0.051706180000000004 0.020499150000000004 0.06878880000000001 0.024915630000000005 0.03508187 0.06295571000000001 0.02924878 0.051539520000000005 0.014416070000000001 0.06399733000000002 0.050622890000000004 0.026290570000000003 0.06628890000000001 0.03395692 0.03729011000000001 0.04333153000000001 0.02083247 0.08332986 0.02083247 0.04333153000000001 0.03729011000000001 0.03395692 0.06628890000000001 0.013207780000000002 0.051706180000000004 0.020499150000000004 0.06878880000000001 0.024915630000000005 0.03508187 0.06295571000000001 0.02924878 0.051539520000000005 0.014416070000000001 0.06399733000000002 0.050622890000000004 0.026290570000000003 0.06628890000000001 0.03395692 0.03729011000000001 0.04333153000000001 0.02083247 0.08332986 0.02083247 0.04333153000000001 0.03729011000000001 0.03395692 0.06628890000000001 0.013207780000000002 0.051706180000000004 0.020499150000000004 0.06878880000000001 0.024915630000000005 0.03508187 0.06295571000000001 0.02924878 0.051539520000000005 0.014416070000000001 0.06399733000000002 0.050622890000000004 0.026290570000000003 0.06628890000000001 0.03395692 0.03729011000000001 0.04333153000000001 0.02083247 0.08332986 0.02083247 0.04333153000000001 0.03729011000000001 0.03395692 0.06628890000000001 0.013207780000000002 0.051706180000000004 0.020499150000000004 0.06878880000000001 0.024915630000000005 0.03508187 0.06295571000000001 0.02924878 0.051539520000000005 0.014416070000000001 0.06399733000000002 0.050622890000000004 0.026290570000000003 0.06628890000000001 0.03395692 0.03729011000000001 0.04333153000000001 0.02083247 0.08332986 0.02083247 0.04333153000000001 0.03729011000000001 0.03395692 0.06628890000000001 0.013207780000000002 0.051706180000000004 0.020499150000000004 0.06878880000000001 0.024915630000000005 0.03508187 0.06295571000000001 0.02924878 0.051539520000000005 0.014416070000000001 0.06399733000000002 0.050622890000000004 0.026290570000000003 0.06628890000000001 0.03395692 0.03729011000000001 0.04333153000000001 0.02083247 0.08332986 0.02083247 0.04333153000000001 0.03729011000000001 0.03395692 0.06628890000000001 0.013207780000000002 0.051706180000000004 0.020499150000000004 0.06878880000000001 0.024915630000000005 0.03508187 0.06295571000000001 0.02924878 0.051539520000000005 0.014416070000000001 0.06399733000000002 0.050622890000000004 0.026290570000000003 0.06628890000000001 0.03395692 0.03729011000000001 0.04333153000000001 0.02083247 0.08332986 0.02083247 0.04333153000000001 0.03729011000000001 0.03395692 0.06628890000000001 0.013207780000000002 0.051706180000000004 0.020499150000000004 0.06878880000000001 0.024915630000000005 0.03508187 0.06295571000000001 0.02924878 0.051539520000000005 0.014416070000000001 0.06399733000000002 0.050622890000000004 0.026290570000000003 0.06628890000000001 0.03395692 0.03729011000000001 0.04333153000000001 0.02083247 0.08332986 0.02083247 0.04333153000000001 0.03729011000000001 0.03395692 0.06628890000000001 0.013207780000000002 0.051706180000000004 0.020499150000000004 0.06878880000000001 0.024915630000000005 0.03508187 0.06295571000000001 0.02924878 0.051539520000000005 0.014416070000000001 0.06399733000000002 0.050622890000000004 0.026290570000000003 0.013207780000000002 0.06628890000000001 0.03395692 0.03729011000000001 0.04333153000000001 0.02083247 0.08332986 0.02083247 0.04333153000000001 0.03729011000000001 0.03395692 0.06628890000000001 0.026290570000000003 0.051706180000000004 0.020499150000000004 0.06878880000000001 0.024915630000000005 0.03508187 0.06295571000000001 0.02924878 0.051539520000000005 0.014416070000000001 0.06399733000000002 0.050622890000000004 0.013207780000000002 0.06628890000000001 0.03395692 0.03729011000000001 0.04333153000000001 0.02083247 0.08332986 0.02083247 0.04333153000000001 0.03729011000000001 0.03395692 0.06628890000000001 0.026290570000000003 0.051706180000000004 0.020499150000000004 0.06878880000000001 0.024915630000000005 0.03508187 0.06295571000000001 0.02924878 0.051539520000000005 0.014416070000000001 0.06399733000000002 0.050622890000000004 0.013207780000000002 0.06628890000000001 0.03395692 0.03729011000000001 0.04333153000000001 0.02083247 0.08332986 0.02083247 0.04333153000000001 0.03729011000000001 0.03395692 0.06628890000000001 0.026290570000000003 0.051706180000000004 0.020499150000000004 0.06878880000000001 0.024915630000000005 0.03508187 0.06295571000000001 0.02924878 0.051539520000000005 0.014416070000000001 0.06399733000000002 0.050622890000000004 0.013207780000000002 0.06628890000000001 0.03395692 0.03729011000000001 0.04333153000000001 0.02083247 0.08332986 0.02083247 0.04333153000000001 0.03729011000000001 0.03395692 0.06628890000000001 0.026290570000000003 0.051706180000000004 0.020499150000000004 0.06878880000000001 0.024915630000000005 0.03508187 0.06295571000000001 0.02924878 0.051539520000000005 0.014416070000000001 0.06399733000000002 0.050622890000000004 0.013207780000000002 0.06628890000000001 0.03395692 0.03729011000000001 0.04333153000000001 0.02083247 0.08332986 0.02083247 0.04333153000000001 0.03729011000000001 0.03395692 0.06628890000000001 0.026290570000000003 0.051706180000000004 0.020499150000000004 0.06878880000000001 0.024915630000000005 0.03508187 0.06295571000000001 0.02924878 0.051539520000000005 0.014416070000000001 0.06399733000000002 0.050622890000000004 0.013207780000000002 0.06628890000000001 0.03395692 0.03729011000000001 0.04333153000000001 0.02083247 0.08332986 0.02083247 0.04333153000000001 0.03729011000000001 0.03395692 0.06628890000000001 0.026290570000000003 0.051706180000000004 0.020499150000000004 0.06878880000000001 0.024915630000000005 0.03508187 0.06295571000000001 0.02924878 0.051539520000000005 0.014416070000000001 0.06399733000000002 0.050622890000000004 0.013207780000000002 0.06628890000000001 0.03395692 0.03729011000000001 0.04333153000000001 0.02083247 0.08332986 0.02083247 0.04333153000000001 0.03729011000000001 0.03395692 0.06628890000000001 0.026290570000000003 0.051706180000000004 0.020499150000000004 0.06878880000000001 0.024915630000000005 0.03508187 0.06295571000000001 0.02924878 0.051539520000000005 0.014416070000000001 0.06399733000000002 0.050622890000000004 0.013207780000000002 0.06628890000000001 0.03395692 0.03729011000000001 0.04333153000000001 0.02083247 0.08332986 0.02083247 0.04333153000000001 0.03729011000000001 0.03395692 0.06628890000000001 0.026290570000000003 0.051706180000000004 0.020499150000000004 0.06878880000000001 0.024915630000000005 0.03508187 0.06295571000000001 0.02924878 0.051539520000000005 0.014416070000000001 0.06399733000000002 0.050622890000000004 0.013207780000000002 0.06628890000000001 0.03395692 0.03729011000000001 0.04333153000000001 0.02083247 0.08332986 0.02083247 0.04333153000000001 0.03729011000000001 0.03395692 0.06628890000000001 0.026290570000000003 0.051706180000000004 0.020499150000000004 0.06878880000000001 0.024915630000000005 0.03508187 0.06295571000000001 0.02924878 0.051539520000000005 0.014416070000000001 0.06399733000000002 0.050622890000000004 0.013207780000000002 0.06628890000000001 0.03395692 0.03729011000000001 0.04333153000000001 0.02083247 0.08332986 0.02083247 0.04333153000000001 0.03729011000000001 0.03395692 0.06628890000000001 0.026290570000000003 0.051706180000000004 0.020499150000000004 0.06878880000000001 0.024915630000000005 0.03508187 0.06295571000000001 0.02924878 0.051539520000000005 0.014416070000000001 0.06399733000000002 0.050622890000000004 0.013207780000000002 0.06628890000000001 0.03395692 0.03729011000000001 0.04333153000000001 0.02083247 0.08332986 0.02083247 0.04333153000000001 0.03729011000000001 0.03395692 0.06628890000000001 0.026290570000000003 0.051706180000000004 0.020499150000000004 0.06878880000000001 0.024915630000000005 0.03508187 0.06295571000000001 0.02924878 0.051539520000000005 0.014416070000000001 0.06399733000000002 0.050622890000000004 0.013207780000000002 0.06628890000000001 0.03395692 0.03729011000000001 0.04333153000000001 0.02083247 0.08332986 0.02083247 0.04333153000000001 0.03729011000000001 0.03395692 0.06628890000000001 0.026290570000000003 0.051706180000000004 0.020499150000000004 0.06878880000000001 0.024915630000000005 0.03508187 0.06295571000000001 0.02924878 0.051539520000000005 0.014416070000000001 0.06399733000000002 0.050622890000000004 0.013207780000000002 0.06628890000000001 0.03395692 0.03729011000000001 0.04333153000000001 0.02083247 0.08332986 0.02083247 0.04333153000000001 0.03729011000000001 0.03395692 0.06628890000000001 0.026290570000000003 0.051706180000000004 0.020499150000000004 0.06878880000000001 0.024915630000000005 0.03508187 0.06295571000000001 0.02924878 0.051539520000000005 0.014416070000000001 0.06399733000000002 0.050622890000000004 0.013207780000000002 0.06628890000000001 0.03395692 0.03729011000000001 0.04333153000000001 0.02083247 0.08332986 0.02083247 0.04333153000000001 0.03729011000000001 0.03395692 0.06628890000000001 0.026290570000000003 0.051706180000000004 0.020499150000000004 0.06878880000000001 0.024915630000000005 0.03508187 0.06295571000000001 0.02924878 0.051539520000000005 0.014416070000000001 0.06399733000000002 0.050622890000000004 0.013207780000000002 0.06628890000000001 0.03395692 0.03729011000000001 0.04333153000000001 0.02083247 0.08332986 0.02083247 0.04333153000000001 0.03729011000000001 0.03395692 0.06628890000000001 0.026290570000000003 0.051706180000000004 0.020499150000000004 0.06878880000000001 0.024915630000000005 0.03508187 0.06295571000000001 0.02924878 0.051539520000000005 0.014416070000000001 0.06399733000000002 0.050622890000000004 0.013207780000000002 0.06628890000000001 0.03395692 0.03729011000000001 0.04333153000000001 0.02083247 0.08332986 0.02083247 0.04333153000000001 0.03729011000000001 0.03395692 0.06628890000000001 0.026290570000000003 0.051706180000000004 0.020499150000000004 0.06878880000000001 0.024915630000000005 0.03508187 0.06295571000000001 0.02924878 0.051539520000000005 0.014416070000000001 0.06399733000000002 0.050622890000000004 0.013207780000000002 0.06628890000000001 0.03395692 0.03729011000000001 0.04333153000000001 0.02083247 0.08332986 0.02083247 0.04333153000000001 0.03729011000000001 0.03395692 0.06628890000000001 0.026290570000000003 0.051706180000000004 0.020499150000000004 0.06878880000000001 0.024915630000000005 0.03508187 0.06295571000000001 0.02924878 0.051539520000000005 0.014416070000000001 0.06399733000000002 0.050622890000000004 0.013207780000000002 0.06628890000000001 0.03395692 0.03729011000000001 0.04333153000000001 0.02083247 0.08332986 0.02083247 0.04333153000000001 0.03729011000000001 0.03395692 0.06628890000000001 0.026290570000000003 0.051706180000000004 0.020499150000000004 0.06878880000000001 0.024915630000000005 0.03508187 0.06295571000000001 0.02924878 0.051539520000000005 0.014416070000000001 0.06399733000000002 0.050622890000000004 0.013207780000000002 0.06628890000000001 0.03395692 0.03729011000000001 0.04333153000000001 0.02083247 0.08332986 0.02083247 0.04333153000000001 0.03729011000000001 0.03395692 0.06628890000000001 0.026290570000000003 0.051706180000000004 0.020499150000000004 0.06878880000000001 0.024915630000000005 0.03508187 0.06295571000000001 0.02924878 0.051539520000000005 0.014416070000000001 0.06399733000000002 0.050622890000000004 0.013207780000000002 0.06628890000000001 0.03395692 0.03729011000000001 0.04333153000000001 0.02083247 0.08332986 0.02083247 0.04333153000000001 0.03729011000000001 0.03395692 0.06628890000000001 0.026290570000000003 0.051706180000000004 0.020499150000000004 0.06878880000000001 0.024915630000000005 0.03508187 0.06295571000000001 0.02924878 0.051539520000000005 0.014416070000000001 0.06399733000000002 0.050622890000000004 0.013207780000000002 0.06628890000000001 0.03395692 0.03729011000000001 0.04333153000000001 0.02083247 0.08332986 0.02083247 0.04333153000000001 0.03729011000000001 0.03395692 0.06628890000000001 0.026290570000000003 0.051706180000000004 0.020499150000000004 0.06878880000000001 0.024915630000000005 0.03508187 0.06295571000000001 0.02924878 0.051539520000000005 0.014416070000000001 0.06399733000000002 0.050622890000000004 0.013207780000000002 0.06628890000000001 0.03395692 0.03729011000000001 0.04333153000000001 0.02083247 0.08332986 0.02083247 0.04333153000000001 0.03729011000000001 0.03395692 0.06628890000000001 0.026290570000000003 0.051706180000000004 0.020499150000000004 0.06878880000000001 0.024915630000000005 0.03508187 0.06295571000000001 0.02924878 0.051539520000000005 0.014416070000000001 0.06399733000000002 0.050622890000000004 0.013207780000000002 0.06628890000000001 0.03395692 0.03729011000000001 0.04333153000000001 0.02083247 0.08332986 0.02083247 0.04333153000000001 0.03729011000000001 0.03395692 0.06628890000000001 0.026290570000000003 0.051706180000000004 0.020499150000000004 0.06878880000000001 0.024915630000000005 0.03508187 0.06295571000000001 0.02924878 0.051539520000000005 0.014416070000000001 0.06399733000000002 0.050622890000000004 0.013207780000000002 0.06628890000000001 0.03395692 0.03729011000000001 0.04333153000000001 0.02083247 0.08332986 0.02083247 0.04333153000000001 0.03729011000000001 0.03395692 0.06628890000000001 0.026290570000000003 0.051706180000000004 0.020499150000000004 0.06878880000000001 0.024915630000000005 0.03508187 0.06295571000000001 0.02924878 0.051539520000000005 0.014416070000000001 0.06399733000000002 0.050622890000000004 0.0662889 0.01320778 0.0662889 0.03395692 0.03729011 0.04333153 0.02083247 0.08332986 0.02083247 0.04333153 0.03729011 0.03395692 0.05062289 0.02629057 0.05170618 0.02049915 0.0687888 0.02491563 0.035081869999999994 0.06295571 0.029248779999999995 0.05153952 0.01441607 0.06399733 0.0662889 0.01320778 0.0662889 0.03395692 0.03729011 0.04333153 0.02083247 0.08332986 0.02083247 0.04333153 0.03729011 0.03395692 0.05062289 0.02629057 0.05170618 0.02049915 0.0687888 0.02491563 0.035081869999999994 0.06295571 0.029248779999999995 0.05153952 0.01441607 0.06399733 0.0662889 0.01320778 0.0662889 0.03395692 0.03729011 0.04333153 0.02083247 0.08332986 0.02083247 0.04333153 0.03729011 0.03395692 0.05062289 0.02629057 0.05170618 0.02049915 0.0687888 0.02491563 0.035081869999999994 0.06295571 0.029248779999999995 0.05153952 0.01441607 0.06399733 0.0662889 0.01320778 0.0662889 0.03395692 0.03729011 0.04333153 0.02083247 0.08332986 0.02083247 0.04333153 0.03729011 0.03395692 0.05062289 0.02629057 0.05170618 0.02049915 0.0687888 0.02491563 0.035081869999999994 0.06295571 0.029248779999999995 0.05153952 0.01441607 0.06399733 0.0662889 0.01320778 0.0662889 0.03395692 